svm_type c_svc
kernel_type linear
nr_class 4
total_sv 192
rho 0.167984 -0.376219 1.34323 -0.619373 1.08496 1.42784
label 0 1 2 3
nr_sv 50 45 50 47
SV
0.0003110372859534733 0.0007601957596830586 0 123:2 139:1 141:2 191:2 202:1 262:4 437:1 600:1 601:1 661:1 685:1 690:1 730:1 894:2 959:1 983:1 1021:3 1024:1 1037:4 1044:3 1222:1 1235:2 1495:2 1496:1 1649:2 1687:5 1717:1 1766:3 1770:1 1792:1 1805:2 1924:2 1961:1 2173:1 2348:1 2359:1 2363:2 2454:2 2592:2 2648:2 2698:1 2706:1 2773:1 2850:1 2927:1 2994:1 3135:1 3313:1 3472:1 3665:1 3826:1 3877:1 3886:1 3914:3 4093:1 4138:1 4145:1 4170:1 4256:1 4588:5 4591:1 4623:2 4657:1 4746:2 4963:3 5014:3 5163:1 5210:3 5246:2 5284:3 5285:1 5293:1 5298:7 5430:12 5494:1 5522:1 5696:1 5719:1 5760:3 5832:2 5838:1 5841:1 5862:40 5879:1 6066:1 6071:6 6124:4 6172:1 6295:1 6341:1 6387:1 6406:1 6557:13 6570:1 6580:1 6636:1 6653:1 6668:1 6670:1 6694:1 6699:18 6838:1 6858:1 6876:1 6880:2 6957:1 7039:1 7169:1 7190:1 7289:2 7313:1 7323:1 7405:2 7553:1 7559:1 7579:1 7879:1 7882:1 7925:1 8095:1 8117:2 8166:1 8178:1 8194:1 8206:1 8305:1 8364:2 8384:1 8390:2 8440:1 8491:3 8533:2 8548:1 8571:1 8623:1 8638:2 8639:1 9056:1 9112:1 9197:1 9209:1 9235:1 9286:1 9338:1 9447:1 9465:1 9485:1 9627:3 9649:1 9698:1 9713:1 9728:2 9849:1 9920:1 10000:1 10029:4 10046:1 10105:1 10184:2 10215:1 10274:1 10347:2 10481:1 10482:1 10546:1 10607:2 10608:1 10636:1 10638:2 10652:1 10712:1 10927:1 10989:1 11010:1 11047:1 11110:3 11215:1 11265:1 11383:1 11499:3 11581:1 11606:1 11616:1 11618:3 11620:1 11644:1 11694:2 11887:2 11893:1 11934:1 11949:1 11964:8 12036:2 12050:1 12086:1 12143:1 12164:1 12273:1 12389:1 12569:1 12614:1 12630:1 12739:1 12771:1 12829:1 12868:3 12891:1 12895:1 12918:1 12924:1 12938:1 12953:1 12956:1 12986:2 13024:1 13051:10 13077:3 13159:4 13234:1 13243:1 13282:1 13300:1 13337:2 13354:1 13373:2 13441:1 13651:1 13671:1 13745:1 13815:1 13823:3 13895:1 14089:1 14136:3 14204:1 14208:3 14221:3 14331:1 14448:2 14470:2 14560:1 14582:1 14627:1 14657:1 14728:4 14735:1 14845:1 14916:1 14961:1 15002:4 15036:1 15071:1 15080:1 15082:1 15101:1 15256:1 15289:1 15392:1 15393:2 15581:1 15591:1 15637:2 15705:1 15987:2 15996:2 16040:1 16180:1 16201:1 16210:1 16330:1 16370:1 16448:1 16574:2 16616:1 16628:1 16635:21 16655:1 16658:1 16679:1 16700:1 16866:1 16928:1 16980:2 17006:1 17056:1 17080:2 17204:2 17271:2 17354:1 17444:2 17516:2 17553:1 17555:1 17556:3 17683:1 17701:1 17705:1 17747:1 17954:1 17968:1 18035:2 18072:11 18216:1 18436:1 18603:3 18740:1 18746:1 18764:5 18782:1 18824:1 18829:1 18922:1 18940:1 18987:2 19017:1 19030:1 19085:3 19159:3 19182:1 19262:1 19480:1 19481:2 19552:2 19571:1 
0.0007219803124013752 0.000639913455637756 0.0005070544089357945 75:2 218:1 221:1 459:1 490:3 571:2 587:4 601:1 661:1 821:1 851:1 894:1 921:1 979:2 987:1 1024:2 1037:15 1086:2 1130:1 1235:1 1291:1 1293:2 1440:1 1492:1 1495:1 1496:3 1508:1 1529:1 1590:1 1648:1 1709:2 1961:2 1985:1 2102:1 2171:1 2207:1 2211:1 2276:3 2298:1 2363:1 2393:1 2516:1 2572:1 2639:3 2654:1 2685:1 2773:11 2824:1 2829:1 2908:1 2948:1 2994:1 3020:1 3190:2 3275:1 3298:1 3421:1 3425:1 3527:2 3584:1 3596:1 3629:1 3680:2 3705:2 3707:2 3772:1 3804:1 3827:2 3851:1 3862:1 3914:4 3940:3 3967:1 4340:1 4385:1 4400:1 4449:1 4543:1 4608:1 4609:1 4713:1 4862:1 4889:1 4937:1 4953:1 5014:2 5062:1 5072:1 5081:1 5190:1 5298:1 5395:1 5413:2 5521:1 5568:1 5700:10 5719:1 5744:1 5760:1 5857:1 5862:29 5903:1 5961:1 6071:2 6085:1 6146:1 6374:1 6392:7 6395:2 6406:2 6447:1 6467:4 6507:1 6557:2 6560:1 6656:3 6670:2 6699:3 6726:1 6745:1 6824:1 6861:1 6915:1 6922:1 6980:1 7038:1 7039:1 7076:1 7127:1 7167:1 7178:1 7240:2 7263:1 7289:2 7309:1 7311:1 7344:1 7405:1 7462:1 7477:1 7499:1 7581:1 7617:3 7625:1 7750:1 7753:1 7763:3 7788:1 7881:1 7901:1 8218:3 8444:1 8638:1 8727:1 8833:1 8860:1 8863:1 9017:1 9063:1 9088:1 9109:1 9134:1 9251:2 9338:1 9394:1 9417:1 9437:1 9526:1 9561:1 9662:9 9697:1 9720:2 9727:2 9803:1 9867:3 9871:1 9920:2 9924:1 9972:1 10046:3 10096:1 10114:1 10143:1 10152:5 10244:2 10274:1 10328:1 10481:1 10483:1 10531:1 10533:1 10618:1 10636:2 10638:2 10712:1 10757:1 10796:1 10838:3 10846:3 10923:2 11004:1 11149:1 11269:1 11286:1 11396:1 11426:1 11429:3 11436:2 11481:1 11506:1 11549:1 11620:3 11893:1 11928:2 11940:1 11964:1 11993:3 12024:2 12061:1 12096:1 12164:1 12273:1 12385:1 12394:2 12502:1 12503:3 12558:2 12570:1 12596:20 12705:1 12722:2 12795:1 12844:1 12896:1 12924:1 12935:9 13011:2 13074:1 13126:1 13190:1 13243:2 13266:2 13321:1 13346:1 13359:1 13512:3 13590:3 13596:3 13717:1 13751:1 13756:1 13804:1 13811:2 13895:1 13898:1 13900:1 13987:1 14000:2 14057:1 14091:1 14095:1 14136:3 14259:2 14284:1 14286:1 14331:1 14363:1 14385:1 14421:1 14530:1 14560:1 14646:1 14659:1 14693:1 14758:1 14771:1 14780:1 14854:4 14888:3 14910:2 14943:2 14961:1 14969:3 14997:1 15036:1 15216:1 15237:1 15271:2 15328:1 15343:1 15352:2 15438:1 15477:7 15637:1 15781:1 15926:1 15972:1 15993:1 16105:1 16126:3 16161:1 16166:1 16228:2 16286:1 16370:4 16387:2 16501:1 16536:1 16541:1 16635:25 16665:2 16702:1 16738:1 16928:1 17051:4 17116:1 17305:1 17343:2 17354:2 17372:5 17435:1 17555:1 17578:1 17665:5 17701:1 17904:1 17921:1 17934:1 18072:1 18104:1 18143:1 18148:1 18481:1 18493:1 18554:1 18559:1 18603:3 18710:1 18746:1 18764:3 18910:1 18912:1 18940:1 18955:1 18970:2 18982:1 18987:1 19085:8 19099:2 19159:1 19244:3 19418:1 19437:8 19452:1 19523:1 19552:2 19676:1 19727:1 19767:2 
0 4.823400513696534e-005 0 70:1 123:2 153:3 226:1 229:3 247:1 262:1 285:3 345:1 388:1 396:1 401:1 416:2 491:2 568:2 587:1 601:1 605:6 726:1 745:1 755:2 821:1 830:7 894:3 959:1 967:1 976:2 1020:2 1024:2 1037:4 1096:1 1311:1 1321:2 1495:1 1496:1 1505:1 1635:1 1687:2 1725:1 1733:1 1770:1 1841:1 1961:1 2139:1 2348:1 2352:1 2363:4 2474:3 2592:1 2648:5 2687:1 2691:1 2696:1 2750:1 2773:2 2817:2 2881:2 2994:2 3051:1 3135:3 3500:1 3520:1 3544:1 3569:5 3603:1 3617:1 3674:1 3824:1 3842:2 3845:2 3851:2 3914:4 3935:1 4033:1 4095:1 4183:1 4187:10 4191:3 4340:4 4358:1 4385:1 4461:2 4602:1 4623:1 4634:1 4684:1 4934:4 4974:1 5014:3 5028:1 5072:2 5222:1 5234:2 5271:1 5285:1 5409:3 5479:1 5536:1 5545:1 5568:2 5569:1 5700:2 5760:6 5862:37 5873:1 5882:1 5987:2 6053:1 6066:1 6071:6 6145:2 6156:1 6172:1 6251:1 6282:2 6307:1 6387:1 6406:1 6483:4 6516:1 6522:2 6545:1 6557:10 6560:3 6670:1 6699:30 6715:1 6783:7 6858:2 6876:1 6937:1 6957:1 7140:1 7157:1 7178:1 7184:2 7199:1 7258:1 7289:2 7313:1 7401:4 7405:15 7472:1 7489:3 7499:1 7612:1 7678:1 7683:1 7878:1 7881:1 8027:1 8080:1 8095:1 8112:1 8198:1 8263:1 8312:2 8364:1 8428:2 8453:1 8470:1 8491:9 8571:1 8605:1 8639:2 8717:1 8798:1 8899:1 8949:2 8968:1 8970:1 9056:1 9112:1 9120:1 9259:1 9324:1 9338:1 9354:1 9417:1 9433:1 9482:1 9627:4 9920:1 9968:1 10027:1 10029:1 10110:2 10114:5 10140:1 10164:2 10268:1 10305:1 10319:3 10343:1 10481:1 10636:1 10677:3 10685:2 10778:1 10875:2 10897:1 10927:1 10930:1 10935:2 10940:1 11047:1 11090:1 11120:1 11140:1 11169:1 11216:1 11246:1 11383:2 11429:3 11462:1 11496:1 11514:2 11598:3 11616:1 11618:3 11620:1 11639:1 11644:2 11663:1 11694:1 11761:1 11829:1 11907:4 11928:3 11956:1 11964:1 11991:2 11993:1 12143:1 12273:1 12374:1 12462:1 12471:1 12569:1 12643:1 12712:2 12761:1 12868:6 12918:1 12986:1 13024:1 13025:1 13069:1 13104:1 13203:2 13243:1 13280:1 13359:1 13571:1 13592:1 13652:1 13728:1 13895:1 13986:1 14136:2 14331:1 14397:1 14411:1 14431:1 14448:2 14457:1 14512:2 14560:1 14582:4 14627:1 14728:5 14739:4 14862:2 14874:1 14881:2 14939:6 14961:1 14981:1 15002:1 15036:2 15080:1 15082:1 15159:2 15261:2 15267:1 15332:1 15345:12 15580:1 15591:1 15681:1 15705:1 15844:5 16040:1 16108:1 16180:1 16255:2 16540:1 16595:1 16635:18 16641:1 16667:1 16738:1 16804:1 16846:1 16958:2 17056:1 17129:1 17204:6 17312:1 17343:1 17354:1 17444:9 17472:2 17555:1 17604:2 17701:1 17784:1 17882:1 18011:1 18020:2 18072:6 18168:1 18171:3 18253:1 18470:1 18556:1 18603:7 18625:1 18700:1 18740:2 18746:2 18764:1 18766:1 18827:3 18967:1 18987:4 18989:1 19085:1 19159:2 19174:2 19346:2 19425:1 19437:5 19537:1 19539:2 19552:1 19595:1 19640:1 19676:1 19731:1 
0.0001230722615135652 0.0001381436074156921 6.367981208251798e-005 123:1 186:2 196:2 199:1 229:2 241:1 247:2 262:3 387:1 486:1 568:1 601:1 661:1 755:1 788:1 793:1 827:2 844:1 889:1 902:1 979:1 987:1 1000:2 1021:1 1037:7 1038:1 1110:1 1191:1 1211:1 1235:1 1300:2 1343:1 1495:1 1496:2 1532:1 1574:2 1649:2 1680:1 1687:2 1693:1 1770:2 1924:1 1961:1 1985:3 2043:1 2163:1 2171:4 2363:2 2384:1 2393:1 2447:1 2592:1 2622:1 2648:2 2696:1 2725:1 2732:1 2773:1 2827:1 2870:4 2894:2 2990:1 2994:2 3028:1 3045:1 3118:1 3135:1 3242:1 3313:1 3381:1 3520:1 3569:3 3664:1 3680:1 3813:1 3824:1 3914:16 3988:1 4183:2 4305:1 4340:1 4350:1 4385:1 4461:2 4501:1 4602:1 4616:1 4623:1 4642:1 4738:1 4746:3 4958:1 5014:3 5055:2 5068:1 5073:1 5137:1 5173:1 5284:4 5298:1 5310:7 5350:1 5409:1 5568:2 5665:1 5702:1 5760:2 5764:1 5831:9 5862:36 5872:1 5902:1 6055:1 6066:2 6071:2 6136:2 6172:1 6295:1 6322:1 6387:1 6406:4 6467:1 6557:6 6563:1 6588:1 6604:1 6655:1 6670:1 6699:10 6848:1 6876:2 6957:1 7039:1 7081:3 7110:2 7289:2 7379:2 7405:7 7462:2 7471:1 7499:1 7508:2 7635:1 7664:1 7665:1 7732:1 7740:1 7760:2 7774:2 7859:1 7920:1 8175:2 8261:4 8290:2 8364:4 8484:1 8490:2 8491:3 8507:2 8522:1 8619:1 9019:1 9056:1 9112:1 9373:1 9444:1 9465:1 9574:1 9578:1 9611:1 9627:2 9686:1 9697:1 9743:1 9917:1 9920:1 10012:2 10029:1 10046:1 10093:1 10143:1 10319:1 10333:1 10458:2 10471:1 10480:1 10482:1 10597:1 10636:1 10687:1 10854:1 10868:1 10872:2 10878:1 11012:1 11411:1 11429:1 11506:1 11553:1 11584:2 11606:2 11616:1 11620:1 11650:1 11657:1 11694:2 11718:1 11813:2 12044:2 12143:1 12159:1 12164:1 12170:2 12213:1 12247:2 12273:1 12399:1 12482:2 12525:1 12705:1 12754:1 12868:1 12873:1 12918:1 12924:3 13002:1 13167:2 13217:2 13404:1 13453:3 13671:1 13678:1 13895:1 13970:1 14015:1 14136:6 14147:1 14194:1 14232:12 14284:1 14331:2 14486:1 14522:2 14560:1 14582:6 14601:1 14646:1 14657:3 14728:6 14845:1 14961:1 14964:1 15002:4 15036:1 15071:1 15082:1 15100:1 15131:1 15138:1 15143:1 15244:10 15262:1 15267:2 15299:1 15336:1 15591:3 15637:2 15705:1 15727:2 15812:1 15815:6 15871:1 15895:2 16039:1 16040:3 16166:1 16229:1 16361:1 16377:1 16446:1 16493:1 16518:1 16519:1 16635:16 16679:1 16738:1 16760:1 16808:1 16849:1 16871:1 16925:2 16928:3 16958:2 17027:3 17060:1 17117:1 17204:6 17245:1 17305:1 17343:4 17354:1 17444:1 17458:1 17472:1 17555:1 17596:1 17605:2 17619:1 17670:1 17698:3 18020:1 18033:1 18035:2 18057:1 18072:6 18189:1 18470:2 18497:1 18517:1 18585:1 18603:5 18646:1 18740:1 18746:3 18764:2 18799:1 18824:2 18881:1 18924:1 19098:1 19159:9 19174:2 19179:1 19182:1 19283:2 19338:1 19410:1 19437:2 19452:1 19458:1 19549:1 19552:1 19571:2 19595:2 19727:1 19769:2 
0 0.0001695090634923289 0 91:1 104:2 111:1 123:1 131:1 162:1 176:2 229:1 247:1 262:1 285:1 340:1 415:1 571:1 576:1 601:1 605:1 629:1 647:1 661:4 821:1 830:3 894:2 897:1 930:1 959:3 967:1 1020:1 1021:2 1024:3 1037:10 1048:1 1053:1 1110:1 1175:1 1235:7 1274:1 1283:1 1471:3 1495:1 1505:1 1532:1 1705:1 1771:1 1791:1 1956:1 1961:1 1985:1 2043:1 2123:1 2171:2 2199:2 2211:1 2219:1 2272:1 2318:1 2330:1 2363:6 2384:1 2449:1 2454:5 2463:1 2500:2 2516:1 2533:2 2547:1 2623:1 2648:5 2694:1 2698:1 2768:1 2773:1 2784:1 2850:4 2994:1 3112:1 3135:1 3412:1 3456:1 3520:3 3656:1 3683:5 3742:1 3754:4 3794:1 3822:1 3914:7 4014:1 4022:1 4033:9 4145:4 4187:5 4240:1 4305:1 4358:1 4359:1 4409:1 4425:1 4461:1 4500:8 4623:8 4656:4 4658:1 4713:2 4746:2 4754:1 4862:1 4884:1 4917:1 4968:1 5014:3 5055:1 5070:3 5082:1 5139:1 5163:1 5178:1 5284:2 5285:3 5298:2 5314:1 5356:1 5385:3 5409:1 5503:1 5568:2 5597:3 5700:4 5744:1 5760:3 5849:1 5862:37 5869:2 5874:4 6063:4 6071:10 6124:5 6172:1 6217:4 6257:1 6353:1 6387:1 6406:2 6441:2 6522:1 6557:11 6560:1 6618:1 6661:1 6670:1 6674:1 6698:1 6699:21 6768:2 6858:4 6957:1 6980:1 7121:1 7202:1 7208:1 7238:1 7289:2 7314:1 7323:1 7405:8 7407:1 7421:1 7489:2 7584:2 7680:1 7683:1 7745:1 7753:1 7775:2 7847:3 7953:1 8002:2 8057:1 8089:1 8111:3 8117:1 8172:1 8194:1 8218:1 8284:1 8312:1 8364:3 8458:1 8483:1 8491:1 8639:1 8660:1 8899:1 9056:2 9109:1 9112:1 9142:1 9197:1 9251:1 9259:1 9314:1 9362:2 9382:1 9436:3 9437:1 9447:1 9465:1 9482:1 9508:1 9545:1 9564:1 9611:1 9627:1 9697:1 9758:1 9774:3 9920:1 9927:1 10029:3 10052:1 10053:1 10143:1 10184:1 10264:2 10274:2 10286:1 10318:1 10319:2 10341:1 10472:1 10481:1 10564:1 10607:1 10636:1 10638:1 10796:1 10813:1 10846:2 10872:3 10875:1 10878:1 11050:3 11099:1 11132:2 11133:2 11181:1 11215:3 11244:1 11250:2 11285:1 11378:2 11383:1 11405:1 11429:2 11450:1 11508:3 11514:1 11520:1 11616:1 11633:1 11634:4 11694:5 11723:1 11785:1 11822:2 11849:1 11893:1 11897:2 11928:1 11978:4 11993:2 12030:1 12036:1 12040:1 12273:1 12327:1 12440:1 12460:1 12669:1 12729:1 12766:1 12891:3 12918:1 12966:1 12986:1 13021:1 13046:1 13069:1 13089:1 13159:1 13181:1 13243:1 13327:1 13329:1 13540:2 13547:1 13578:1 13644:1 13788:1 13840:1 13895:1 13919:1 13946:1 13961:5 14089:2 14135:1 14136:7 14192:1 14194:11 14205:1 14232:5 14236:1 14409:1 14424:1 14548:1 14560:1 14582:1 14646:1 14649:1 14654:2 14657:5 14691:1 14728:14 14783:2 14862:3 14914:1 14916:1 14961:1 15002:7 15036:1 15056:1 15082:1 15143:2 15167:1 15180:5 15184:1 15244:11 15270:1 15288:1 15338:2 15423:3 15453:1 15467:1 15471:1 15477:2 15592:1 15593:1 15626:2 15637:5 15705:1 15722:1 15763:2 15810:3 15830:1 15833:1 15935:1 15978:1 16040:2 16079:1 16127:1 16196:2 16286:1 16446:2 16571:2 16574:1 16595:5 16635:24 16644:1 16655:1 16679:1 16849:1 16958:1 17001:2 17018:5 17056:5 17204:6 17209:1 17258:1 17271:1 17343:1 17348:1 17354:1 17386:2 17436:1 17444:6 17542:2 17555:1 17670:1 17686:1 17716:1 17721:1 17790:1 17862:2 17936:1 17954:1 18072:6 18090:1 18105:1 18171:1 18402:2 18470:1 18514:1 18603:5 18740:1 18746:4 18764:7 18772:2 18790:1 18824:2 18925:1 18987:3 18988:1 18999:1 19052:1 19085:4 19159:1 19168:2 19174:4 19175:1 19182:2 19214:1 19220:1 19285:1 19329:1 19338:1 19437:2 19490:1 19552:1 19571:2 19576:1 19587:1 19595:3 19661:2 19727:1 19802:1 
0 0.0002614299123713801 0 123:4 186:1 243:1 261:1 262:4 282:1 285:4 299:1 388:1 399:1 532:3 564:1 601:1 629:2 646:1 657:1 661:4 725:1 755:1 760:1 793:4 821:1 889:3 894:5 930:2 959:1 979:2 996:1 1020:3 1024:15 1032:2 1037:14 1175:1 1196:1 1218:1 1235:4 1283:1 1303:1 1306:1 1345:1 1433:6 1439:1 1443:1 1458:2 1463:1 1495:1 1496:1 1532:1 1573:2 1574:1 1584:1 1649:1 1655:1 1687:3 1691:1 1766:1 1770:7 1792:1 1885:1 1905:1 1924:2 1961:1 1985:3 2011:1 2087:3 2157:1 2171:5 2199:2 2250:1 2267:1 2271:1 2305:1 2348:1 2363:11 2384:3 2387:2 2419:1 2424:5 2447:1 2463:1 2528:1 2533:1 2566:3 2569:1 2648:4 2697:1 2698:1 2725:1 2766:1 2768:1 2773:3 2799:1 2817:1 2824:1 2850:3 2877:1 2907:1 2994:2 2998:1 3047:1 3076:1 3108:1 3135:3 3150:1 3158:3 3197:4 3279:1 3313:1 3465:9 3500:8 3520:1 3544:4 3569:1 3573:1 3674:1 3705:2 3744:3 3767:1 3787:3 3816:1 3837:2 3839:3 3845:2 3875:1 3877:8 3914:22 3938:1 4024:1 4069:1 4070:1 4132:1 4145:6 4152:1 4170:3 4183:1 4226:1 4235:1 4256:1 4320:1 4340:5 4344:1 4352:1 4358:1 4461:2 4545:1 4656:2 4665:1 4717:3 4746:4 4756:1 4805:1 4917:1 4934:2 5014:3 5036:1 5148:1 5190:5 5204:1 5210:2 5222:1 5234:1 5236:1 5246:1 5271:2 5284:3 5285:12 5298:24 5464:1 5465:1 5487:2 5490:2 5528:1 5555:5 5568:5 5719:1 5741:1 5744:1 5758:1 5760:2 5817:4 5820:1 5839:2 5862:112 5879:2 6066:1 6071:12 6116:1 6119:1 6124:7 6172:1 6210:1 6225:1 6251:1 6274:1 6282:3 6305:1 6323:2 6341:1 6349:2 6387:1 6406:11 6441:1 6467:2 6483:1 6486:4 6522:1 6545:2 6556:1 6557:20 6560:2 6594:1 6601:1 6670:2 6699:67 6712:1 6858:8 6917:1 6932:1 6937:3 6939:1 7013:1 7029:1 7039:1 7119:1 7202:7 7213:1 7274:1 7289:2 7313:13 7331:2 7353:1 7361:1 7374:2 7401:10 7405:46 7440:1 7462:6 7489:1 7569:1 7612:3 7625:1 7635:1 7678:1 7707:1 7745:1 7749:1 7841:1 7849:1 7851:1 7859:3 7862:1 7878:2 7882:5 7901:1 7918:1 7927:1 8109:1 8112:4 8117:1 8130:1 8137:1 8194:5 8244:1 8259:1 8291:1 8305:1 8363:1 8364:2 8368:1 8379:1 8425:1 8451:1 8491:16 8591:1 8608:1 8638:1 8639:2 8737:7 8799:1 8974:1 8991:1 9017:1 9019:3 9112:1 9251:3 9259:2 9299:1 9319:1 9328:1 9338:2 9340:1 9437:1 9438:2 9444:1 9460:2 9465:1 9485:1 9537:1 9598:2 9624:1 9627:8 9645:1 9695:1 9697:1 9698:1 9791:3 9803:1 9832:4 9879:2 9917:2 9920:3 9968:1 10022:1 10029:1 10046:1 10062:1 10085:2 10140:1 10143:1 10151:1 10162:1 10164:1 10230:1 10264:5 10274:1 10319:4 10456:1 10472:1 10481:3 10583:2 10636:1 10638:7 10639:1 10666:28 10677:1 10683:1 10706:1 10730:3 10759:1 10778:1 10796:4 10808:1 10815:1 10841:3 10850:2 10873:1 10874:1 10875:2 10939:1 10980:1 11047:1 11049:1 11122:1 11140:1 11143:1 11159:2 11292:1 11383:7 11429:1 11471:1 11479:1 11496:1 11508:1 11513:2 11576:1 11577:2 11592:1 11598:4 11616:1 11618:23 11644:1 11650:2 11694:13 11749:1 11761:1 11785:2 11822:4 11844:1 11893:1 11993:1 12012:1 12041:2 12044:3 12101:3 12159:1 12164:2 12176:2 12236:3 12241:1 12273:1 12274:2 12320:1 12328:4 12456:1 12502:1 12569:1 12572:1 12597:2 12602:1 12658:1 12722:2 12773:1 12792:2 12798:3 12868:11 12891:3 12924:2 12986:3 13005:1 13025:1 13069:2 13127:1 13159:2 13167:1 13181:2 13206:1 13219:1 13280:2 13313:1 13392:1 13477:1 13618:1 13671:3 13701:1 13705:1 13728:1 13815:1 13823:1 13830:3 13833:1 13871:1 13895:1 13924:1 13944:1 13954:1 14086:1 14119:1 14136:25 14170:1 14219:1 14331:4 14348:1 14486:5 14560:1 14582:4 14590:2 14627:1 14639:1 14646:1 14649:1 14650:1 14657:12 14691:4 14728:14 14760:1 14812:11 14862:1 14919:1 14961:1 14972:1 15002:19 15015:1 15036:2 15082:1 15143:3 15216:1 15244:3 15276:1 15345:1 15393:1 15492:1 15611:1 15637:3 15640:1 15705:1 15824:1 15839:1 15882:1 15895:1 15940:1 15945:2 15987:2 16040:4 16108:1 16180:1 16206:1 16384:1 16397:1 16439:1 16476:1 16559:1 16573:1 16635:28 16679:1 16681:1 16734:1 16792:1 16914:1 16928:2 16958:5 17018:2 17056:1 17204:11 17208:2 17318:2 17324:1 17343:18 17354:1 17356:1 17369:1 17384:1 17386:2 17444:11 17468:3 17472:1 17539:1 17551:1 17553:1 17555:1 17556:1 17560:1 17603:6 17607:1 17645:1 17701:1 17749:1 17876:1 17947:1 17954:1 18000:1 18035:1 18057:2 18072:15 18095:1 18169:1 18216:1 18236:1 18304:2 18316:3 18360:1 18422:1 18470:1 18556:2 18603:16 18608:1 18625:3 18669:1 18705:1 18740:1 18746:1 18764:2 18772:5 18824:5 18831:1 18884:1 18987:1 18989:3 19085:6 19159:5 19174:3 19182:7 19206:1 19259:1 19268:1 19393:1 19412:1 19422:1 19437:3 19465:1 19552:9 19571:7 19575:1 19595:9 19731:1 19735:1 19757:2 19766:2 19777:1 19791:1 19795:1 
0.0001643812745952404 0.0002086529083138117 0.0001866786173077771 102:1 123:1 186:1 229:1 262:3 491:1 601:1 629:2 661:1 668:3 690:3 730:1 795:1 812:1 894:1 930:1 979:1 997:4 1024:4 1037:4 1170:1 1235:1 1236:1 1301:1 1324:1 1495:1 1496:2 1632:1 1687:3 1716:1 1766:3 1770:1 1789:1 1897:1 1905:4 1924:2 1961:1 2066:1 2171:1 2292:1 2344:1 2363:6 2367:1 2384:1 2592:1 2598:1 2605:1 2648:4 2773:1 2801:1 2964:6 2994:1 3081:1 3133:12 3135:1 3197:1 3313:1 3335:1 3400:1 3500:1 3520:1 3680:1 3686:1 3744:1 3750:1 3839:5 3842:1 3914:11 4080:1 4095:3 4103:1 4147:1 4187:1 4340:1 4461:2 4569:2 4608:1 4639:1 4672:1 4746:2 4773:2 4967:2 5014:3 5116:1 5154:1 5163:1 5190:1 5246:1 5284:1 5285:1 5293:1 5324:3 5390:1 5488:1 5494:1 5568:4 5760:4 5862:26 5972:1 6071:1 6124:3 6172:1 6272:2 6349:7 6387:1 6406:5 6509:1 6557:9 6560:1 6606:1 6665:1 6670:1 6699:17 6858:1 6876:1 6945:1 6957:1 6973:3 7039:1 7127:1 7260:1 7289:2 7297:1 7313:3 7331:1 7405:9 7489:1 7540:1 7579:1 7609:1 7759:2 7801:1 7825:1 7841:1 7859:1 7913:1 7943:1 8045:3 8047:1 8050:3 8111:1 8112:1 8182:1 8194:3 8231:1 8341:2 8491:1 8493:2 8522:1 8571:1 8643:1 8941:1 8972:10 9056:1 9109:5 9112:1 9215:3 9438:1 9447:1 9482:1 9508:1 9558:1 9920:1 9921:1 10022:1 10029:1 10114:1 10143:1 10264:2 10319:2 10327:8 10473:1 10611:1 10636:1 10638:1 10677:3 10686:3 10740:1 10778:1 10796:1 10852:1 11014:1 11105:1 11110:1 11140:1 11444:1 11478:1 11508:1 11616:1 11618:7 11634:1 11741:1 11761:1 11785:1 11822:1 11882:1 11892:1 11898:1 11917:1 12068:1 12122:1 12196:1 12273:1 12328:3 12348:1 12363:1 12411:4 12482:1 12569:2 12597:2 12602:1 12689:1 12729:1 12754:1 12876:1 12896:1 12898:1 12924:1 12935:1 12988:2 13011:3 13159:2 13167:1 13203:1 13234:3 13242:1 13279:1 13280:1 13470:1 13525:1 13634:1 13694:6 13895:1 13936:5 13987:3 14065:1 14136:6 14192:1 14193:1 14394:1 14560:1 14582:2 14657:2 14728:4 14876:1 14961:1 15002:3 15082:1 15150:2 15166:1 15268:3 15338:1 15358:4 15398:1 15637:3 15640:1 15705:1 15886:1 15895:1 15924:1 16040:1 16108:1 16126:1 16131:1 16161:1 16183:4 16202:1 16377:1 16411:1 16500:2 16540:1 16635:14 16655:1 16756:1 16809:1 16814:1 16821:3 17056:1 17125:1 17204:3 17208:1 17321:1 17343:1 17354:1 17444:4 17468:1 17555:1 17753:1 17809:1 17954:1 18072:8 18556:4 18585:1 18603:12 18606:1 18607:1 18623:1 18740:2 18746:4 18764:2 18766:1 19085:2 19145:1 19159:3 19174:2 19175:1 19182:1 19283:2 19452:1 19552:2 19586:1 19676:1 19727:1 
0 6.267899093467962e-005 0 57:2 102:1 123:2 145:1 186:2 198:1 210:1 229:6 237:1 262:3 478:1 597:1 601:1 625:1 629:1 641:8 661:2 668:3 755:1 759:1 768:2 779:2 805:4 821:3 823:1 843:1 894:1 929:1 979:1 1020:1 1024:1 1037:6 1086:2 1110:1 1197:2 1235:2 1278:1 1285:1 1291:11 1324:1 1458:3 1495:1 1496:2 1527:2 1649:1 1687:3 1699:1 1746:1 1766:3 1770:1 1792:2 1827:2 1871:1 1886:1 1924:4 1941:1 1961:1 1985:1 2043:1 2211:1 2270:1 2285:1 2326:8 2344:1 2363:2 2454:1 2489:3 2592:1 2648:2 2685:1 2694:1 2773:1 2817:1 2828:1 2881:1 2963:1 2964:2 2990:1 2994:4 3133:1 3213:1 3313:2 3342:2 3400:1 3465:2 3515:1 3520:4 3638:2 3656:1 3680:1 3761:5 3813:2 3877:1 3903:1 3914:10 4145:1 4146:1 4147:1 4187:1 4305:2 4340:1 4350:1 4391:1 4437:1 4461:1 4495:2 4562:1 4713:3 4746:2 4773:1 4827:2 4853:1 4913:1 4988:1 5014:3 5055:1 5163:1 5222:4 5298:3 5409:1 5555:5 5561:1 5568:7 5686:1 5700:2 5760:2 5862:41 5990:1 6071:6 6124:2 6136:1 6172:1 6341:1 6387:1 6406:9 6412:1 6424:1 6488:1 6522:2 6557:7 6560:2 6670:1 6699:16 6855:1 6858:4 6876:1 6895:1 6909:1 6937:1 6973:2 6979:1 6985:1 7039:2 7146:8 7167:1 7184:1 7190:1 7197:1 7263:1 7289:2 7313:9 7382:1 7405:12 7406:1 7462:3 7579:1 7625:1 7635:1 7667:1 7714:1 7772:2 7859:1 7945:3 8045:3 8305:1 8405:1 8491:2 8571:1 8639:1 8818:1 8891:1 8972:9 9007:1 9019:1 9056:1 9112:1 9120:1 9187:1 9263:1 9338:2 9354:1 9392:2 9401:1 9447:1 9509:4 9518:1 9558:1 9572:1 9627:1 9718:1 9769:2 9920:2 9921:1 10009:1 10019:1 10059:15 10135:2 10164:3 10184:3 10230:1 10237:1 10264:1 10280:1 10332:1 10454:3 10480:1 10499:1 10522:1 10607:1 10611:1 10636:1 10641:1 10796:2 10811:1 10831:1 10841:1 10872:1 11047:1 11126:1 11132:1 11184:1 11378:1 11426:1 11429:1 11445:2 11492:1 11522:1 11581:1 11616:1 11618:2 11620:1 11650:1 11674:1 11694:1 11765:2 11785:2 11822:4 11845:1 11917:1 11947:1 11980:1 12036:8 12044:7 12122:1 12167:1 12262:1 12273:1 12320:1 12328:1 12387:1 12597:1 12619:1 12652:1 12680:1 12689:1 12698:1 12757:1 12774:6 12797:1 12896:5 12918:1 12986:2 13025:2 13159:2 13167:3 13203:1 13418:1 13535:1 13552:2 13627:2 13705:3 13815:3 13823:2 13860:1 13895:1 13930:1 13952:2 13987:2 14136:10 14221:1 14241:1 14259:1 14331:2 14345:1 14347:1 14463:2 14507:1 14517:1 14559:1 14560:1 14582:3 14613:1 14657:6 14693:4 14728:3 14758:1 14837:1 14845:1 14861:1 14862:1 14961:2 15002:3 15020:1 15023:1 15072:1 15082:1 15244:1 15268:4 15398:1 15406:1 15423:1 15444:1 15512:1 15522:1 15591:1 15600:1 15705:1 15714:1 15822:1 15864:1 15886:1 15899:1 15949:1 16040:4 16060:1 16222:1 16377:7 16438:1 16493:1 16500:1 16587:1 16591:1 16608:1 16611:1 16612:1 16635:26 16655:1 16750:1 16756:2 16783:1 16928:1 17056:1 17204:5 17208:1 17327:1 17343:2 17348:1 17354:5 17368:1 17382:5 17386:1 17409:1 17444:2 17466:1 17524:1 17555:1 17619:1 17681:9 17701:1 17876:1 18072:13 18103:1 18104:1 18129:1 18133:1 18169:1 18196:1 18216:1 18405:1 18557:1 18603:8 18711:1 18740:2 18746:5 18764:5 18799:17 18824:1 18987:1 18989:1 19012:1 19085:2 19100:1 19147:1 19159:4 19174:3 19182:1 19187:1 19283:1 19338:1 19368:1 19422:1 19437:2 19465:2 19552:5 19595:6 19634:1 19731:1 19766:1 19769:3 
4.080611191212602e-005 0.0004072437448405422 0 85:1 123:1 164:1 189:1 262:1 341:1 478:2 590:1 601:1 637:1 646:1 661:3 712:1 730:1 744:1 759:2 788:1 795:2 830:3 843:3 876:1 894:5 897:1 959:2 972:1 979:1 1024:9 1037:4 1063:1 1086:1 1160:2 1175:1 1197:1 1209:2 1235:1 1274:3 1319:1 1345:1 1363:1 1373:2 1420:1 1495:2 1505:2 1532:1 1550:2 1592:1 1624:1 1643:2 1662:1 1687:6 1693:1 1766:1 1770:1 1779:1 1781:2 1792:2 1811:1 1834:1 1878:1 1924:1 1961:2 1984:2 2010:10 2011:1 2027:1 2074:2 2120:1 2122:2 2171:2 2207:1 2211:1 2298:2 2353:1 2358:1 2363:7 2384:1 2550:1 2592:1 2605:1 2648:5 2668:1 2698:1 2704:1 2725:1 2750:2 2773:4 2804:1 2817:1 2850:4 2866:1 2881:2 2908:1 2937:1 2963:1 2993:1 2994:2 3080:1 3133:8 3135:2 3181:2 3190:1 3197:1 3243:1 3313:1 3388:1 3488:1 3500:4 3530:1 3544:1 3604:1 3651:2 3656:1 3775:1 3845:1 3914:6 3918:3 3935:1 3987:1 4000:1 4014:6 4057:1 4070:1 4106:1 4145:1 4305:1 4340:3 4358:4 4385:1 4481:1 4511:4 4656:1 4729:1 4739:1 4746:2 4766:5 4777:1 4784:1 4811:1 4827:3 4917:1 4983:1 5014:2 5055:1 5151:2 5163:1 5222:1 5284:4 5285:2 5298:12 5314:1 5330:1 5381:1 5409:4 5567:2 5568:3 5598:1 5619:1 5639:1 5647:2 5665:1 5740:1 5760:5 5862:42 5953:1 5993:2 6066:1 6071:2 6091:3 6212:1 6367:1 6374:1 6399:1 6406:5 6412:6 6433:1 6467:1 6473:1 6475:1 6521:1 6545:2 6557:11 6560:5 6604:1 6645:1 6670:1 6699:27 6850:1 6858:5 6876:1 6917:1 6979:2 7039:2 7056:2 7127:1 7178:1 7289:2 7313:13 7328:1 7379:1 7396:1 7405:22 7463:1 7489:3 7499:1 7500:2 7609:5 7620:1 7635:1 7655:1 7683:3 7750:1 7772:2 7819:1 7822:1 7845:1 7847:9 7859:2 7882:1 7901:1 7906:1 8007:2 8111:2 8117:1 8178:1 8218:4 8290:1 8314:1 8364:3 8374:1 8491:2 8505:2 8522:2 8624:2 8639:1 8682:1 8748:1 8763:1 8876:6 9014:1 9079:1 9109:1 9142:1 9209:1 9230:1 9256:1 9259:1 9338:1 9355:1 9378:1 9605:1 9627:3 9634:1 9690:1 9693:1 9697:1 9879:1 9917:1 9920:2 9960:1 9964:1 9967:1 10029:2 10059:2 10134:1 10137:1 10139:1 10140:1 10143:1 10152:1 10164:1 10176:1 10264:1 10304:1 10447:1 10473:1 10481:2 10482:2 10507:1 10550:1 10563:1 10636:1 10638:2 10677:2 10708:1 10721:1 10778:1 10878:1 10927:1 10993:1 11047:1 11215:1 11216:1 11250:1 11258:1 11285:1 11287:1 11312:1 11314:2 11377:1 11445:1 11496:1 11505:1 11572:2 11575:1 11618:1 11650:3 11690:1 11694:1 11744:1 11770:1 11785:1 11830:3 11875:1 11878:1 11887:1 11893:1 11902:3 11934:1 11993:4 11994:1 12026:1 12044:1 12050:5 12058:1 12128:1 12164:3 12193:1 12252:2 12273:1 12283:1 12328:1 12411:5 12464:2 12525:2 12538:1 12666:1 12708:1 12754:2 12773:1 12792:2 12798:1 12844:2 12868:2 12891:3 12896:1 12912:1 12918:1 12924:1 12986:2 13025:1 13133:1 13159:3 13173:1 13195:1 13203:2 13218:2 13225:1 13238:1 13280:3 13334:1 13422:1 13590:3 13602:1 13658:2 13788:1 13823:1 13830:1 13832:1 13895:1 13944:1 14000:2 14091:1 14126:1 14136:15 14142:1 14195:1 14218:2 14277:1 14284:1 14345:1 14361:1 14371:4 14407:1 14431:1 14483:1 14486:3 14512:1 14551:1 14560:1 14582:1 14646:1 14657:2 14728:9 14781:1 14845:2 14881:3 14914:1 14961:1 15002:8 15021:1 15033:1 15036:4 15171:1 15216:2 15256:1 15265:1 15282:3 15310:1 15322:5 15352:1 15393:2 15408:1 15423:1 15506:1 15677:1 15914:1 15934:1 16040:2 16045:1 16052:1 16127:1 16226:1 16324:1 16345:1 16368:3 16446:4 16459:1 16573:1 16574:1 16612:2 16614:1 16635:18 16655:1 16664:1 16679:1 16681:1 16738:1 16814:1 16849:1 16853:1 16928:2 17018:1 17024:1 17060:1 17149:1 17184:2 17204:4 17228:1 17343:4 17353:1 17354:2 17382:1 17384:1 17385:1 17386:1 17413:1 17427:2 17444:5 17458:1 17468:1 17555:1 17600:1 17670:2 17683:2 17747:2 17753:1 17778:1 17822:1 17825:1 17876:1 17921:1 17936:1 17952:1 17954:2 18020:3 18057:1 18072:20 18095:2 18111:1 18130:1 18133:4 18143:1 18169:1 18216:1 18279:1 18316:2 18357:1 18360:1 18382:1 18383:1 18554:1 18603:5 18686:1 18746:2 18764:7 18796:1 18824:1 18830:1 18925:2 18987:1 18989:4 19052:1 19085:5 19122:1 19174:11 19182:1 19218:3 19271:9 19282:2 19306:1 19321:1 19413:1 19437:7 19465:1 19480:1 19489:1 19515:1 19549:1 19552:2 19556:1 19595:2 19607:2 19654:1 19676:3 19713:1 19731:1 
0.0001015612973788019 2.954656560242904e-005 0 2:1 186:1 189:1 190:1 210:1 251:1 303:1 351:1 454:1 535:1 568:2 598:1 601:1 661:3 755:2 759:1 830:3 838:1 894:2 902:1 930:1 953:1 979:1 987:1 1024:2 1037:7 1087:1 1110:2 1114:1 1217:2 1235:3 1394:2 1419:1 1495:1 1496:1 1550:3 1630:1 1649:2 1687:4 1696:1 1837:2 1924:1 1961:1 1985:1 2025:1 2044:1 2071:1 2074:1 2140:1 2171:2 2296:1 2327:3 2363:1 2368:1 2393:1 2507:1 2632:1 2648:2 2694:2 2696:1 2710:3 2773:1 2824:1 2870:1 3091:1 3135:2 3145:1 3170:1 3302:1 3313:1 3318:1 3410:1 3465:1 3569:1 3639:1 3788:5 3832:1 3877:1 3914:4 3997:1 4019:1 4145:2 4163:1 4243:1 4256:1 4305:3 4425:1 4649:1 4746:1 4889:2 5014:5 5019:1 5163:1 5284:2 5298:3 5509:1 5555:1 5686:2 5700:6 5760:6 5855:1 5862:41 5911:1 5917:1 5961:1 6050:1 6071:3 6091:1 6172:1 6184:1 6251:1 6367:1 6387:1 6406:3 6467:1 6540:1 6557:9 6594:1 6601:1 6644:1 6670:1 6699:11 6814:1 6858:1 6876:1 6937:1 6957:2 6975:1 7039:1 7094:1 7157:1 7289:2 7405:3 7678:1 7760:1 7781:1 7859:2 7882:3 7883:1 7961:1 8216:1 8287:1 8350:1 8398:1 8483:1 8491:1 8832:1 9021:1 9112:1 9142:1 9447:1 9545:2 9552:3 9598:1 9623:1 9627:3 9698:1 9760:1 9917:1 9920:2 10029:1 10037:1 10046:2 10143:1 10152:1 10444:1 10454:1 10636:1 10638:1 10677:1 10746:3 10757:1 10852:1 10868:4 10875:1 10878:1 10888:2 11010:1 11012:1 11014:1 11048:1 11195:1 11348:3 11362:9 11416:1 11429:1 11506:1 11507:1 11571:1 11584:1 11613:1 11616:1 11618:3 11620:1 11656:1 11661:1 11807:1 11893:1 11919:1 11928:1 12212:1 12245:1 12273:1 12329:1 12397:1 12433:1 12564:1 12597:1 12602:1 12727:1 12798:1 12813:3 12868:1 12876:1 12956:1 13006:1 13025:1 13134:1 13167:1 13203:3 13328:1 13359:1 13396:1 13422:2 13707:1 13788:1 13895:1 13932:1 13952:2 13955:1 13959:1 13997:1 14136:12 14142:1 14221:1 14232:1 14331:2 14344:1 14394:1 14494:1 14512:1 14646:1 14657:3 14659:1 14686:1 14691:1 14728:6 14961:1 15002:1 15082:1 15167:2 15244:3 15332:2 15423:1 15551:1 15628:1 15637:1 15705:1 15714:1 15835:1 15895:1 16040:1 16052:1 16100:1 16127:1 16443:1 16519:4 16542:1 16549:1 16635:11 16655:1 16700:3 16868:1 16870:1 16911:1 16916:1 16924:1 16930:2 16958:1 16980:1 17080:1 17115:1 17129:1 17204:4 17343:3 17354:1 17384:2 17386:1 17409:1 17444:4 17458:1 17499:1 17555:1 17605:1 17618:1 17681:6 17701:1 17775:1 17801:1 17839:1 17876:1 18020:7 18070:1 18072:3 18103:8 18106:1 18134:1 18143:1 18270:1 18412:1 18497:1 18498:1 18514:2 18603:2 18710:1 18740:2 18746:1 18763:1 18764:6 18772:1 18852:1 18879:1 18881:1 18989:1 19009:1 19069:1 19085:1 19174:2 19182:1 19212:1 19244:1 19262:1 19325:1 19382:1 19422:1 19465:1 19571:4 19595:1 19727:2 19769:4 
5.095070216601551e-005 0.0001307967140375927 0 18:1 102:1 123:4 139:1 186:2 189:1 190:1 229:3 262:1 285:1 294:1 334:1 387:3 568:4 601:1 631:4 668:3 755:1 767:4 821:3 838:1 889:3 894:1 959:1 967:5 1024:4 1037:7 1114:1 1153:1 1170:1 1217:10 1291:1 1324:1 1353:1 1387:1 1394:1 1434:3 1457:1 1458:1 1495:2 1496:1 1532:1 1653:1 1687:7 1766:1 1770:2 1779:1 1792:1 1803:1 1813:1 1871:3 1878:1 1924:1 1961:1 1985:3 2081:1 2107:4 2139:1 2183:1 2199:1 2211:2 2278:1 2298:1 2363:3 2592:1 2648:2 2674:1 2696:1 2824:1 2866:1 3126:1 3135:2 3139:2 3145:1 3206:1 3309:1 3313:4 3400:1 3427:1 3465:1 3542:1 3559:1 3667:1 3717:1 3822:2 3827:1 3842:1 3851:2 3875:1 3877:1 3909:1 3914:14 3991:1 4007:2 4013:1 4090:1 4135:1 4145:3 4165:1 4187:1 4305:2 4340:2 4358:2 4385:2 4414:1 4431:1 4437:2 4623:1 4672:1 4680:4 4713:1 4746:5 4755:4 4895:1 5014:4 5038:1 5059:1 5082:1 5151:1 5191:1 5222:3 5284:3 5285:2 5298:6 5324:1 5458:1 5464:1 5536:1 5568:2 5700:5 5760:3 5806:1 5862:47 5983:1 6010:1 6071:7 6072:2 6091:4 6145:2 6172:1 6204:1 6264:1 6321:5 6341:1 6374:1 6406:3 6425:2 6447:1 6467:1 6486:2 6557:18 6560:2 6644:1 6651:2 6670:1 6699:18 6701:1 6793:1 6803:1 6858:4 6957:1 6973:1 7039:1 7043:1 7078:1 7289:2 7313:1 7405:9 7421:2 7462:1 7489:3 7499:1 7772:3 7846:1 7881:1 7882:3 7961:1 8045:3 8117:1 8137:1 8305:1 8312:1 8315:1 8364:2 8469:1 8491:5 8639:1 8743:2 8833:1 8889:1 8972:8 9056:1 9251:1 9263:1 9289:1 9338:2 9482:1 9490:1 9519:1 9523:3 9558:1 9664:1 9767:1 9821:1 9920:2 9923:2 9931:1 10029:2 10046:1 10139:1 10140:1 10143:1 10264:1 10319:3 10326:2 10480:1 10481:2 10547:1 10583:1 10607:1 10611:1 10636:1 10677:4 10683:1 10685:1 10796:2 10868:1 10878:1 10939:1 11004:2 11014:1 11118:1 11120:1 11137:1 11140:1 11215:1 11362:1 11383:1 11413:1 11453:1 11465:1 11510:1 11584:1 11613:1 11618:3 11620:1 11644:1 11650:2 11693:1 11694:2 11708:1 11785:1 11851:2 11887:1 11917:1 11928:1 11945:2 11993:2 12273:1 12297:3 12328:1 12361:1 12597:1 12689:1 12722:1 12792:1 12868:2 12876:1 12895:1 12924:2 12938:1 13006:1 13025:1 13104:1 13387:1 13396:2 13588:1 13651:1 13687:1 13744:3 13753:1 13788:1 13832:2 13895:1 13930:1 14011:1 14019:1 14036:1 14089:1 14101:1 14136:9 14142:1 14331:1 14417:2 14483:1 14507:1 14537:1 14560:2 14582:3 14613:1 14657:5 14691:1 14728:3 14881:1 14888:1 14961:1 15002:3 15027:2 15036:4 15071:2 15143:2 15183:1 15244:2 15268:3 15299:1 15423:1 15431:1 15485:1 15512:1 15637:5 15728:4 15914:3 15984:1 16040:2 16180:1 16241:2 16283:2 16377:6 16459:2 16571:1 16574:1 16622:1 16625:2 16635:20 16679:1 16700:1 16705:2 16738:2 16768:1 16849:1 16857:1 16870:1 16888:1 16916:1 16930:1 16958:1 17018:1 17036:1 17039:2 17050:1 17056:1 17057:1 17125:8 17184:3 17204:4 17206:1 17271:4 17326:1 17343:2 17353:1 17354:2 17444:6 17511:1 17555:1 17556:2 17603:1 17605:1 17619:1 17681:11 17701:2 17721:1 17753:1 17794:1 17810:2 17823:1 17852:1 17906:1 17954:1 18018:1 18020:4 18070:2 18072:8 18095:1 18103:15 18281:1 18370:2 18419:1 18497:1 18603:7 18689:1 18740:2 18746:3 18764:7 18782:1 18824:4 18832:1 18834:1 18987:1 19159:3 19171:1 19174:6 19182:1 19187:2 19259:1 19285:2 19346:1 19437:2 19452:2 19465:4 19471:1 19552:2 19571:2 19595:3 19673:1 19693:1 19731:3 19774:2 
0.0003038272233563123 0.0001938255452997456 0.0001355591747737804 123:2 141:1 186:1 191:2 262:2 285:1 598:1 600:1 601:1 661:1 690:1 730:1 781:1 787:2 883:1 894:3 976:1 979:1 983:1 1020:1 1021:1 1037:6 1044:3 1222:1 1235:1 1344:1 1495:2 1532:1 1687:8 1717:1 1766:4 1792:2 1805:2 1912:1 1961:1 1978:1 1985:1 2173:1 2363:3 2454:4 2534:1 2560:1 2592:1 2648:2 2694:1 2706:1 2737:1 2773:1 2850:3 2927:1 2937:1 2998:1 3045:1 3098:1 3135:3 3145:1 3238:2 3313:1 3427:1 3472:3 3520:1 3665:1 3690:1 3826:1 3877:1 3886:1 3914:3 3988:1 4007:2 4145:2 4170:2 4183:1 4274:1 4350:1 4385:2 4588:8 4657:1 4746:3 4793:2 5014:4 5057:1 5163:1 5210:1 5246:2 5285:2 5298:2 5409:2 5430:8 5522:1 5536:1 5647:1 5657:1 5686:1 5760:6 5832:1 5838:1 5862:54 6071:3 6124:2 6172:1 6197:1 6323:1 6341:2 6406:1 6425:1 6518:1 6522:2 6557:17 6653:1 6670:1 6694:1 6699:15 6834:1 6858:1 6876:1 6937:2 6957:1 7039:1 7110:1 7190:1 7289:2 7313:1 7323:1 7405:2 7445:1 7499:1 7825:2 7878:1 8095:1 8117:1 8182:1 8194:2 8305:1 8364:1 8390:2 8491:2 8533:1 8548:1 8623:1 8638:1 8699:1 9056:1 9165:1 9197:1 9209:1 9263:1 9338:2 9437:1 9465:1 9506:1 9597:1 9627:3 9713:1 9722:1 9728:1 9812:1 9920:1 9935:1 10015:1 10029:1 10046:1 10184:1 10274:1 10347:1 10560:2 10607:3 10636:1 10712:1 10796:1 10874:1 10875:2 10878:1 10927:1 10989:2 11110:1 11215:1 11429:1 11479:1 11499:3 11581:1 11606:1 11613:1 11618:2 11620:1 11670:1 11694:2 11822:1 11887:1 11893:1 11917:1 11964:8 12036:1 12050:2 12086:1 12123:1 12273:1 12361:1 12440:1 12482:1 12569:1 12614:1 12630:1 12739:1 12858:1 12868:1 12896:1 12918:1 12938:1 12953:1 12956:1 12986:1 13006:1 13011:1 13051:7 13077:1 13159:1 13190:1 13201:1 13234:1 13238:1 13300:1 13337:1 13354:1 13364:1 13420:1 13565:1 13601:1 13651:1 13671:1 13895:1 13952:1 13990:1 14089:1 14136:5 14204:1 14208:3 14385:2 14448:2 14470:2 14488:1 14560:1 14582:3 14627:2 14657:3 14728:8 14781:1 14845:1 14961:1 15002:4 15071:1 15167:1 15256:1 15313:1 15392:1 15393:2 15581:1 15637:1 15987:1 16040:1 16108:1 16180:2 16448:1 16467:1 16518:2 16541:1 16573:3 16574:2 16591:1 16608:1 16616:1 16635:16 16655:1 16658:1 16679:1 16738:2 16866:1 16916:1 16928:1 16958:1 16969:1 16980:1 17021:1 17080:1 17165:1 17204:2 17271:1 17354:1 17367:1 17386:1 17444:2 17458:5 17472:1 17516:2 17555:1 17556:3 17605:2 17622:1 17683:1 17701:1 17707:1 17747:1 18020:1 18072:7 18115:1 18168:1 18282:1 18388:1 18463:1 18470:1 18497:1 18603:3 18740:1 18746:1 18764:7 18829:1 18902:1 18922:1 18927:1 18940:2 18987:2 18989:2 19030:2 19052:1 19055:1 19075:1 19085:2 19159:1 19182:1 19188:1 19206:1 19262:1 19304:1 19437:1 19481:1 19552:1 19571:2 19595:2 19661:1 19777:2 
0.0004590007455285118 0.0003938441681693865 0.0001302880374409924 164:1 251:1 262:1 266:1 285:1 341:1 410:1 590:1 601:1 605:1 646:1 661:3 759:3 776:1 795:1 821:1 830:1 874:1 889:2 894:8 983:1 1020:1 1024:1 1037:6 1160:2 1440:4 1495:1 1505:1 1532:1 1550:2 1573:2 1624:1 1661:1 1687:2 1779:1 1961:1 2171:1 2172:1 2221:1 2363:1 2592:1 2598:1 2606:1 2648:3 2668:1 2694:1 2698:2 2710:1 2773:3 2994:1 3126:1 3145:1 3197:1 3375:1 3406:1 3427:1 3500:1 3542:1 3690:1 3788:1 3822:1 3839:2 3845:1 3914:4 3938:1 4080:1 4145:1 4187:1 4256:1 4340:1 4385:2 4461:2 4481:1 4746:1 4754:1 4784:1 4906:1 5014:4 5029:1 5059:1 5117:1 5169:1 5222:1 5284:1 5298:2 5369:1 5381:1 5385:1 5409:2 5503:1 5536:1 5568:3 5591:1 5599:1 5626:1 5700:2 5726:1 5831:1 5862:26 5874:1 5953:1 5972:1 6010:1 6066:2 6071:2 6109:1 6136:1 6145:1 6172:1 6406:11 6441:1 6473:1 6478:1 6545:1 6557:1 6580:2 6665:1 6670:1 6699:17 6736:1 6858:3 6876:1 7039:2 7127:1 7164:1 7184:1 7289:2 7313:8 7379:1 7405:5 7462:1 7499:1 7610:1 7775:1 7819:1 7841:1 7842:6 7847:1 7859:1 7901:1 8090:1 8111:1 8218:1 8246:1 8312:1 8344:1 8491:1 8505:2 8594:1 8658:1 8668:2 8748:1 8846:2 8897:1 8994:1 9251:1 9378:2 9482:1 9627:1 9652:1 9917:4 9920:2 9967:1 10027:1 10029:2 10121:1 10143:1 10184:1 10268:1 10274:1 10347:2 10450:1 10454:1 10472:3 10481:1 10518:1 10563:1 10636:1 10638:1 10677:1 10708:1 10796:2 10813:1 10858:1 10872:3 11012:1 11014:1 11047:1 11071:1 11276:1 11496:1 11644:1 11650:1 11726:1 11893:1 11970:1 11993:1 12065:1 12189:1 12247:1 12252:1 12273:1 12283:1 12296:1 12320:1 12401:1 12525:3 12558:1 12690:1 12793:1 12813:1 12868:1 12912:1 12988:1 13006:1 13034:1 13218:2 13256:1 13262:1 13280:2 13301:1 13321:1 13358:1 13540:1 13728:2 13830:1 13895:1 13951:1 14090:1 14136:9 14218:2 14431:5 14503:1 14512:3 14560:1 14582:2 14646:1 14649:1 14657:5 14691:1 14728:2 14836:1 14861:1 14876:1 14881:1 14914:1 14943:1 14961:1 15002:1 15036:1 15039:1 15094:1 15159:1 15201:1 15244:3 15322:5 15352:1 15467:1 15637:2 15824:1 15882:1 16045:1 16126:1 16144:1 16180:2 16222:1 16635:15 16700:1 16738:3 16850:1 16907:1 16916:1 16952:1 17056:1 17129:1 17134:1 17204:7 17343:3 17354:1 17444:8 17458:1 17473:1 17555:1 17693:1 17736:1 17745:2 17773:1 17801:1 17810:1 17839:1 17954:5 18023:1 18052:1 18057:1 18064:3 18072:5 18138:1 18169:1 18173:1 18212:1 18321:2 18382:1 18497:1 18554:1 18603:4 18625:1 18671:1 18746:1 18764:4 18831:1 18987:2 19126:1 19159:1 19186:1 19226:2 19289:1 19348:1 19368:1 19669:1 19676:1 19697:1 19769:1 
9.740641586280225e-005 0 0 102:4 123:1 131:1 169:4 262:3 319:2 386:2 499:1 545:1 601:1 661:1 730:1 759:1 793:3 838:2 894:3 925:1 937:1 957:1 1010:1 1024:3 1028:1 1037:7 1057:1 1087:1 1125:1 1235:2 1375:1 1451:1 1461:1 1495:1 1550:1 1558:1 1667:1 1683:1 1692:1 1717:1 1766:1 1949:2 1961:2 1985:2 2054:1 2067:1 2087:1 2156:1 2199:1 2211:1 2356:1 2363:6 2558:2 2560:1 2693:1 2710:1 2747:1 2773:2 2852:5 2896:1 2907:1 2919:2 2994:2 3037:1 3072:1 3076:1 3077:2 3126:1 3135:1 3180:2 3185:1 3206:1 3292:1 3313:3 3344:1 3357:1 3380:1 3381:5 3446:1 3462:1 3500:1 3573:2 3708:16 3717:3 3718:1 3744:3 3914:5 3978:1 4145:1 4146:1 4187:3 4340:2 4384:3 4425:1 4447:1 4533:1 4624:1 4657:1 4693:1 4746:1 4862:1 4959:1 5014:3 5055:2 5058:2 5083:1 5140:2 5154:1 5158:1 5246:1 5271:1 5285:4 5329:1 5335:1 5338:1 5350:1 5430:2 5513:1 5560:1 5577:1 5652:1 5700:5 5743:1 5744:1 5760:1 5851:1 5862:40 5930:1 5987:1 5999:1 6010:4 6066:1 6135:2 6156:1 6167:1 6238:1 6298:2 6336:1 6406:1 6446:1 6557:3 6570:1 6580:1 6670:1 6699:1 6858:1 6859:1 6873:1 6895:1 6896:1 6937:1 6957:4 6985:4 7033:1 7039:3 7045:1 7072:1 7089:1 7138:1 7197:1 7202:1 7266:1 7289:2 7313:3 7405:15 7407:1 7569:10 7614:1 7661:4 7707:1 7745:2 7808:1 7850:1 7854:1 7959:1 7994:1 8025:1 8031:1 8068:1 8089:1 8194:1 8231:1 8305:1 8348:1 8451:2 8491:1 8532:1 8648:1 8686:1 8833:4 8854:1 8899:1 9127:1 9251:2 9263:1 9280:1 9342:1 9437:1 9440:1 9450:1 9465:1 9485:1 9508:1 9604:1 9617:2 9636:1 9649:1 9741:4 9809:1 9884:1 9917:1 9920:23 9951:1 9955:2 10046:5 10047:1 10140:1 10143:2 10145:1 10264:2 10274:1 10333:1 10340:1 10350:1 10447:1 10505:2 10636:3 10661:1 10682:1 10696:1 10757:1 10778:1 11014:1 11149:1 11172:1 11225:1 11264:1 11429:4 11451:1 11497:1 11506:7 11620:1 11637:1 11650:1 11739:1 11822:2 11849:1 11856:1 11892:1 12044:3 12062:1 12143:1 12166:1 12252:1 12385:1 12470:1 12479:1 12548:1 12597:1 12642:1 12747:1 12803:1 12813:1 12855:1 12868:3 13011:1 13025:5 13066:1 13104:4 13115:1 13116:1 13261:1 13273:2 13329:1 13357:1 13390:2 13498:1 13503:1 13705:1 13712:1 13728:2 13795:1 13813:1 13895:5 13904:1 14009:1 14033:1 14136:7 14147:1 14162:1 14165:4 14193:1 14238:1 14265:1 14283:1 14331:1 14337:1 14363:1 14385:1 14391:1 14486:1 14500:1 14560:2 14582:1 14590:1 14657:2 14814:1 14862:1 14951:1 14961:1 14975:3 14980:1 15167:1 15267:2 15275:2 15291:1 15336:1 15377:1 15423:1 15472:1 15495:1 15582:1 15591:13 15637:2 15685:1 15713:1 15916:1 15936:1 15938:1 15996:2 16027:2 16044:1 16228:2 16230:1 16242:1 16370:1 16461:2 16570:1 16601:1 16608:2 16635:17 16680:1 16716:1 16845:1 16849:1 16905:1 16937:1 16958:1 16959:1 16967:1 17018:2 17046:1 17177:1 17204:2 17285:1 17338:1 17343:1 17354:22 17388:14 17444:1 17449:1 17458:1 17492:1 17555:2 17670:1 17683:1 17692:2 17899:1 17921:1 18072:9 18216:1 18253:1 18304:5 18475:1 18481:8 18532:1 18550:1 18603:19 18612:1 18679:1 18746:1 18764:1 18803:1 18814:1 18857:1 18924:6 18955:4 18987:1 19029:1 19118:1 19121:2 19153:1 19159:2 19174:1 19348:1 19356:1 19437:2 19536:1 19552:2 19579:1 19661:1 19669:1 19684:1 19736:1 19785:1 
0.0009720675705824356 0.0009873253109151838 0.001193785553105202 186:1 229:1 247:1 262:2 601:1 620:2 661:2 788:2 830:3 889:1 959:3 1020:1 1024:8 1026:1 1037:10 1083:1 1089:2 1235:6 1270:1 1295:1 1344:1 1375:1 1418:1 1495:1 1496:1 1532:2 1541:1 1573:1 1687:2 1714:2 1720:1 1746:1 1789:1 1792:1 1878:1 1961:1 1985:1 2171:1 2199:1 2211:1 2363:3 2368:1 2546:1 2551:1 2615:1 2648:2 2676:2 2713:2 2799:1 2824:1 2877:1 3057:2 3135:2 3143:1 3197:1 3198:1 3213:1 3268:1 3313:1 3421:1 3520:3 3557:1 3631:1 3665:1 3678:1 3730:1 3744:1 3805:2 3842:1 3845:1 3875:1 3900:1 3914:5 4021:1 4090:1 4145:1 4146:2 4170:1 4233:1 4305:1 4340:4 4343:1 4376:1 4575:2 4746:1 4798:1 4938:1 5014:1 5055:1 5057:1 5083:1 5090:1 5110:3 5154:1 5385:1 5538:1 5560:1 5568:3 5573:1 5604:1 5647:1 5657:2 5847:1 5862:17 5874:2 5926:2 6066:1 6071:6 6091:1 6124:2 6140:1 6259:1 6310:2 6335:1 6412:1 6447:1 6467:1 6482:2 6545:1 6557:3 6670:1 6699:3 6719:1 6960:1 7029:1 7039:2 7127:1 7178:2 7289:1 7313:2 7331:1 7358:1 7404:1 7405:7 7407:1 7489:1 7540:1 7579:1 7604:1 7624:1 7625:1 7667:1 7781:2 7847:2 7859:1 8010:2 8027:2 8054:2 8111:1 8244:1 8312:1 8491:3 8513:1 8546:1 8548:2 8566:1 8671:1 8806:1 8900:2 9109:1 9166:2 9232:1 9259:2 9417:2 9437:1 9627:1 9827:1 9920:1 9924:1 10094:1 10134:1 10140:3 10143:1 10188:1 10215:1 10319:1 10472:1 10482:1 10521:1 10563:1 10590:1 10636:1 10661:1 10757:1 10778:1 10832:1 10897:1 10945:2 11122:1 11215:1 11216:2 11286:2 11330:2 11348:1 11383:1 11384:1 11506:1 11577:1 11613:1 11618:2 11620:3 11650:2 11716:2 11822:1 11887:1 11893:1 12044:1 12204:1 12231:1 12273:1 12392:4 12525:4 12527:1 12710:2 12754:2 12833:1 12848:1 12868:5 12889:1 12924:2 12986:2 13046:1 13172:1 13203:1 13234:1 13279:1 13373:1 13396:1 13410:1 13575:1 13728:1 13820:2 13895:1 13939:2 13952:1 14020:1 14051:1 14104:1 14136:6 14350:1 14397:1 14433:1 14516:1 14582:2 14646:1 14657:1 14675:1 14728:3 14872:1 14961:1 15002:6 15036:1 15143:1 15244:3 15309:1 15431:1 15591:1 15630:1 15637:3 15681:1 15830:1 15882:4 15922:1 15977:1 16275:2 16540:1 16635:14 16679:1 16684:1 16841:2 16849:1 16903:1 16981:1 17073:3 17204:1 17208:1 17343:2 17348:1 17354:1 17388:1 17409:1 17416:1 17444:3 17468:2 17472:1 17555:1 17605:1 17745:2 17891:1 18020:1 18035:3 18072:3 18143:1 18447:1 18523:1 18558:1 18585:2 18603:6 18740:1 18746:1 18764:4 18824:2 18987:2 19174:5 19182:1 19370:1 19437:3 19471:1 19478:2 19552:1 19571:1 19595:1 19659:1 19684:1 
0.0001913662356066778 0.0006339870764118032 0 102:1 140:1 142:1 210:1 222:1 361:1 365:1 568:2 601:1 668:1 813:1 871:2 894:1 957:2 1024:3 1037:8 1045:3 1217:2 1236:1 1302:1 1328:1 1338:5 1344:2 1369:1 1418:1 1440:1 1495:1 1496:1 1693:1 1792:2 1838:1 1961:1 1985:1 2082:2 2171:1 2296:1 2298:1 2308:1 2358:1 2393:1 2541:1 2572:1 2592:1 2615:1 2648:1 2663:1 2773:1 2907:1 2978:1 2994:4 3100:1 3183:1 3219:1 3309:1 3335:1 3520:3 3705:1 3813:1 3851:1 3909:1 3914:5 4082:1 4135:2 4384:1 4385:1 4435:1 4545:1 4608:1 4623:1 4693:1 4745:1 4858:1 4862:1 5014:1 5083:1 5088:1 5163:1 5222:8 5284:3 5700:2 5760:1 5776:3 5851:1 5862:64 6020:1 6071:17 6181:1 6328:1 6360:1 6381:1 6406:3 6423:1 6486:2 6545:1 6557:9 6584:1 6606:1 6670:1 6699:15 6858:1 6937:1 6957:1 6973:2 7009:1 7039:1 7078:4 7115:2 7157:2 7289:1 7313:1 7359:2 7374:1 7378:1 7403:1 7405:3 7462:1 7489:1 7499:1 7562:4 7652:1 7667:1 7766:1 7772:1 7799:3 7859:1 7881:1 7935:1 7945:1 7961:1 8004:1 8045:1 8197:1 8218:2 8312:1 8491:1 8571:3 8708:1 8794:1 8878:1 8891:1 8972:3 9043:2 9113:1 9181:1 9183:1 9338:1 9545:1 9627:2 9664:1 9918:1 9920:2 10067:1 10081:1 10143:1 10164:1 10264:2 10315:1 10481:1 10636:1 10661:1 10677:5 10691:1 10757:1 10875:1 10878:1 11110:1 11140:1 11362:11 11384:1 11429:1 11500:1 11508:1 11577:2 11584:1 11618:2 11627:1 11634:1 11694:2 11763:1 11887:1 11893:1 11980:2 11993:1 12139:1 12273:1 12400:1 12491:1 12569:1 12666:3 12690:1 12701:1 12924:2 13159:2 13359:1 13384:1 13396:1 13601:1 13661:1 13702:1 13857:1 13895:1 13933:1 13947:1 13994:1 14091:1 14157:1 14178:1 14195:1 14316:2 14331:2 14486:1 14507:1 14539:4 14560:1 14646:1 14657:1 14728:4 14862:1 14961:1 15002:1 15143:1 15167:1 15254:1 15268:1 15506:1 15521:1 15591:1 15637:1 15680:1 15719:5 15727:2 15895:1 16040:2 16127:3 16266:1 16377:9 16499:1 16590:1 16620:1 16635:18 16655:1 16679:1 16686:1 16738:3 16740:3 16756:1 16821:2 16905:1 16919:1 16936:1 16967:3 17025:1 17036:2 17115:9 17129:1 17204:2 17268:1 17274:1 17277:1 17343:3 17354:2 17369:1 17409:2 17444:1 17472:2 17555:1 17556:1 17649:1 17681:2 17816:1 17834:5 17971:1 18011:1 18020:4 18057:2 18072:5 18103:2 18169:1 18316:1 18337:1 18585:1 18592:3 18603:4 18746:5 18764:3 18824:1 18852:1 18977:1 18989:3 18990:1 19078:1 19085:2 19159:3 19174:1 19206:1 19259:1 19283:2 19327:1 19437:2 19471:1 19494:1 19571:2 19659:1 19676:3 19684:1 19732:1 19738:4 19769:8 
0.0007589051488336592 0.0006989424260361411 0.001121219602214316 9:1 27:1 102:1 196:1 203:2 229:1 247:1 262:1 451:1 460:3 568:1 601:1 661:1 730:1 755:1 801:1 821:1 830:2 841:1 889:1 894:3 959:3 996:1 997:2 1024:6 1037:6 1072:1 1215:1 1235:1 1274:1 1300:2 1495:1 1496:1 1505:2 1532:1 1649:1 1687:3 1746:1 1770:2 1792:2 1822:2 1961:1 1985:1 2060:1 2087:1 2211:1 2234:1 2363:6 2384:3 2393:2 2449:1 2533:1 2598:1 2648:3 2651:1 2676:1 2692:1 2698:1 2773:1 2817:2 2850:3 2901:1 2994:3 3011:2 3126:1 3197:1 3465:4 3544:1 3627:1 3813:4 3822:1 3827:1 3842:1 3910:2 3914:4 3940:1 3977:1 4291:1 4340:2 4350:2 4394:1 4435:1 4461:4 4501:1 4746:2 4826:1 4857:1 4995:1 5014:1 5063:1 5083:1 5101:1 5135:1 5163:1 5200:1 5223:1 5285:6 5298:3 5369:1 5430:1 5555:4 5568:1 5700:2 5760:2 5816:1 5862:18 5879:1 5983:1 6066:1 6071:1 6109:1 6121:1 6374:3 6406:1 6412:1 6444:1 6486:1 6545:1 6557:5 6560:1 6565:1 6670:1 6699:7 6723:2 6791:1 6858:1 6957:2 7039:1 7289:1 7331:1 7405:1 7462:2 7489:1 7625:1 7760:1 7847:3 7856:1 7882:1 7901:1 7961:1 8081:1 8096:1 8130:1 8171:1 8185:1 8218:3 8328:1 8390:1 8419:1 8451:1 8491:3 8533:1 8558:2 8559:1 8967:1 8977:3 9023:1 9109:1 9116:2 9140:1 9189:1 9209:1 9251:2 9338:2 9465:1 9518:1 9611:1 9627:3 9646:1 9848:1 9868:1 9910:1 9916:1 9917:1 9920:1 9924:2 10015:1 10029:1 10046:2 10049:1 10114:1 10215:1 10259:1 10264:1 10268:1 10426:1 10481:1 10636:1 10638:1 10661:1 10724:1 10740:1 10757:1 10759:1 10796:2 10832:1 10980:1 11012:1 11041:1 11047:1 11088:1 11092:1 11134:1 11341:1 11373:1 11409:2 11445:1 11453:1 11485:1 11581:1 11613:1 11618:1 11620:1 11634:3 11644:1 11646:1 11694:3 11721:1 11822:2 11993:1 12018:1 12050:1 12196:1 12273:1 12274:1 12277:1 12666:3 12719:1 12754:1 12759:1 12816:1 12849:1 12868:1 12924:1 12955:1 13159:2 13167:4 13280:1 13390:1 13507:1 13696:1 13728:1 13788:1 13849:2 13895:1 13939:1 13952:2 13956:1 14136:7 14316:1 14331:1 14358:1 14370:1 14448:1 14512:1 14582:3 14623:1 14657:3 14691:1 14728:8 14812:2 14858:3 14888:1 14932:1 14961:1 14991:1 15002:3 15036:1 15041:1 15195:1 15216:1 15244:1 15265:1 15336:2 15358:1 15370:3 15415:1 15436:1 15455:1 15546:4 15548:1 15581:1 15591:1 15592:1 15637:2 15646:1 15712:1 15754:1 15810:1 15854:1 15931:1 16040:2 16303:1 16510:2 16591:1 16618:1 16635:11 16648:1 16655:1 16679:2 16784:2 16799:1 16849:1 16958:4 16993:2 17018:2 17056:3 17060:1 17133:2 17135:1 17184:1 17204:1 17208:4 17312:1 17343:5 17353:1 17354:1 17380:1 17394:1 17444:2 17459:2 17468:1 17544:1 17555:1 17690:1 17702:1 17706:1 17816:1 17822:1 17979:1 18035:2 18057:1 18072:5 18136:1 18143:1 18281:1 18378:1 18442:1 18482:1 18578:1 18603:4 18698:1 18740:2 18744:2 18746:4 18759:1 18764:5 18824:4 18972:1 18987:1 18989:2 19007:1 19052:1 19079:1 19085:5 19104:1 19174:2 19218:3 19387:1 19437:1 19473:1 19539:1 19552:3 19554:1 19571:1 19595:2 19684:1 
0.0004514283471040322 0.0003677390253278574 0.0006695859621142364 102:1 123:1 136:1 170:1 229:1 262:1 281:1 497:1 542:1 568:1 593:1 601:1 661:1 665:1 717:1 730:2 894:3 1024:2 1037:2 1041:1 1092:1 1114:1 1126:1 1175:2 1268:1 1281:1 1344:1 1403:1 1495:1 1532:1 1838:1 1915:1 1961:2 1985:2 2211:1 2270:1 2271:1 2288:5 2363:5 2384:2 2566:1 2592:1 2614:1 2627:1 2648:2 2676:5 2773:2 2782:1 2870:2 2994:1 3025:1 3030:1 3128:1 3159:2 3313:1 3455:1 3465:2 3491:1 3500:2 3698:1 3708:1 3822:1 3877:1 3914:6 4080:1 4145:2 4170:3 4193:1 4259:1 4321:1 4340:1 4355:1 4435:1 4461:1 4528:6 4538:1 4848:3 4897:1 5014:2 5083:1 5105:2 5163:1 5246:1 5284:3 5285:1 5439:1 5531:1 5555:1 5686:2 5700:7 5719:1 5760:2 5823:2 5851:1 5862:30 5874:1 5881:1 5918:1 6010:1 6035:1 6071:2 6124:4 6146:4 6323:1 6406:4 6430:1 6467:1 6522:1 6539:1 6557:4 6670:1 6699:6 6855:1 6858:2 6895:1 6957:2 7039:2 7129:1 7178:1 7190:1 7289:2 7313:5 7405:9 7612:1 7678:1 7699:1 7745:1 7781:1 7825:1 7878:2 7910:1 7921:2 7949:1 8282:1 8418:3 8490:1 8491:4 8548:1 8616:1 8623:1 8850:1 8897:1 8931:1 8945:1 9019:1 9136:1 9338:1 9379:1 9392:1 9439:1 9465:1 9827:1 9920:2 9960:1 9990:2 10029:1 10062:1 10066:1 10178:1 10184:1 10192:1 10274:1 10319:1 10461:1 10471:1 10583:1 10636:1 10661:1 10757:1 10796:1 10872:2 10874:1 10935:1 10940:1 11010:1 11047:1 11184:1 11209:1 11215:3 11426:1 11445:5 11471:4 11494:2 11506:1 11577:1 11581:1 11618:1 11634:1 11672:1 11694:3 11785:1 12258:2 12273:1 12452:1 12486:2 12525:4 12868:2 12896:1 12986:2 13104:1 13133:1 13159:1 13181:1 13203:1 13218:7 13396:1 13450:3 13582:1 13624:1 13647:1 13671:1 13689:1 13728:1 13744:1 13839:1 13895:1 13961:1 14030:1 14044:1 14136:3 14221:1 14448:1 14468:1 14536:1 14560:1 14582:5 14657:2 14728:5 14766:1 14782:1 14812:1 14961:1 15002:2 15036:1 15244:6 15345:1 15400:2 15404:1 15591:1 15634:1 15637:1 15867:2 15895:1 15949:1 16180:1 16222:1 16304:1 16419:1 16549:1 16595:2 16635:14 16655:1 16681:1 16705:1 16930:1 16958:2 17027:1 17121:1 17204:2 17207:1 17343:2 17354:2 17444:1 17458:1 17472:1 17527:1 17555:1 17839:1 17921:1 17954:2 18072:3 18080:1 18129:1 18157:1 18276:1 18304:1 18327:3 18470:2 18514:1 18603:4 18632:1 18740:2 18746:3 18764:3 18772:1 18824:2 18890:1 18902:1 18989:2 19001:1 19015:1 19104:2 19174:2 19182:2 19225:1 19339:1 19374:1 19437:4 19465:1 19490:1 19552:1 19571:4 19655:1 19684:1 19757:1 19769:3 19807:1 
0.0004038335910338547 0.0002236677540246878 0 10:2 56:1 122:1 123:1 136:1 229:1 247:1 593:3 601:1 636:1 661:1 678:1 717:1 730:1 798:1 817:1 821:1 830:1 894:1 896:3 930:1 983:1 1024:2 1037:3 1092:1 1129:1 1321:1 1344:1 1495:1 1496:1 1532:1 1687:2 1838:1 1856:1 1901:1 1961:2 1985:3 2211:1 2267:1 2270:2 2271:1 2288:4 2363:1 2384:1 2547:1 2558:1 2566:1 2569:2 2592:1 2598:1 2648:2 2676:4 2721:3 2761:1 2773:1 2824:1 2870:1 2894:1 2940:1 2994:2 2999:1 3025:1 3161:1 3198:2 3313:6 3400:1 3465:2 3491:1 3500:1 3520:1 3559:1 3656:1 3822:1 3823:1 3875:1 3914:8 4080:2 4085:2 4145:1 4170:2 4187:3 4259:1 4321:1 4340:1 4435:1 4442:1 4528:5 4588:1 4848:3 5014:2 5055:1 5083:1 5102:1 5163:1 5235:1 5239:1 5246:1 5284:1 5285:1 5439:1 5700:13 5719:1 5760:3 5832:1 5862:42 6010:1 6020:1 6071:1 6124:3 6146:1 6182:1 6225:1 6295:1 6338:1 6406:4 6425:1 6430:1 6557:6 6601:1 6670:1 6699:11 6777:3 6783:1 6855:1 6858:1 6957:2 7178:1 7289:2 7313:4 7405:16 7468:1 7489:1 7678:1 7699:1 7743:1 7825:2 7847:2 7921:2 7949:1 7980:1 8119:1 8328:1 8418:5 8451:1 8490:1 9019:2 9208:1 9338:2 9437:1 9438:1 9439:1 9465:1 9482:1 9485:1 9508:2 9559:1 9627:4 9649:1 9920:2 9990:1 10029:2 10046:1 10062:1 10066:1 10134:1 10140:1 10184:1 10192:1 10285:1 10415:1 10583:1 10626:1 10636:1 10661:1 10757:1 10796:1 10850:2 10854:1 10935:1 10940:2 11047:1 11071:1 11102:1 11115:3 11140:1 11233:1 11256:1 11383:1 11426:1 11445:3 11453:1 11471:4 11485:1 11506:1 11606:1 11618:2 11620:2 11644:1 11694:1 11754:1 11761:1 11762:1 11875:1 11964:1 11993:2 12121:1 12258:1 12273:1 12525:2 12569:1 12577:2 12624:7 12868:1 12896:1 12918:1 12938:1 12986:1 13025:2 13051:1 13077:2 13104:1 13133:1 13181:1 13218:3 13226:1 13234:1 13287:1 13309:1 13337:1 13396:1 13582:1 13624:3 13647:1 13728:1 13744:1 13815:4 13895:1 13902:3 13944:1 13952:1 14044:1 14089:1 14136:9 14151:1 14259:1 14331:2 14560:1 14657:1 14691:1 14728:1 14780:2 14782:1 14961:1 15002:2 15036:1 15080:1 15143:2 15171:1 15244:3 15299:1 15400:1 15404:1 15409:1 15477:1 15481:1 15591:1 15743:1 15778:1 15949:1 15996:1 16040:2 16212:1 16222:1 16245:1 16286:1 16288:1 16322:1 16446:1 16549:1 16635:14 16655:1 16700:1 16743:1 16930:2 16958:1 16967:1 17056:1 17080:1 17139:2 17186:2 17204:4 17228:1 17279:1 17343:2 17354:2 17381:1 17444:1 17468:1 17555:1 17556:1 17605:1 17642:1 17670:1 17693:2 17701:1 17730:3 17759:1 17839:1 17860:3 17921:1 17954:1 18057:1 18072:8 18133:1 18171:1 18304:1 18327:3 18470:3 18578:1 18603:2 18740:2 18746:8 18764:2 18824:1 18946:1 18989:3 19001:1 19015:1 19058:1 19104:1 19159:1 19174:2 19225:1 19339:1 19374:1 19437:5 19465:4 19552:2 19655:1 19684:1 19769:3 19807:1 
0.0001376765207130359 0.0001477975156539288 0 58:1 186:2 190:1 262:5 382:1 394:1 435:1 445:1 533:1 580:1 600:1 601:1 605:1 661:3 668:3 755:1 766:1 781:1 889:1 894:2 1024:4 1037:7 1235:1 1387:1 1391:1 1428:1 1433:2 1440:2 1490:1 1495:1 1498:1 1574:1 1687:6 1707:1 1718:1 1770:2 1961:2 2087:1 2342:1 2363:1 2407:2 2437:3 2605:3 2633:1 2648:2 2676:9 2773:6 3180:1 3213:1 3278:1 3309:1 3393:1 3465:2 3500:2 3540:2 3676:1 3689:7 3693:1 3728:1 3842:1 3845:3 3909:1 3914:5 4090:1 4187:2 4305:1 4340:2 4358:1 4378:1 4385:1 4435:1 4599:1 4656:1 4746:1 4982:2 5014:2 5082:2 5083:1 5157:1 5163:1 5191:1 5210:1 5284:1 5298:4 5427:3 5568:1 5629:1 5635:1 5700:3 5760:3 5862:23 5972:1 6031:3 6066:1 6071:1 6145:1 6148:1 6214:1 6304:6 6309:1 6367:1 6406:5 6522:3 6548:6 6552:1 6557:3 6609:1 6669:1 6670:1 6699:12 6783:4 6858:1 6876:2 6939:1 6957:3 7054:2 7088:1 7140:1 7178:3 7289:2 7323:2 7405:11 7499:1 7625:1 7775:1 7847:1 7878:3 7911:1 7921:2 8093:1 8104:1 8270:1 8284:1 8290:1 8469:1 8491:1 8607:2 8700:1 9025:1 9175:1 9182:2 9251:1 9454:1 9567:1 9627:1 9697:1 9719:1 9723:1 9728:1 9868:1 9920:2 10022:1 10134:2 10143:1 10264:1 10319:1 10454:3 10518:2 10563:1 10565:1 10569:2 10583:1 10636:1 10661:1 10708:2 10757:1 10759:1 10778:2 10841:2 10860:1 10867:1 10873:2 11378:1 11435:6 11453:1 11471:4 11577:2 11618:1 11670:1 11694:1 11757:1 11822:1 11831:1 11893:1 11970:1 12036:2 12044:2 12252:1 12273:1 12330:1 12361:2 12379:2 12482:1 12598:1 12609:1 12617:2 12792:1 12868:5 12911:1 12924:1 12930:2 13024:1 13025:1 13101:1 13104:1 13133:1 13160:2 13187:1 13358:3 13373:1 13508:1 13518:1 13671:2 13830:1 13838:1 13895:1 13919:1 14007:3 14060:1 14155:1 14195:1 14197:2 14296:3 14390:1 14431:10 14486:1 14507:1 14560:1 14582:1 14590:2 14627:1 14637:3 14646:1 14691:3 14728:1 14826:1 14881:1 14961:1 15126:1 15257:1 15303:1 15336:2 15591:1 15637:2 15882:1 16040:1 16540:1 16595:2 16635:9 16655:1 16738:2 16914:1 17113:1 17204:2 17343:4 17354:2 17396:1 17444:6 17468:1 17555:1 17605:1 17921:1 18057:1 18072:9 18385:2 18470:2 18603:4 18718:1 18740:2 18746:1 18762:1 18764:3 18808:2 18824:1 18987:1 18989:2 19126:1 19159:7 19182:4 19186:2 19259:1 19339:1 19465:1 19570:1 19571:6 19663:1 19676:1 19684:1 
0.0001394990743777311 0 0.0001560891136849125 85:1 102:1 123:1 159:1 162:1 229:3 262:5 334:1 408:1 419:1 566:1 578:1 601:1 661:5 712:1 733:1 755:2 830:1 838:1 894:4 967:1 1024:7 1037:5 1087:2 1114:1 1175:2 1419:1 1495:1 1496:2 1687:2 1770:6 1924:2 1961:1 1985:2 1993:1 2049:1 2099:1 2211:1 2218:1 2223:1 2363:5 2454:1 2524:1 2528:1 2648:2 2691:1 2786:1 2911:1 2915:1 2995:1 3070:2 3118:1 3135:1 3145:1 3427:1 3465:2 3477:1 3500:1 3544:4 3560:1 3842:1 3845:2 3914:3 4193:1 4253:1 4352:2 4385:2 4390:1 4461:1 4490:1 4608:1 4679:1 4746:2 4846:1 4862:1 4934:2 4988:2 5014:3 5055:1 5163:1 5284:1 5298:5 5409:2 5414:1 5430:1 5536:1 5568:2 5619:1 5760:1 5819:1 5862:18 5881:1 5943:1 6009:1 6010:1 6066:1 6071:8 6091:3 6120:1 6124:3 6126:1 6153:1 6310:2 6367:1 6383:1 6406:3 6557:10 6565:2 6609:1 6670:1 6679:1 6699:12 6731:1 6749:1 6858:2 6957:1 7130:1 7197:1 7289:1 7313:6 7405:9 7445:1 7468:1 7489:1 7499:1 7599:1 7781:1 7859:1 7875:1 7882:1 8047:1 8117:1 8305:2 8312:1 8476:1 8491:1 8598:1 8639:2 8745:1 8951:1 9056:1 9109:1 9328:1 9487:1 9562:2 9649:1 9664:1 9698:1 9743:1 9917:4 9920:10 9960:1 9968:1 10046:1 10134:1 10143:2 10148:1 10563:1 10636:1 10638:1 10686:5 10728:2 10771:1 10841:1 10850:1 10875:2 10903:1 10992:1 11014:1 11138:1 11201:1 11215:1 11225:1 11312:1 11314:3 11348:3 11429:1 11445:1 11453:1 11496:1 11577:1 11618:2 11644:1 11650:1 11694:1 11708:1 11822:2 11887:2 11893:1 11993:2 12044:1 12130:1 12247:2 12252:1 12258:1 12273:1 12297:1 12363:1 12525:1 12722:1 12732:5 12797:9 12798:1 12868:1 12891:1 12896:2 13159:1 13203:1 13238:1 13243:2 13544:1 13578:1 13726:1 13728:1 13752:1 13811:1 13830:1 13844:1 13895:1 13936:1 13979:1 14060:1 14104:1 14136:1 14155:1 14201:1 14325:1 14356:1 14433:4 14486:3 14512:1 14517:2 14560:1 14646:1 14649:1 14650:1 14657:1 14728:4 14812:1 14862:1 14881:1 14961:1 15002:1 15164:1 15171:1 15244:1 15386:1 15667:1 15884:1 15895:3 15972:1 15980:1 15984:1 16025:1 16077:1 16091:1 16180:1 16194:2 16241:1 16280:1 16286:1 16461:2 16520:1 16541:1 16573:1 16635:7 16647:1 16655:1 16681:1 16738:2 16924:1 16941:1 16958:1 17021:1 17027:1 17247:1 17343:1 17354:1 17384:2 17388:2 17444:6 17555:1 17585:1 17651:1 17701:1 17801:1 17854:1 17954:3 18020:3 18024:1 18035:1 18072:5 18216:2 18257:1 18294:1 18455:1 18497:1 18585:1 18592:1 18603:4 18607:1 18740:1 18746:1 18764:2 18941:1 18972:1 18989:1 19007:4 19094:1 19174:5 19182:2 19262:1 19437:4 19552:1 19571:1 19595:3 19676:1 
0.0008468127093933726 0.0009082938973192369 0.001007478248168589 124:7 186:1 460:2 605:1 661:1 755:1 759:1 821:1 894:1 959:1 1024:1 1037:4 1105:1 1211:1 1235:1 1281:1 1313:1 1353:1 1495:1 1550:6 1570:1 1582:1 1649:1 1770:2 1777:1 1961:1 1985:1 2211:4 2363:5 2393:1 2566:1 2592:1 2648:1 2676:1 2844:1 2850:1 2901:1 2915:1 3135:2 3145:1 3368:1 3427:1 3434:1 3463:1 3504:1 3567:5 3680:1 3689:2 3793:5 3824:1 3842:1 3914:1 4113:1 4146:1 4154:1 4226:1 4301:1 4384:1 4385:2 4602:1 4656:1 4746:2 4754:1 5014:3 5140:1 5163:1 5210:1 5219:1 5284:1 5298:4 5316:1 5344:2 5409:1 5469:1 5536:1 5568:1 5635:1 5700:7 5720:1 5862:27 6012:1 6066:3 6071:5 6124:2 6136:3 6180:1 6207:1 6304:1 6323:1 6383:1 6395:1 6406:4 6441:1 6522:2 6557:3 6560:1 6565:1 6670:1 6699:15 6783:3 6957:4 7022:4 7091:1 7162:1 7178:5 7289:1 7313:1 7405:3 7499:1 7507:2 7599:3 7838:1 7882:1 8086:1 8130:1 8194:1 8218:1 8270:1 8484:3 8592:1 8699:1 8758:1 8817:1 8881:1 9084:1 9161:1 9176:4 9209:1 9242:1 9244:6 9251:1 9629:2 9719:1 9920:1 9961:1 9968:1 9990:1 10022:1 10029:3 10112:1 10134:3 10140:1 10163:1 10184:1 10447:3 10480:1 10506:3 10636:1 10638:2 10796:1 10807:1 11169:1 11317:1 11435:1 11471:1 11472:1 11497:1 11501:1 11694:2 11964:1 11993:2 12044:2 12273:1 12274:2 12393:1 12454:1 12722:1 12761:1 12847:1 12896:1 12939:1 12986:1 13108:2 13199:1 13234:1 13238:1 13279:2 13317:2 13726:1 13895:1 14052:1 14136:3 14152:1 14245:5 14280:1 14331:2 14512:1 14560:1 14657:2 14674:1 14728:3 14739:1 14961:1 15002:2 15138:1 15143:1 15159:1 15275:1 15356:1 15393:1 15423:1 15493:2 15895:1 16105:1 16212:1 16255:1 16370:1 16401:1 16510:1 16539:2 16591:1 16635:6 16655:1 16738:2 16769:1 16777:1 16922:1 17024:9 17086:2 17343:2 17354:1 17371:1 17444:5 17468:1 17493:1 17555:1 17635:1 17736:1 17836:1 17882:1 17954:1 18072:5 18391:1 18497:1 18603:4 18617:1 18645:2 18738:1 18740:5 18744:1 18746:3 18764:2 18824:1 18881:1 18987:3 18989:1 19159:2 19186:3 19235:1 19437:2 19663:1 19727:1 19735:1 19808:1 
2.273251547528506e-005 0.0002249058766836818 0 53:1 152:2 247:2 601:1 629:1 661:5 712:2 759:1 830:1 889:2 930:1 948:1 959:6 978:1 1024:2 1037:6 1087:5 1092:1 1110:3 1114:1 1217:1 1352:1 1387:1 1460:1 1495:1 1496:1 1532:2 1550:3 1563:1 1630:1 1687:2 1792:2 1878:1 1924:1 1961:1 2071:1 2074:1 2087:1 2094:2 2211:1 2234:1 2363:4 2454:1 2463:1 2547:2 2579:1 2648:5 2680:1 2710:3 2725:1 2758:1 2760:1 2773:1 2907:1 2930:1 3032:4 3055:1 3129:1 3145:1 3170:2 3242:3 3313:6 3406:2 3459:1 3520:1 3569:1 3573:3 3636:1 3717:2 3744:1 3788:5 3839:2 3874:1 3877:1 3914:11 3959:1 4145:1 4243:2 4253:1 4305:3 4340:1 4390:1 4414:1 4425:1 4501:1 4562:1 4580:1 4608:1 4790:1 4811:1 4889:2 4908:1 5014:4 5210:1 5222:1 5236:1 5284:2 5298:3 5393:1 5534:1 5700:7 5744:1 5760:2 5855:1 5862:37 5879:1 5917:1 5961:1 6009:1 6071:4 6097:1 6124:2 6156:2 6225:1 6253:1 6383:2 6387:1 6406:1 6473:1 6511:1 6513:1 6540:2 6557:10 6587:1 6601:1 6613:1 6645:1 6668:1 6670:1 6699:16 6858:2 6937:2 6957:3 7039:1 7127:1 7289:1 7313:4 7353:1 7405:14 7489:1 7609:1 7614:1 7658:1 7678:1 7801:1 7883:1 8111:1 8112:1 8253:1 8451:1 8491:1 8571:1 9021:1 9112:1 9142:1 9183:2 9263:1 9384:1 9481:1 9545:1 9627:1 9920:1 9960:1 10037:1 10143:2 10264:2 10268:1 10280:1 10333:3 10438:1 10480:3 10636:1 10638:2 10683:1 10787:1 10852:1 10868:1 10878:2 10915:1 11008:1 11014:1 11084:2 11170:1 11195:2 11215:1 11362:4 11378:1 11383:3 11416:1 11506:1 11571:1 11613:1 11616:1 11618:1 11634:1 11650:1 11855:1 11893:1 12050:1 12207:2 12273:1 12597:1 12602:1 12650:1 12690:3 12722:1 12797:1 12813:3 12876:2 12891:1 12896:2 12956:1 12986:2 13025:1 13062:1 13134:1 13288:1 13328:1 13422:2 13653:1 13671:1 13726:1 13818:1 13895:1 13900:1 13932:2 13952:1 13979:1 13994:1 14136:23 14147:3 14221:1 14331:1 14517:1 14582:2 14586:1 14646:1 14657:4 14676:1 14686:1 14728:10 14730:1 14845:1 14912:1 14961:1 15036:1 15080:1 15082:1 15114:1 15138:2 15167:1 15282:1 15332:3 15591:1 15637:2 15705:1 15746:1 16373:1 16377:1 16519:1 16635:12 16681:1 16685:2 16771:1 16928:2 16980:2 17080:1 17101:1 17169:1 17269:1 17343:2 17354:1 17386:2 17444:3 17458:1 17555:1 17605:1 17681:4 17701:2 17801:2 17839:1 17876:2 17938:1 18020:1 18072:3 18103:3 18106:1 18133:1 18367:1 18497:1 18504:1 18563:1 18671:1 18740:2 18746:1 18763:1 18764:4 18799:1 18989:2 19009:1 19159:4 19174:3 19283:4 19329:1 19416:1 19571:1 19595:1 19661:1 19676:1 19727:4 19743:1 19769:13 
0.0004069537188047614 0.0005283787547045796 0.0004448894975462197 58:1 229:2 262:5 285:1 299:1 380:1 580:1 590:1 601:1 605:4 690:1 821:1 838:2 889:1 979:1 1020:2 1024:4 1037:6 1334:1 1429:2 1449:1 1495:1 1496:2 1544:1 1574:1 1611:1 1633:2 1687:2 1792:2 1878:1 1924:3 1961:1 2082:1 2087:1 2178:1 2352:2 2363:1 2384:1 2393:1 2407:2 2408:1 2437:3 2475:1 2657:6 2704:1 2773:4 2915:1 2919:1 2994:1 3031:1 3135:2 3145:1 3427:1 3431:2 3621:2 3673:1 3813:1 3845:3 3914:1 4044:1 4090:1 4095:6 4187:2 4212:1 4340:3 4378:1 4384:1 4385:2 4878:1 5014:4 5055:1 5126:1 5163:1 5222:2 5298:6 5409:1 5536:1 5637:2 5647:2 5862:19 6066:1 6120:1 6172:1 6241:1 6304:6 6406:4 6425:1 6525:2 6557:1 6593:1 6665:1 6670:1 6699:12 6800:1 6858:3 6873:1 6917:1 6957:2 6979:1 7043:1 7088:1 7133:1 7152:2 7184:2 7260:1 7289:2 7361:1 7405:4 7489:2 7499:1 7569:1 7588:1 7635:1 7745:1 7882:1 8043:2 8109:1 8218:1 8244:2 8312:1 8491:3 8700:1 8724:1 8873:2 8968:1 9142:2 9189:1 9251:1 9455:2 9465:1 9482:1 9557:1 9567:1 9627:2 9697:7 9767:4 9781:1 9899:1 9920:1 10012:2 10029:1 10095:1 10114:2 10143:1 10304:2 10319:1 10336:1 10480:1 10481:1 10531:1 10548:1 10636:1 10708:2 10796:2 10878:1 10935:1 11243:2 11314:1 11350:3 11378:1 11383:1 11429:3 11435:6 11464:2 11566:3 11600:1 11613:1 11618:1 11644:2 11757:1 11822:1 11893:1 11993:1 12036:2 12109:1 12164:2 12273:1 12602:1 12617:2 12797:1 12798:1 12868:6 12891:1 12895:1 12896:1 12911:1 12924:1 12986:1 13006:1 13159:1 13187:1 13203:1 13238:1 13390:5 13713:1 13895:1 14007:3 14136:2 14191:1 14397:2 14486:1 14517:2 14560:1 14582:1 14646:1 14657:2 14691:2 14728:6 14961:1 15002:1 15036:1 15143:1 15166:2 15336:2 15423:1 15779:1 15887:2 15903:2 16040:3 16161:1 16255:2 16374:4 16459:1 16574:1 16635:10 16655:1 16738:2 16849:3 16913:3 16916:1 16924:1 17060:1 17129:3 17312:1 17316:1 17354:1 17356:1 17396:1 17416:1 17444:6 17493:1 17555:1 17595:1 17670:2 18072:3 18092:1 18212:3 18253:1 18470:5 18497:1 18580:1 18603:6 18740:3 18746:1 18764:7 18782:1 19085:1 19126:1 19159:2 19174:4 19182:1 19320:1 19406:2 19452:3 19482:1 19552:1 19570:1 19595:1 19676:1 19687:1 19782:1 
0 0.0003134555009115392 0 51:1 113:1 114:1 123:2 145:2 162:1 186:2 247:1 251:1 262:3 285:2 419:1 431:1 571:1 598:1 612:2 631:2 651:1 661:3 662:1 714:1 721:1 754:2 755:1 844:1 889:2 894:2 900:1 946:2 959:4 967:2 971:2 979:1 1020:3 1024:6 1037:13 1188:1 1205:1 1215:1 1218:4 1260:1 1281:2 1332:6 1345:1 1375:1 1403:5 1495:1 1496:1 1532:1 1550:2 1569:3 1645:2 1687:5 1715:1 1766:3 1769:1 1770:5 1789:1 1792:1 1919:1 1961:1 2011:1 2026:4 2051:2 2082:1 2134:1 2171:1 2211:3 2248:1 2269:1 2271:2 2298:1 2321:1 2348:1 2363:8 2384:1 2393:1 2404:1 2448:3 2454:1 2567:1 2582:2 2583:1 2615:1 2648:3 2676:1 2725:1 2773:6 2797:1 2824:1 2850:3 2877:3 2907:5 2915:1 2990:1 2994:1 3031:1 3118:3 3126:1 3135:1 3181:3 3196:2 3197:1 3223:1 3303:1 3304:1 3368:3 3406:2 3413:1 3434:1 3500:1 3501:1 3520:1 3549:2 3603:1 3636:1 3644:3 3744:1 3746:1 3754:4 3768:2 3827:5 3832:1 3838:1 3839:1 3842:1 3845:2 3877:2 3895:2 3914:13 3934:1 3956:1 4007:2 4057:1 4090:2 4145:4 4155:10 4199:2 4340:1 4384:1 4461:1 4473:1 4545:2 4555:1 4623:2 4680:1 4724:1 4739:1 4774:1 4792:1 4800:1 4892:1 4925:1 4988:2 5014:3 5101:1 5110:3 5140:5 5145:1 5163:1 5210:2 5222:3 5246:1 5261:1 5265:4 5266:3 5284:6 5285:7 5286:1 5298:8 5324:3 5377:1 5404:1 5409:1 5438:1 5458:1 5522:1 5528:1 5568:3 5644:1 5659:1 5700:3 5705:1 5721:1 5741:1 5760:2 5762:1 5776:1 5782:1 5801:1 5803:1 5826:1 5847:1 5862:90 5863:1 5881:1 5955:1 5983:1 5987:1 5992:3 6014:1 6066:5 6071:20 6078:1 6091:1 6124:5 6172:1 6187:1 6231:1 6251:1 6256:1 6274:2 6374:1 6379:1 6387:1 6394:1 6406:2 6424:1 6440:1 6459:1 6466:1 6522:4 6557:20 6560:1 6563:1 6593:1 6594:1 6644:1 6664:1 6670:1 6674:4 6684:1 6698:1 6699:21 6734:1 6803:1 6834:3 6849:2 6858:4 6864:1 6873:1 6875:1 6876:2 6902:1 6939:1 6957:2 6980:1 7039:1 7078:3 7095:1 7157:1 7162:1 7234:2 7289:2 7313:6 7321:3 7331:1 7360:1 7405:12 7407:4 7421:1 7463:1 7489:2 7537:1 7553:2 7579:1 7589:1 7599:1 7627:3 7707:1 7750:1 7758:1 7759:1 7772:1 7785:1 7817:3 7878:2 7879:1 7891:3 7901:2 7957:1 8022:1 8035:2 8054:1 8063:1 8111:1 8117:2 8137:1 8190:2 8194:1 8218:1 8305:2 8315:1 8320:1 8333:2 8451:1 8491:1 8543:1 8564:1 8584:1 8779:5 8819:1 8899:1 8903:1 8930:1 8937:1 8951:1 8953:1 8964:1 8977:1 9018:1 9019:2 9112:1 9120:1 9142:3 9170:2 9299:1 9338:1 9442:1 9444:1 9447:1 9451:2 9482:1 9538:1 9579:1 9627:3 9650:1 9664:1 9774:1 9920:1 9924:1 10012:2 10029:5 10049:2 10114:1 10126:1 10140:2 10164:1 10176:1 10264:3 10274:1 10280:1 10315:1 10319:2 10352:2 10438:1 10460:1 10472:2 10473:1 10480:1 10481:2 10522:1 10570:1 10583:2 10607:1 10626:1 10636:1 10638:1 10782:1 10796:3 10804:1 10807:2 10841:1 10872:1 10873:2 10875:5 10946:1 10971:1 11010:2 11050:1 11070:1 11132:4 11137:1 11182:4 11193:1 11208:2 11215:6 11216:1 11246:1 11256:1 11267:2 11273:1 11350:1 11359:2 11383:2 11429:1 11453:1 11456:1 11501:3 11505:1 11592:1 11613:1 11616:1 11618:4 11620:3 11633:2 11644:1 11650:1 11664:1 11694:7 11751:3 11761:1 11781:1 11797:1 11811:2 11822:1 11875:1 11907:1 11919:1 11940:1 11978:4 11993:5 11995:1 12164:2 12176:1 12273:1 12320:1 12328:2 12340:2 12380:5 12462:1 12482:1 12499:1 12525:1 12569:2 12597:2 12642:2 12684:1 12690:1 12729:1 12754:2 12792:2 12797:3 12801:1 12868:3 12918:1 12986:4 12988:1 13024:1 13063:1 13148:1 13159:2 13160:1 13185:1 13203:2 13234:1 13317:2 13376:1 13396:2 13422:1 13436:1 13478:1 13505:1 13830:1 13859:1 13895:1 13919:1 13936:1 13944:2 14036:1 14089:1 14136:17 14170:1 14283:1 14300:1 14363:1 14453:1 14457:1 14512:1 14517:1 14565:1 14582:6 14649:1 14657:6 14728:12 14763:1 14774:2 14789:1 14812:1 14862:3 14956:2 14961:1 15002:6 15080:2 15082:1 15143:1 15182:1 15204:1 15224:1 15275:2 15299:2 15309:1 15327:1 15336:7 15338:2 15345:1 15358:2 15361:1 15378:1 15393:3 15420:1 15429:1 15442:1 15521:3 15591:6 15595:2 15610:2 15630:3 15637:6 15686:1 15705:1 15817:1 15888:1 15936:1 15963:1 15965:1 15976:1 15984:1 16040:2 16088:1 16091:2 16127:4 16149:1 16172:1 16188:2 16223:2 16241:7 16273:1 16310:2 16588:1 16612:1 16616:1 16622:20 16625:1 16635:34 16655:1 16679:6 16700:1 16714:1 16733:3 16735:1 16756:1 16848:1 16849:1 16905:1 16928:4 16952:1 16958:5 16967:1 17018:1 17027:1 17056:1 17060:1 17127:2 17150:3 17160:1 17184:2 17204:4 17209:2 17228:1 17230:1 17244:1 17267:1 17280:1 17283:1 17343:10 17350:1 17354:2 17367:1 17395:1 17398:1 17438:1 17444:7 17468:2 17472:3 17538:2 17555:1 17571:3 17588:1 17605:1 17636:1 17701:2 17753:1 17754:1 17822:2 17881:3 17882:2 17928:1 17946:1 17948:1 17975:1 17977:2 18011:1 18020:4 18029:1 18070:1 18072:9 18104:1 18168:2 18169:2 18171:2 18216:1 18244:2 18253:2 18370:1 18453:1 18477:1 18561:1 18585:3 18603:1 18669:1 18675:1 18740:3 18746:3 18764:8 18772:1 18824:1 18987:1 18989:2 19085:6 19104:1 19151:1 19159:7 19174:7 19182:5 19194:2 19259:1 19338:1 19364:2 19413:1 19465:2 19476:3 19480:1 19522:2 19545:1 19552:5 19571:3 19595:2 19657:1 19676:3 19701:1 19717:1 19727:1 19731:1 19744:1 19766:1 19768:1 
0.0001422300907024902 0 4.431819238202885e-005 58:1 85:2 123:1 190:1 191:1 229:1 273:4 314:1 315:1 468:1 580:1 601:1 661:3 786:1 791:1 889:1 891:1 894:1 1024:1 1037:6 1044:1 1175:1 1235:1 1495:1 1532:1 1561:2 1687:2 1766:4 1770:4 1924:1 1961:1 2171:1 2363:7 2384:1 2407:2 2437:3 2463:1 2648:5 2817:1 2850:1 2870:9 3081:1 3135:1 3197:1 3313:1 3465:1 3606:1 3611:1 3621:1 3662:1 3797:1 3842:1 3914:3 3924:2 3935:2 3964:1 4080:1 4090:1 4138:1 4145:2 4193:1 4243:1 4265:1 4378:1 4397:1 4435:1 4473:1 4593:1 4608:1 4692:1 4704:1 4746:3 4855:1 4869:1 4892:1 4917:1 5014:1 5055:1 5083:1 5154:2 5163:1 5284:1 5298:3 5409:1 5489:1 5494:1 5568:1 5760:2 5862:29 5879:1 6071:2 6078:1 6091:2 6120:1 6124:1 6146:1 6191:1 6304:6 6406:1 6509:3 6557:14 6560:1 6563:1 6613:3 6655:1 6670:1 6699:18 6759:1 6858:1 6937:1 6957:2 7039:1 7088:1 7286:1 7289:1 7313:4 7323:1 7374:4 7405:11 7462:2 7485:1 7579:2 7606:1 7630:1 7667:1 7764:1 7772:1 7878:6 7944:1 7961:1 8050:1 8104:1 8125:1 8271:1 8334:1 8364:1 8491:2 8700:1 8717:1 8915:1 8970:1 8974:1 9025:1 9137:1 9154:1 9170:2 9278:1 9338:4 9394:2 9436:2 9444:1 9445:2 9567:1 9598:1 9627:1 9649:1 9767:1 9809:1 9920:2 9968:1 10049:1 10143:1 10150:1 10236:1 10390:1 10454:1 10480:1 10636:1 10638:1 10661:1 10721:1 10757:1 10778:1 10850:1 10860:1 10892:1 11256:1 11312:2 11328:1 11435:6 11499:4 11613:3 11620:1 11634:2 11694:1 11757:1 11826:4 11893:1 12044:2 12273:1 12328:1 12471:1 12602:1 12617:2 12773:1 12811:1 12828:2 12868:3 12895:1 12896:2 12911:1 12918:2 12924:2 13025:1 13074:1 13083:1 13159:2 13203:1 13243:2 13329:1 13390:2 13572:2 13752:1 13754:4 13895:1 14007:3 14060:3 14136:5 14151:1 14204:1 14221:1 14331:2 14392:1 14397:1 14418:1 14433:1 14560:1 14582:1 14601:1 14646:1 14689:1 14728:4 14744:1 14849:1 14961:1 15002:3 15063:1 15068:6 15071:1 15166:1 15298:1 15589:1 15591:1 15637:1 15839:1 15922:1 16040:1 16108:1 16209:14 16344:1 16359:1 16368:6 16370:3 16377:1 16574:2 16597:1 16635:10 16655:1 16681:2 16700:1 16839:1 16866:1 16903:1 17165:1 17204:1 17258:3 17343:5 17348:1 17354:1 17396:1 17444:3 17493:1 17555:1 17701:1 17954:1 18072:10 18282:2 18306:1 18740:2 18746:1 18764:3 18817:1 18829:1 18848:1 19007:3 19085:2 19159:3 19174:1 19326:1 19339:2 19342:1 19529:1 19570:1 19571:1 19595:2 19684:1 19687:1 19777:1 
0.0001919065763356941 0.0002596821875902978 0 96:1 123:1 198:1 229:1 247:1 345:1 601:1 605:1 661:1 712:1 717:1 791:2 821:1 829:1 861:2 894:1 930:2 976:1 1024:9 1037:10 1040:2 1110:4 1235:4 1321:1 1338:1 1419:1 1431:1 1495:1 1496:2 1550:3 1669:1 1687:3 1770:1 1789:1 1792:1 1805:1 1961:1 2028:1 2038:1 2074:1 2211:1 2363:11 2393:1 2454:1 2475:1 2528:1 2547:1 2566:1 2648:1 2681:1 2710:3 2718:1 2764:1 2765:1 2773:2 2790:1 2817:1 2850:2 2866:1 2998:1 3060:1 3120:1 3126:1 3129:1 3135:2 3143:1 3145:1 3180:1 3313:1 3474:1 3520:1 3559:2 3580:2 3656:1 3717:1 3788:4 3914:8 4090:1 4095:1 4145:2 4297:2 4352:2 4385:1 4461:1 4632:1 4656:1 4665:1 4803:1 4889:3 5014:5 5082:2 5102:1 5163:1 5223:1 5285:1 5297:1 5298:4 5369:1 5377:2 5409:1 5412:1 5459:1 5555:1 5594:3 5665:1 5686:1 5700:10 5732:1 5760:3 5831:1 5855:1 5862:41 5872:1 5874:1 5887:1 6010:1 6066:3 6071:5 6091:1 6124:1 6233:1 6322:1 6383:1 6387:1 6395:4 6406:5 6467:1 6522:1 6557:1 6560:2 6642:1 6670:1 6699:18 6713:1 6803:1 6957:1 7039:2 7096:1 7110:5 7144:1 7263:1 7278:1 7288:1 7289:1 7303:1 7321:1 7353:1 7362:1 7405:5 7468:1 7499:1 7533:1 7667:2 7680:1 7772:1 7806:1 7847:4 7879:1 7883:2 8006:1 8066:1 8112:1 8194:1 8218:2 8244:1 8258:1 8305:1 8312:2 8350:1 8364:2 8406:1 8491:2 8533:1 8580:1 8638:1 8654:1 8897:1 8968:1 9112:1 9183:2 9197:1 9209:1 9251:1 9257:1 9263:3 9338:2 9437:1 9447:1 9448:1 9465:1 9470:1 9485:1 9627:1 9634:1 9792:1 9920:1 9933:1 9948:1 9951:2 10029:1 10114:2 10143:1 10205:1 10274:3 10319:1 10471:1 10482:1 10530:2 10607:1 10636:1 10677:1 10796:2 10852:2 10858:1 11012:1 11151:2 11215:1 11256:1 11378:1 11496:1 11506:1 11571:2 11581:1 11594:1 11596:1 11613:2 11616:1 11618:7 11625:1 11634:1 11639:1 11657:1 11694:4 11745:1 11866:2 11887:1 11893:1 11894:1 11920:1 11928:2 11934:1 11940:1 11993:1 12023:1 12036:3 12044:1 12146:1 12273:1 12361:2 12385:1 12402:1 12480:1 12525:3 12534:2 12564:2 12567:1 12569:1 12572:1 12597:1 12630:1 12690:1 12754:1 12780:1 12797:1 12813:3 12868:6 12876:3 12891:2 12963:1 12997:1 13011:2 13024:1 13046:2 13074:1 13159:1 13258:2 13329:2 13345:1 13364:1 13401:1 13410:1 13422:3 13505:1 13540:1 13704:2 13726:1 13895:1 14136:7 14168:1 14195:1 14331:1 14431:5 14580:1 14582:2 14583:1 14613:1 14646:1 14655:1 14657:1 14659:1 14691:1 14728:6 14774:1 14781:1 14910:1 14919:3 14960:1 14961:1 15002:1 15036:1 15082:1 15138:5 15143:3 15244:1 15317:2 15336:1 15399:1 15423:1 15592:1 15637:3 15703:1 15705:1 15722:1 15824:3 15831:1 15931:1 15933:2 16040:3 16052:1 16095:4 16102:2 16286:2 16387:1 16418:1 16470:1 16497:1 16573:1 16635:14 16655:1 16679:1 16680:1 16734:1 16738:1 16849:1 16928:1 16958:2 16998:1 17175:5 17305:2 17329:1 17343:2 17354:1 17444:5 17458:1 17555:1 17605:2 17715:1 17794:1 17801:2 17822:2 18016:1 18029:1 18071:1 18072:3 18092:1 18133:3 18253:1 18337:1 18360:1 18488:2 18497:1 18603:1 18636:3 18740:1 18746:4 18763:2 18764:4 18792:1 18823:1 18831:1 18849:1 18881:1 18898:2 18972:1 18987:2 19085:3 19159:3 19259:1 19348:1 19438:1 19552:2 19571:2 19595:1 19676:1 19727:2 19769:9 19788:1 
0.001074746992503686 0.000471456470766928 0.001072249179855392 123:3 178:1 303:1 362:2 535:1 565:1 598:1 601:1 610:1 755:3 759:1 793:1 889:1 930:2 1020:1 1037:6 1058:1 1098:2 1110:3 1192:1 1197:2 1218:1 1321:1 1326:1 1458:1 1482:1 1489:1 1495:1 1496:1 1532:1 1550:3 1574:1 1693:1 1739:1 1754:1 1758:1 1770:1 1926:1 1961:1 1981:2 2044:1 2087:1 2171:2 2180:1 2199:1 2249:1 2327:2 2363:1 2547:1 2648:1 2710:3 2773:3 2801:1 2850:1 2917:1 2919:1 2937:1 2967:1 3129:1 3145:1 3167:2 3218:1 3313:1 3383:1 3392:1 3465:1 3488:2 3690:1 3788:3 3845:2 3875:1 3914:11 4008:1 4017:1 4080:1 4170:1 4172:2 4374:1 4385:1 4746:1 4790:1 4889:3 4959:1 5014:4 5154:1 5163:1 5284:1 5285:1 5298:3 5335:1 5409:1 5453:1 5657:1 5700:5 5733:1 5760:3 5855:1 5862:31 5874:1 5917:2 6009:1 6066:1 6071:4 6265:1 6383:1 6387:1 6406:3 6441:1 6513:1 6557:7 6668:1 6670:1 6699:2 6855:1 6937:2 6957:1 6984:5 7015:1 7039:2 7178:1 7289:1 7342:1 7380:1 7405:2 7468:1 7489:1 7499:1 7523:1 7569:2 7629:2 7635:1 7667:1 7772:2 7878:1 7883:2 8064:2 8290:2 8390:1 8491:3 8522:1 8566:2 8595:1 9112:1 9128:1 9328:1 9447:1 9545:2 9552:1 9592:1 9627:1 9695:1 9795:1 9849:2 9920:2 9951:2 9952:1 10035:2 10037:1 10143:2 10383:1 10436:1 10454:1 10636:1 10689:1 10694:1 10769:1 10778:1 10850:1 10852:2 10868:3 10875:1 10902:1 10939:1 11015:1 11076:1 11151:1 11167:1 11287:1 11348:3 11362:5 11368:1 11506:1 11560:1 11571:2 11584:1 11616:1 11618:1 11650:1 11661:1 11682:1 11732:2 11785:1 11892:1 11893:1 11928:1 11940:2 11973:1 11993:1 12044:1 12205:1 12273:1 12329:1 12562:1 12686:1 12727:1 12798:1 12813:3 12868:2 12891:1 12906:1 12918:1 13228:1 13373:2 13396:1 13422:3 13534:1 13592:1 13600:1 13645:1 13718:1 13726:1 13728:2 13756:1 13888:1 13895:2 14089:1 14136:1 14138:1 14195:1 14232:1 14486:1 14507:1 14573:1 14582:1 14590:1 14646:1 14657:4 14679:1 14691:2 14728:2 14788:1 14845:1 14881:1 14888:1 14961:1 14967:3 15082:1 15167:3 15244:2 15256:1 15332:1 15353:1 15423:1 15440:1 15637:3 15705:1 15780:1 15839:1 16058:1 16266:1 16439:2 16461:1 16519:3 16573:2 16578:1 16614:1 16635:16 16655:1 16679:1 16738:1 16948:1 16981:1 17065:1 17115:1 17169:1 17269:1 17343:1 17354:2 17444:5 17458:1 17531:1 17544:1 17555:1 17556:2 17611:1 17670:2 17732:1 17839:3 17882:1 17959:2 18020:2 18072:4 18103:1 18173:1 18216:1 18303:1 18304:2 18457:1 18470:2 18497:1 18498:1 18514:1 18585:1 18603:3 18684:1 18710:1 18740:1 18746:1 18763:2 18764:3 18824:2 18924:1 18985:1 18988:1 18989:1 19069:2 19075:1 19085:1 19134:1 19159:2 19182:1 19262:2 19360:1 19396:2 19416:4 19422:1 19437:2 19440:1 19552:1 19564:3 19571:4 19676:1 19731:1 19736:1 19769:2 
0.0004447735484148851 0.00017084327773986 0.000303543760267267 247:1 262:1 345:1 587:1 601:1 605:2 661:2 755:1 788:2 821:2 894:2 942:1 959:2 1020:1 1024:1 1037:7 1283:1 1300:1 1370:6 1373:1 1443:3 1495:1 1655:2 1687:1 1743:1 1766:1 1789:1 1792:1 1886:1 1961:1 1985:2 2043:3 2249:1 2265:1 2311:1 2326:1 2363:6 2407:1 2592:1 2648:2 2682:4 2694:4 2696:2 2850:1 2994:1 3073:1 3087:1 3135:1 3313:2 3500:2 3544:1 3656:1 3705:1 3723:1 3744:1 3822:1 3843:9 3877:1 3914:8 4067:1 4080:2 4145:1 4170:1 4297:1 4305:1 4350:1 4358:1 4425:1 4620:1 4656:4 4699:1 4736:1 4746:4 4832:1 4934:1 5014:1 5054:3 5083:1 5154:1 5284:1 5285:1 5298:2 5385:1 5403:1 5503:1 5568:6 5571:1 5650:1 5666:1 5700:1 5741:1 5760:2 5847:1 5862:22 5874:1 6066:1 6071:5 6091:1 6115:1 6145:1 6328:1 6353:1 6406:3 6447:2 6467:1 6511:2 6557:5 6560:1 6603:1 6645:1 6665:1 6670:1 6699:5 6858:2 7043:1 7263:1 7289:1 7313:3 7384:1 7404:1 7405:27 7486:1 7536:1 7553:1 7685:1 7707:2 7745:2 7760:1 7811:1 7847:2 7878:4 8000:1 8090:1 8283:1 8290:1 8305:1 8452:2 8490:1 8491:2 8533:1 8649:1 8763:1 9056:1 9109:1 9142:1 9210:2 9354:1 9392:7 9412:1 9482:1 9498:1 9506:1 9652:1 9849:1 9920:2 10029:1 10067:1 10139:1 10169:1 10319:1 10439:1 10472:1 10548:1 10636:1 10661:1 10757:1 10759:1 10778:3 10796:1 10829:1 10878:2 10912:1 11314:1 11348:3 11359:2 11370:1 11403:1 11618:2 11694:2 11887:1 11915:1 11917:1 11993:3 12017:2 12019:2 12025:1 12044:1 12050:1 12109:1 12273:1 12283:1 12329:1 12426:1 12525:2 12705:1 12754:2 12792:1 12793:3 12868:6 12924:4 12938:1 13084:1 13159:1 13160:1 13167:1 13222:1 13254:1 13287:1 13301:1 13368:1 13390:1 13532:1 13659:1 13712:2 13830:2 13895:1 13939:3 13969:1 14116:2 14128:2 14136:6 14348:1 14385:1 14453:1 14541:1 14560:1 14657:2 14728:6 14812:1 14857:1 14881:1 14900:1 14961:1 15002:2 15036:3 15106:1 15130:1 15188:1 15244:8 15265:1 15276:1 15336:1 15591:1 15882:1 15933:1 15950:1 16040:1 16045:1 16062:1 16210:1 16225:1 16239:1 16497:1 16635:10 16743:1 16795:1 16928:1 16930:1 17018:1 17149:1 17204:2 17258:1 17354:2 17444:7 17458:1 17468:1 17555:1 17584:2 17605:2 17696:1 17704:1 17772:1 17822:1 17832:1 17850:1 17954:1 18020:1 18035:2 18057:1 18072:3 18205:1 18274:1 18418:1 18556:1 18585:1 18746:2 18764:1 18824:2 18987:1 19097:1 19159:1 19174:6 19182:4 19218:2 19277:1 19329:1 19431:1 19437:3 19490:1 19520:1 19571:7 19595:2 19622:1 19684:1 19727:2 19731:1 19769:1 
1.602769241966434e-005 0.0002678749967740818 0 27:1 54:1 123:1 229:1 295:1 491:1 568:4 601:1 661:1 717:1 725:1 726:1 730:1 748:1 758:1 759:1 821:1 889:3 894:3 959:1 960:1 968:3 1024:5 1037:4 1135:3 1278:1 1291:1 1338:1 1435:1 1469:1 1495:1 1496:1 1532:2 1678:1 1687:3 1693:1 1770:1 1792:1 1878:1 1961:1 1985:2 1996:1 2211:1 2363:7 2404:1 2448:2 2449:1 2474:2 2475:1 2547:1 2648:1 2676:2 2704:1 2773:1 2785:2 2817:3 2850:3 2870:1 2874:1 2881:1 2926:1 2978:1 2994:2 3105:1 3118:1 3145:1 3427:1 3465:10 3787:1 3914:6 4002:1 4070:1 4170:1 4187:6 4193:1 4291:1 4340:2 4385:3 4394:1 4501:1 4665:1 4666:1 4713:1 4857:1 5014:3 5151:2 5154:1 5163:1 5248:1 5285:1 5298:1 5430:1 5448:5 5460:1 5536:1 5555:1 5568:3 5569:1 5609:1 5614:1 5760:3 5862:40 6066:2 6071:1 6148:1 6231:1 6256:2 6323:2 6383:1 6406:3 6415:1 6465:2 6467:1 6522:2 6557:9 6560:1 6668:1 6670:1 6699:12 6778:1 6858:2 6876:3 6922:1 6937:1 6957:1 7110:1 7162:3 7178:1 7289:1 7292:1 7313:1 7328:1 7374:3 7405:4 7489:1 7499:2 7528:1 7574:1 7583:1 7584:2 7612:1 7678:2 7744:1 7837:3 7841:2 7878:2 7882:2 8194:2 8244:1 8339:1 8447:1 8452:2 8491:4 8548:1 8571:1 8671:2 8844:1 9056:1 9109:1 9140:1 9232:1 9251:1 9252:1 9253:2 9328:1 9413:1 9417:1 9465:1 9482:2 9485:1 9627:1 9712:1 9916:1 9917:1 9920:1 9951:1 10029:2 10136:1 10148:8 10162:1 10175:1 10202:1 10268:2 10472:1 10481:1 10490:1 10607:1 10622:1 10636:1 10677:2 10689:1 10721:1 10848:1 10875:1 10878:1 10921:1 10973:1 11014:1 11041:1 11148:1 11253:1 11314:1 11346:1 11348:10 11373:1 11383:1 11429:1 11453:1 11606:1 11618:2 11650:1 11694:2 11822:1 11959:1 11993:1 12036:3 12044:1 12070:1 12134:1 12270:3 12273:1 12361:1 12482:1 12525:1 12722:1 12754:3 12792:1 12840:1 12849:1 12868:3 12891:1 12955:1 12986:1 13103:1 13104:1 13133:1 13159:2 13167:2 13228:1 13238:1 13279:3 13390:1 13393:1 13510:1 13565:1 13597:1 13726:1 13745:1 13788:4 13830:1 13877:1 13895:1 13896:1 14066:1 14136:6 14170:2 14179:4 14284:1 14331:1 14397:3 14419:1 14421:1 14486:2 14512:2 14516:1 14562:1 14582:3 14649:2 14687:2 14691:3 14701:1 14728:6 14744:1 14812:1 14845:1 14858:3 14862:1 14881:1 14933:1 14961:1 14971:1 14983:1 15002:5 15014:1 15126:1 15138:1 15143:1 15159:1 15244:2 15267:1 15336:1 15358:1 15379:1 15411:1 15415:1 15535:1 15712:1 15735:1 16038:1 16040:1 16161:1 16191:1 16359:3 16433:1 16439:1 16493:1 16595:4 16616:1 16635:26 16655:1 16679:1 16681:1 16738:3 16791:4 16799:1 16849:1 16923:1 16924:1 16928:1 16958:4 16969:1 17018:3 17022:1 17056:1 17060:1 17071:1 17184:1 17204:6 17208:3 17315:1 17343:4 17354:1 17380:1 17444:4 17468:9 17553:2 17555:1 17573:1 17605:1 17701:1 17714:1 17816:1 18020:1 18072:3 18169:1 18207:1 18281:1 18497:1 18516:1 18550:1 18602:2 18603:6 18740:1 18746:4 18764:2 18824:1 18852:3 18881:1 18989:2 19019:1 19104:1 19126:2 19159:4 19174:6 19262:1 19422:1 19437:3 19465:1 19471:1 19552:1 19595:6 19626:3 19639:1 19663:1 19731:1 19788:1 
0.0004833459841399584 0.0005720255823314701 0.0005557906379518116 190:1 229:2 262:3 294:1 308:1 601:1 605:1 730:3 755:2 830:4 889:1 894:3 959:1 1021:1 1037:9 1050:5 1111:1 1115:1 1170:1 1269:1 1306:1 1495:1 1496:1 1527:1 1574:1 1599:1 1616:1 1687:3 1770:3 1792:1 1961:2 1985:1 2087:1 2171:2 2184:1 2270:1 2288:2 2363:1 2402:1 2454:1 2592:1 2607:1 2615:1 2648:1 2742:2 2773:1 2850:1 2907:1 3363:1 3465:2 3527:1 3673:1 3686:1 3690:1 3744:1 3842:1 3845:2 3966:1 3997:1 4011:1 4022:2 4145:2 4243:2 4355:1 4408:1 4435:1 4655:1 4656:1 4669:1 4746:2 4908:1 5014:2 5083:1 5163:1 5210:1 5213:1 5256:2 5284:6 5285:1 5312:1 5427:1 5568:1 5635:2 5657:1 5700:2 5760:2 5806:1 5862:40 5881:1 5967:1 6066:1 6071:2 6124:2 6242:1 6406:2 6424:1 6449:1 6504:1 6560:1 6570:2 6604:1 6652:1 6670:1 6699:15 6711:1 6754:1 6808:1 6979:1 7039:1 7147:1 7167:1 7190:1 7289:2 7330:1 7405:6 7722:1 7748:1 7772:1 7779:1 7811:1 7842:1 7884:1 7887:2 7921:2 7938:1 7977:1 8197:1 8305:1 8312:1 8328:1 8491:1 8548:2 8818:5 8833:1 8906:2 9197:1 9209:1 9215:1 9322:1 9645:2 9649:1 9719:1 9746:1 9920:2 9954:1 10022:1 10029:2 10038:2 10046:2 10049:3 10471:1 10505:1 10636:1 10661:1 10677:1 10713:1 10757:1 10778:3 10792:1 10850:1 10884:1 10983:1 11014:1 11082:1 11271:1 11378:1 11383:1 11386:1 11413:1 11429:2 11471:4 11485:1 11577:1 11582:2 11657:1 11694:5 11875:1 11917:1 11959:1 11993:1 12044:1 12109:1 12273:1 12283:1 12287:1 12330:2 12369:1 12379:3 12684:5 12748:1 12754:1 12798:1 12868:1 12891:1 12986:1 13087:1 13159:1 13162:1 13301:2 13520:1 13538:1 13797:1 13895:1 14028:1 14046:1 14136:5 14270:5 14323:1 14381:1 14389:3 14486:1 14512:1 14560:1 14582:1 14586:1 14657:1 14691:2 14728:2 14801:1 14961:2 15000:2 15002:6 15008:1 15258:4 15477:8 15526:1 15549:1 15590:1 15591:1 15637:1 15714:1 15931:1 16028:1 16040:1 16045:1 16126:4 16337:1 16439:1 16453:1 16496:1 16518:15 16541:1 16549:1 16631:1 16635:8 16655:1 16679:2 16850:2 17056:1 17062:1 17165:1 17186:1 17203:2 17204:1 17297:2 17343:2 17352:1 17354:2 17386:1 17444:2 17458:1 17468:1 17504:1 17553:1 17555:1 17614:1 17921:1 18020:1 18052:1 18057:1 18072:3 18173:1 18185:1 18450:1 18470:1 18487:1 18492:1 18505:1 18578:7 18603:1 18679:1 18693:1 18746:2 18764:2 18766:1 18796:2 18881:1 19085:1 19159:2 19174:1 19240:1 19303:1 19314:1 19429:1 19437:1 19506:1 19571:2 19595:2 19663:1 19684:1 19741:1 19757:2 
0.000209992732730216 4.088006909648766e-005 0.0001591194095668107 85:1 123:1 219:2 262:3 270:1 386:1 590:1 600:1 601:1 605:1 726:1 894:4 924:1 979:2 1020:2 1037:5 1235:2 1387:2 1391:1 1412:1 1428:2 1433:2 1440:3 1495:1 1635:1 1649:5 1687:4 1770:1 1789:1 1856:1 1961:2 2072:1 2171:1 2209:1 2342:1 2348:1 2360:1 2393:1 2407:2 2430:1 2437:2 2569:1 2605:1 2606:1 2676:8 2698:3 2773:2 2870:1 2877:1 2907:1 2916:2 3109:1 3134:1 3135:1 3197:1 3251:3 3393:1 3465:2 3500:1 3520:1 3683:1 3689:7 3693:2 3845:2 3914:3 3981:2 4033:1 4036:1 4080:7 4305:1 4340:1 4461:2 4487:1 4512:1 4656:1 4713:1 4746:4 4827:1 4830:1 5014:2 5083:1 5151:3 5154:1 5157:1 5210:1 5284:2 5298:1 5427:2 5568:5 5635:1 5684:1 5700:7 5758:1 5823:1 5853:1 5855:1 5862:27 6021:1 6066:1 6091:4 6121:1 6145:1 6304:4 6343:1 6406:4 6422:1 6522:1 6545:2 6548:1 6553:2 6557:12 6560:2 6580:1 6593:1 6626:1 6637:4 6670:1 6699:13 6783:2 6858:1 6876:2 6957:3 7002:1 7037:1 7054:2 7127:1 7197:1 7289:2 7313:3 7404:2 7405:9 7422:1 7779:1 7921:2 8111:1 8112:1 8200:1 8218:1 8244:1 8290:2 8305:2 8364:1 8374:1 8833:1 9114:1 9175:1 9189:1 9338:1 9374:1 9440:1 9454:2 9627:1 9868:3 9920:2 10143:1 10264:1 10319:1 10456:1 10481:2 10636:1 10638:1 10656:1 10661:1 10757:1 10796:2 10841:4 10873:1 11247:1 11256:1 11286:1 11435:4 11445:1 11453:3 11471:4 11506:1 11577:4 11618:1 11620:1 11650:1 11664:1 11694:2 11893:1 12044:1 12164:2 12247:2 12252:1 12273:1 12361:3 12609:6 12617:2 12868:4 12876:1 12896:1 12924:1 13133:1 13159:1 13167:1 13203:1 13358:2 13373:1 13518:5 13838:3 13895:1 13930:1 14007:2 14136:3 14170:1 14197:2 14296:8 14331:1 14431:9 14486:2 14582:1 14590:1 14632:1 14646:1 14657:2 14659:3 14691:1 14720:2 14728:2 14746:1 14845:1 14961:1 15002:1 15126:1 15256:1 15262:1 15369:1 15591:1 15691:6 16370:1 16459:1 16518:1 16574:1 16597:1 16635:9 16679:4 16928:1 16958:1 17018:2 17204:1 17343:2 17353:1 17354:2 17444:2 17468:1 17555:1 17701:2 17921:1 17954:1 18072:5 18152:1 18416:1 18470:1 18603:1 18740:3 18746:1 18764:2 18823:1 18925:1 18987:1 19159:4 19186:1 19239:1 19262:1 19338:1 19437:1 19480:1 19529:1 19595:2 19619:1 19684:1 19727:1 19731:5 19751:1 
0.0008695980906647772 0.0005540908071765112 0.001328187494383161 27:1 123:1 203:1 229:1 247:2 262:2 285:1 407:2 542:1 601:1 605:4 629:1 661:1 730:1 889:1 894:1 902:1 959:1 1020:3 1037:5 1429:4 1495:1 1574:1 1633:4 1670:1 1687:5 1770:1 1961:1 1997:1 2171:1 2248:1 2250:1 2329:2 2352:2 2363:5 2384:2 2393:2 2449:1 2648:1 2657:8 2698:2 2817:2 2850:2 2990:1 2994:1 3031:2 3118:1 3126:1 3145:1 3323:1 3341:1 3515:2 3539:1 3542:1 3787:1 3896:1 3914:5 3965:2 4001:2 4095:9 4133:1 4145:1 4176:1 4193:1 4291:1 4340:2 4380:3 4394:1 4457:1 4746:2 4857:1 5014:4 5163:1 5285:2 5298:3 5369:1 5430:1 5513:1 5568:3 5591:1 5686:1 5760:2 5862:15 5875:1 6341:2 6383:1 6387:1 6406:4 6467:1 6522:2 6557:6 6565:2 6670:1 6699:5 6873:1 6957:2 7039:1 7152:2 7162:1 7178:1 7253:1 7289:1 7374:1 7405:3 7489:1 7500:1 7859:1 8043:4 8132:1 8244:2 8491:2 8671:1 8774:2 9041:1 9056:2 9112:1 9140:2 9142:1 9197:1 9319:1 9447:1 9465:1 9482:1 9557:1 9627:2 9916:1 9920:1 9979:2 10046:1 10114:3 10268:1 10325:3 10481:1 10563:1 10607:1 10636:1 10708:2 10796:3 10838:2 10875:1 11041:1 11110:1 11133:1 11253:1 11314:2 11350:3 11373:1 11429:1 11491:1 11505:1 11616:1 11618:3 11634:1 11822:1 12024:2 12041:2 12134:1 12221:1 12273:1 12361:1 12398:1 12569:2 12597:1 12621:1 12797:1 12849:1 12868:1 12891:1 12918:1 12955:1 12986:1 13025:1 13167:1 13218:2 13390:1 13410:1 13527:1 13628:1 13726:1 13728:1 13788:1 13823:2 13895:1 13994:1 14136:3 14218:6 14331:1 14397:1 14512:1 14517:1 14551:1 14649:1 14691:4 14858:3 14881:1 14961:1 15014:1 15082:1 15249:1 15415:1 15423:1 15525:1 15705:1 15712:1 15735:1 15761:1 15882:1 15903:2 15959:2 16161:1 16191:1 16206:2 16374:4 16559:1 16616:1 16635:8 16655:1 16681:1 16738:1 16799:1 16913:2 16924:1 16958:1 16994:1 17036:2 17057:1 17108:1 17129:3 17204:3 17303:1 17343:1 17354:1 17380:1 17444:10 17555:1 17701:1 17816:1 17822:1 18072:4 18168:1 18212:3 18281:1 18470:1 18497:1 18603:13 18740:3 18746:2 18764:2 18879:1 18904:1 19005:1 19066:1 19104:1 19126:1 19159:3 19174:3 19406:2 19465:1 19490:2 19571:1 19595:4 19655:2 19767:2 
0 0.000449577545486612 0 27:1 56:1 214:1 247:2 262:3 285:4 407:1 463:2 568:1 601:1 605:8 661:2 690:2 730:1 772:1 778:1 934:1 959:1 1020:5 1037:10 1118:1 1244:1 1429:3 1495:1 1496:2 1633:3 1655:1 1687:1 1770:2 1777:1 1838:1 1961:1 2043:1 2171:2 2173:1 2199:1 2283:1 2352:1 2363:1 2384:1 2449:2 2550:1 2648:1 2657:5 2682:1 2698:4 2704:1 2870:1 3135:2 3145:1 3323:1 3515:1 3813:1 3839:1 3842:1 3914:2 3965:1 4070:1 4090:2 4095:1 4145:1 4146:2 4187:2 4193:1 4277:1 4291:1 4358:1 4380:1 4384:2 4394:1 4713:1 4739:1 4746:2 4857:1 5014:4 5163:1 5210:1 5218:1 5284:1 5285:3 5298:6 5395:1 5409:1 5430:1 5513:1 5862:14 6071:3 6147:1 6184:1 6360:1 6383:1 6387:1 6406:3 6557:9 6565:1 6637:1 6670:1 6699:13 6783:1 6957:1 7039:1 7184:1 7289:1 7313:2 7405:3 7406:1 7485:1 7489:2 7500:1 7553:1 7651:1 7847:1 7980:1 8000:1 8043:3 8312:1 8429:1 8491:4 8586:1 8671:1 8774:1 8833:1 8968:3 8985:1 8997:1 9056:1 9112:1 9140:2 9447:1 9482:1 9610:1 9627:1 9837:1 9879:1 9916:1 9920:1 9934:1 10012:1 10114:9 10126:1 10164:1 10319:3 10336:1 10473:1 10484:1 10563:1 10636:1 10708:4 10778:1 10796:1 10811:3 10838:1 10878:1 11021:1 11041:1 11123:1 11250:1 11253:1 11280:1 11325:1 11373:1 11383:1 11423:2 11429:1 11577:1 11601:2 11613:2 11616:1 11618:1 11644:1 11650:1 11661:1 11741:1 12019:1 12024:1 12041:1 12058:1 12134:1 12273:1 12754:2 12798:3 12849:1 12868:2 12891:1 12918:1 12924:2 12955:1 12986:1 13159:1 13167:1 13218:1 13321:1 13390:1 13422:1 13561:1 13563:1 13597:1 13726:1 13728:1 13788:1 13830:1 13895:1 13933:1 14136:6 14199:1 14331:1 14448:1 14512:1 14531:1 14551:1 14728:7 14858:3 14914:1 14961:1 15002:1 15014:1 15036:6 15082:1 15168:4 15216:1 15312:1 15345:1 15348:2 15415:1 15705:1 15712:1 15735:1 15824:1 15882:1 15895:1 15959:1 16165:1 16166:1 16191:1 16206:1 16212:1 16255:1 16269:1 16374:2 16595:1 16635:9 16655:1 16681:1 16799:1 16849:1 16913:2 16958:3 17036:2 17080:1 17204:2 17343:3 17348:1 17353:3 17354:1 17380:1 17386:1 17444:8 17459:1 17473:1 17511:1 17555:1 17605:1 17701:2 17753:1 17754:1 17816:1 18020:5 18035:2 18072:5 18143:1 18166:1 18212:2 18281:1 18316:1 18497:1 18603:11 18646:1 18710:1 18740:2 18746:4 18764:2 18925:1 18987:3 18988:1 18989:1 19085:5 19104:1 19159:1 19174:2 19182:4 19186:2 19262:1 19406:2 19452:1 19490:1 19552:1 19595:1 19624:1 19625:2 19626:1 19640:1 19655:1 19676:4 19711:2 19767:1 
1.98796592060955e-006 0 0 123:1 186:1 262:1 491:1 568:5 601:1 620:2 629:1 661:1 748:1 755:1 759:1 821:2 894:2 968:5 1024:4 1037:3 1089:2 1114:1 1278:1 1291:1 1373:1 1443:2 1495:1 1532:2 1574:1 1687:4 1714:2 1770:1 1961:1 2171:2 2363:8 2448:3 2474:2 2547:1 2648:1 2676:2 2704:2 2785:1 2790:1 2870:2 2881:1 2978:1 3057:2 3118:1 3135:1 3145:1 3309:1 3313:1 3388:1 3427:1 3456:1 3465:13 3488:1 3520:1 3544:1 3745:1 3767:1 3787:1 3909:1 3914:4 4170:1 4262:1 4385:2 4424:1 4501:1 4665:1 4746:2 4979:1 5001:1 5014:3 5090:1 5139:1 5192:1 5298:4 5401:1 5448:2 5452:1 5536:1 5555:1 5568:4 5569:1 5686:1 5760:1 5782:1 5862:27 5972:1 6066:1 6071:3 6256:1 6280:1 6323:3 6356:1 6383:1 6405:1 6406:3 6425:1 6465:1 6467:1 6522:1 6545:1 6557:12 6668:1 6670:2 6699:8 6858:1 6870:1 6876:3 7066:1 7162:3 7289:1 7313:4 7345:1 7374:3 7405:11 7407:1 7422:1 7462:2 7499:1 7500:1 7574:2 7678:2 7744:1 7837:1 7878:1 7949:1 8010:2 8112:1 8206:1 8491:3 8579:1 8671:1 9166:1 9189:1 9222:1 9232:1 9251:1 9252:1 9253:1 9338:1 9417:2 9465:2 9770:1 9914:1 9917:1 9920:1 9951:1 9960:1 10029:1 10049:1 10143:1 10148:12 10162:1 10472:3 10490:1 10563:1 10564:1 10607:6 10636:3 10638:1 10778:1 10796:2 10865:1 11132:1 11216:1 11261:1 11348:13 11429:2 11445:1 11453:1 11506:1 11618:2 11694:2 11716:2 11785:1 11822:1 11893:1 11959:3 11993:1 12036:1 12070:2 12178:1 12273:1 12328:1 12411:1 12569:1 12723:1 12754:3 12854:1 12868:1 12896:1 12924:2 13074:2 13103:1 13104:2 13159:1 13167:1 13279:3 13373:1 13504:2 13597:1 13726:1 13756:1 13820:2 13830:1 13895:1 13896:1 14136:3 14170:1 14179:4 14288:1 14294:1 14331:1 14397:3 14486:1 14512:1 14579:1 14582:1 14646:1 14649:1 14691:2 14701:4 14728:5 14744:3 14812:2 14845:1 14933:1 14961:1 14971:1 15002:2 15244:3 15267:1 15336:2 15408:1 15423:1 15601:1 15681:1 15690:1 15839:1 15882:1 15984:1 16038:1 16040:1 16222:1 16228:1 16359:1 16368:3 16439:2 16472:1 16574:1 16595:1 16616:1 16635:20 16738:4 16791:3 16811:1 16928:1 17001:1 17071:2 17073:3 17125:1 17208:4 17343:3 17354:1 17386:2 17444:4 17468:10 17472:1 17555:1 17573:1 17605:1 17891:1 18020:1 18072:10 18169:1 18281:1 18497:1 18602:1 18603:6 18740:1 18746:2 18764:2 18824:1 18881:1 18989:1 19085:3 19159:1 19174:4 19182:1 19259:2 19382:1 19422:1 19490:2 19552:1 19563:1 19571:1 19595:9 19626:4 19655:1 19661:1 19727:1 19731:1 19788:1 
0.0001241663376261815 0.0002281222228103609 4.833317801034798e-005 132:1 541:1 551:1 600:2 601:1 661:1 821:1 830:1 959:4 975:1 1037:5 1044:1 1046:1 1106:1 1166:1 1220:1 1235:2 1316:1 1435:2 1495:1 1496:1 1533:1 1574:1 1641:1 1687:2 1716:1 1765:1 1770:1 1886:1 1961:2 1985:4 2011:2 2063:1 2171:1 2186:1 2211:2 2216:1 2236:1 2249:1 2270:3 2288:2 2328:6 2363:1 2454:1 2459:1 2558:1 2592:1 2691:1 2692:2 2745:1 2758:1 2773:3 2775:1 2870:1 2931:1 2994:4 3042:1 3073:1 3117:1 3145:1 3180:1 3189:1 3223:1 3289:1 3313:1 3427:1 3465:2 3492:1 3504:1 3529:1 3556:1 3609:1 3701:1 3707:2 3737:2 3801:1 3805:1 3822:2 3894:1 3914:4 3928:1 4005:1 4032:1 4095:4 4183:1 4193:1 4217:1 4305:3 4335:1 4365:2 4385:2 4393:5 4409:1 4436:1 4475:1 4608:2 4656:1 4746:2 4754:1 4831:2 4848:1 4858:1 4889:1 4987:1 5014:4 5019:1 5106:1 5154:1 5163:1 5173:1 5210:1 5279:1 5296:6 5298:1 5331:1 5430:1 5526:1 5536:1 5570:1 5665:1 5700:7 5708:1 5744:1 5760:5 5832:1 5862:46 5873:1 6071:2 6083:1 6124:1 6241:1 6383:1 6425:1 6438:1 6482:1 6511:1 6557:5 6563:1 6644:1 6668:1 6670:1 6699:9 6719:1 6957:2 7083:3 7095:1 7180:1 7220:1 7274:5 7289:2 7405:2 7489:2 7499:1 7596:1 7635:1 7668:1 7678:1 7680:1 7727:2 7859:1 7894:1 7901:1 7918:1 7921:2 8095:1 8119:1 8137:1 8267:1 8271:1 8327:2 8450:1 8490:3 8491:3 8716:1 8833:1 8855:1 8897:2 9012:2 9015:1 9200:1 9213:6 9241:1 9405:1 9431:3 9437:1 9439:1 9444:1 9485:1 9496:1 9627:1 9649:1 9710:1 9751:1 9765:1 9920:3 10011:1 10012:1 10030:1 10046:1 10049:1 10059:1 10215:1 10319:1 10328:2 10446:2 10454:1 10471:2 10530:2 10531:1 10563:1 10601:1 10636:1 10638:2 10815:1 11000:1 11080:2 11215:1 11281:1 11292:2 11348:1 11446:1 11463:1 11471:4 11550:1 11581:1 11613:1 11634:1 11657:1 11697:1 11762:1 11788:1 11795:1 11940:1 12044:1 12050:1 12078:1 12147:1 12163:1 12195:1 12258:1 12273:1 12328:1 12473:1 12524:1 12569:1 12768:1 12796:1 12805:2 12848:1 12857:5 12868:1 12870:2 12878:1 12924:1 12942:1 12986:2 12990:1 13104:1 13159:1 13167:1 13228:1 13234:1 13238:1 13390:1 13429:4 13434:1 13526:1 13600:2 13660:1 13684:1 13726:1 13727:1 13774:1 13895:1 13921:2 13947:1 13963:1 14003:1 14012:1 14085:1 14136:1 14250:1 14292:1 14448:1 14453:1 14560:1 14582:1 14585:1 14590:1 14618:1 14657:2 14663:1 14728:6 14876:1 14883:1 14911:1 14948:1 14961:1 15028:1 15070:1 15080:1 15099:1 15116:1 15138:1 15143:1 15167:1 15231:2 15236:1 15245:2 15293:1 15406:1 15423:1 15430:12 15456:1 15477:4 15512:2 15591:2 15637:2 15655:1 15665:1 15693:1 15727:1 15922:1 15926:1 15962:1 16096:1 16367:1 16370:1 16446:9 16518:2 16599:2 16635:18 16655:1 16681:2 16738:2 16815:1 16839:1 16869:1 16875:1 16905:1 16928:1 16958:1 16967:2 16979:1 17018:1 17181:1 17204:1 17223:1 17258:1 17275:1 17312:1 17343:2 17354:3 17424:5 17458:1 17524:2 17553:1 17555:1 17556:1 17565:1 17582:1 17605:1 17698:1 17881:1 17921:1 17935:1 17954:1 18020:6 18028:1 18035:3 18057:1 18072:5 18092:1 18095:1 18100:1 18388:1 18497:1 18516:1 18542:2 18566:1 18603:4 18625:1 18740:2 18746:3 18755:1 18764:8 18765:1 18782:1 18848:1 18989:2 18995:1 19085:2 19174:2 19207:1 19262:1 19283:1 19440:1 19524:1 19552:5 19571:2 19589:1 19748:1 19769:11 
0 5.25793727312391e-005 0 125:1 190:1 285:1 601:1 605:2 629:1 631:1 661:5 730:1 768:1 821:2 830:1 889:1 894:3 924:2 930:2 979:1 1024:5 1037:8 1175:1 1274:1 1370:1 1401:1 1433:2 1440:1 1443:1 1495:1 1687:1 1770:2 1777:1 1792:1 1805:1 1926:1 1961:2 2072:2 2082:1 2171:1 2342:1 2348:1 2363:3 2384:5 2407:2 2430:1 2437:2 2528:2 2550:1 2598:2 2648:1 2676:1 2698:1 2736:1 2750:1 2773:2 2850:5 2907:1 2915:1 3135:4 3159:1 3279:1 3313:1 3465:2 3567:1 3683:1 3797:1 3812:2 3839:10 3914:3 3931:2 4019:1 4080:1 4132:1 4305:6 4350:1 4623:1 4656:1 4746:1 4841:2 5014:2 5055:3 5083:1 5157:1 5210:1 5284:1 5285:2 5298:2 5324:2 5369:1 5427:1 5628:1 5635:2 5663:1 5700:9 5760:1 5831:1 5832:1 5855:1 5862:27 5996:1 6036:2 6066:2 6071:1 6091:3 6124:3 6136:1 6146:1 6253:1 6304:4 6312:1 6341:1 6343:1 6406:4 6548:1 6557:7 6560:1 6563:1 6613:2 6669:2 6670:1 6699:19 6783:4 6937:1 6957:4 7005:2 7037:1 7039:1 7127:1 7289:2 7323:3 7334:1 7405:9 7410:1 7468:1 7489:2 7772:1 7847:1 7879:1 7918:1 7921:2 8062:2 8081:1 8090:1 8117:1 8194:1 8205:1 8218:1 8290:1 8305:1 8312:1 8334:1 8361:1 8364:1 8491:3 8570:1 8572:1 8907:1 8977:1 8995:1 9120:1 9192:1 9209:3 9259:1 9263:1 9303:1 9470:1 9648:1 9733:2 9767:1 9868:4 9920:2 10029:1 10066:2 10134:1 10143:1 10268:1 10274:5 10310:1 10436:1 10438:1 10454:2 10472:1 10481:4 10518:3 10563:1 10607:2 10618:1 10636:1 10638:1 10656:1 10661:1 10708:2 10757:1 10778:1 10796:1 10841:1 10872:1 10873:4 10935:2 10980:8 11010:1 11215:2 11314:1 11378:2 11386:1 11429:1 11435:4 11445:1 11471:4 11506:1 11618:1 11620:1 11694:2 11741:1 11822:1 11889:1 11893:1 11993:1 12036:3 12090:1 12273:1 12328:1 12487:2 12617:2 12722:2 12727:1 12792:1 12848:1 12868:3 12924:4 12986:1 13021:1 13159:1 13167:1 13176:1 13216:6 13359:5 13364:1 13432:1 13578:1 13728:1 13830:2 13838:4 13895:1 13909:1 14007:3 14136:2 14221:1 14247:1 14284:2 14296:10 14331:1 14431:3 14448:3 14507:1 14512:1 14559:1 14582:2 14632:1 14646:1 14657:10 14720:1 14728:6 14842:1 14881:1 14917:1 14961:1 15002:8 15166:1 15216:1 15336:1 15369:1 15423:1 15486:2 15581:1 15591:1 15628:1 15900:1 15959:1 16025:1 16145:1 16180:1 16446:1 16540:1 16635:12 16647:1 16648:1 16743:1 16882:1 16908:1 16930:2 16958:6 16998:1 17036:1 17056:3 17204:2 17274:1 17343:6 17354:2 17444:9 17449:3 17468:1 17472:1 17528:1 17555:1 17605:2 17701:1 17714:1 17921:1 17954:3 17977:1 18064:1 18072:3 18104:1 18133:1 18316:1 18416:1 18603:1 18740:4 18746:1 18764:5 18824:2 18989:2 19030:1 19159:2 19194:1 19239:1 19262:1 19339:1 19437:1 19465:1 19490:2 19552:2 19571:1 19595:2 19661:1 19676:1 19684:1 19731:1 19777:1 
