svm_type c_svc
kernel_type linear
nr_class 2
total_sv 140
rho 1.99149
label 1 -1
nr_sv 71 69
SV
1 1:0.25 2:0 3:0.33333333 4:0.66666667 5:0.33333333 6:0 7:1 10:0 
1 1:0.16666667 2:0.45454545 3:0.83333333 4:1 5:0.2 6:1 7:1 10:0 
1 1:0.125 2:0 3:1 4:1 5:0.28571429 6:1 7:1 10:0 
1 1:0.4 2:0 3:0.2 4:0.4 5:0.75 6:1 7:0 10:0 
1 1:0.25 2:0 3:0.5 4:0.75 5:0.66666667 6:1 7:0 10:0 
0.7127908520174587 1:0.66666667 2:0.5 3:0.2 4:0.2 5:0.18181818 6:1 7:1 10:0 
1 1:0.2 2:0 3:0.5 4:0.5 5:0.25 6:1 7:1 10:0 
1 1:0 2:0.88888889 3:0.33333333 4:0.33333333 5:0.25 6:1 7:1 10:0 
1 1:0.8 2:0 3:0.5 4:0.5 5:0.25 6:1 7:1 10:0 
1 1:0 2:0.875 3:0.2 4:0.2 5:0.28571429 6:0 7:1 10:0 
1 1:0.35294118 2:0 3:0.25 4:0.5 5:0.125 6:0 7:0 10:0 
1 1:0 2:0.875 3:0.25 4:0.5 5:0.14285714 6:0 7:1 10:0 
1 1:0.625 2:0.33333333 3:0.25 4:0.25 5:0.27272727 6:1 7:0 10:0 
1 1:0 2:0.92307692 3:0.16666667 4:0.33333333 5:0.16666667 6:0 7:0 10:0 
1 1:0 2:0.92307692 3:0.16666667 4:0.16666667 5:0.16666667 6:0 7:1 10:0 
1 1:0.88888889 2:0 3:0.66666667 4:0.66666667 5:0.125 6:1 7:0 10:0 
1 1:0 2:0.8 3:0.16666667 4:0.16666667 5:0.5 6:1 7:1 10:0 
1 1:0.8 2:0 3:1 4:1 5:0.25 6:0 7:0 10:0 
1 1:0.11111111 2:0 3:0.5 4:0.5 5:0.25 6:0 7:1 10:0 
1 1:0.125 2:0 3:0.33333333 4:0.66666667 5:0.28571429 6:1 7:1 10:0 
1 1:0 2:0.75 3:0.25 4:0.25 5:0.33333333 6:1 7:0 10:0 
0.6028621926447756 1:0 2:0.75 3:0.5 4:0.75 5:0.33333333 6:1 7:1 10:0 
1 1:0.11111111 2:0 3:0.14285714 4:0.57142857 5:0.25 6:0 7:1 10:0 
1 1:0 2:0 3:0.2 4:0.2 5:0.125 6:1 7:1 10:0 
0.07233791904720631 1:0.75 2:0 3:1 4:1 5:0.33333333 6:0 7:0 10:0 
1 1:0.33333333 2:0.625 3:0.25 4:0.25 5:0.28571429 6:1 7:1 10:0 
1 1:0.8 2:0.33333333 3:0.25 4:0.25 5:0.14285714 6:1 7:0 10:0 
1 1:0.8 2:0.33333333 3:0.25 4:0.5 5:0.14285714 6:0 7:0 10:0 
0.8360788573437344 1:0 2:0.875 3:1 4:1 5:0.14285714 6:0 7:1 10:0 
1 1:0.33333333 2:0 3:0.33333333 4:0.66666667 5:0.6 6:1 7:1 10:0 
1 1:0 2:0.85714286 3:0.45454545 4:0.63636364 5:0.16666667 6:1 7:1 10:0 
1 1:0.4 2:0 3:0.33333333 4:0.66666667 5:0.10526316 6:0 7:0 10:0 
1 1:0.125 2:0 3:1 4:1 5:0.28571429 6:1 7:0 10:0 
0.9975225223480213 1:0.88888889 2:0 3:0.5 4:1 5:0.25 6:0 7:1 10:0 
1 1:0.125 2:0 3:0.66666667 4:1 5:0.28571429 6:1 7:1 10:0 
1 1:0.2 2:0 3:0.25 4:0.75 5:0.25 6:1 7:0 10:0 
1 1:0.625 2:0.46666667 3:0.5 4:0.5 5:0.14285714 6:0 7:1 10:0 
1 1:0.71428571 2:0.46153846 3:0.2 4:0.2 5:0.16666667 6:0 7:1 10:0 
1 1:0.25 2:0 3:1 4:1 5:0.66666667 6:1 7:0 10:0 
1 1:0 2:0.85714286 3:0.25 4:0.25 5:0.16666667 6:1 7:0 10:0 
1 1:0 2:0.85714286 3:0.25 4:0.25 5:0.16666667 6:1 7:0 10:0 
1 1:0 2:0 3:0.5 4:0.5 5:0.125 6:1 7:0 10:0 
1 1:0 2:0.85714286 3:0.33333333 4:0.66666667 5:0.16666667 6:1 7:1 10:0 
1 1:0 2:0.83333333 3:0.33333333 4:0.33333333 5:0.4 6:1 7:0 10:0 
1 1:0.55555556 2:0 3:0.16666667 4:0.33333333 5:0.25 6:1 7:0 10:0 
1 1:0.8 2:0 3:0.33333333 4:0.33333333 5:0.25 6:0 7:0 10:0 
1 1:0.33333333 2:0.5 3:0.42857143 4:0.42857143 5:0.4 6:1 7:1 10:0 
0.008885975388916683 1:0.5 2:0 3:0.14285714 4:0.42857143 5:1 6:0 7:1 10:0 
1 1:0.22222222 2:0 3:0.5 4:0.5 5:0.375 6:1 7:0 10:0 
1 1:0.16666667 2:0.33333333 3:1 4:1 5:0.25 6:0 7:0 10:0 
1 1:0.25 2:0.55555556 3:0.2 4:0.2 5:0.375 6:1 7:0 10:0 
1 1:0.75 2:0.38461538 3:0.2 4:0.2 5:0.25 6:0 7:1 10:0 
1 1:0.75 2:0.38461538 3:0.2 4:0.2 5:0.25 6:0 7:1 10:0 
1 1:0.7 2:0.23076923 3:0.5 4:0.5 5:0.16666667 6:1 7:1 10:0 
1 1:0.88888889 2:0 3:0.2 4:0.6 5:0.125 6:1 7:1 10:0 
1 1:0 2:0.875 3:1 4:1 5:0.14285714 6:0 7:0 10:0 
1 1:0.77777778 2:0.4 3:0.25 4:0.25 5:0.14285714 6:1 7:1 10:0 
1 1:0.14285714 2:0 3:1 4:1 5:0.16666667 6:1 7:1 10:0 
1 1:0 2:0.75 3:0.33333333 4:0.66666667 5:0.33333333 6:1 7:1 10:0 
1 1:0.33333333 2:0 3:0.33333333 4:0.66666667 5:1 6:0 7:0 10:0 
1 1:0 2:0.875 3:0.33333333 4:0.66666667 5:0.14285714 6:1 7:0 10:0 
1 1:0 2:0.83333333 3:0.5 4:1 5:0.2 6:0 7:0 10:0 
1 1:0.85714286 2:0 3:0.25 4:0.5 5:0.5 6:0 7:1 10:0 
1 1:0.16666667 2:0.625 3:0.5 4:1 5:0.13333333 6:1 7:0 10:0 
1 1:0 2:0.875 3:0.25 4:0.25 5:0.42857143 6:1 7:0 10:0 
1 1:0.33333333 2:0 3:0.5 4:1 5:0.6 6:1 7:1 10:0 
1 1:0.33333333 2:0 3:0.5 4:0.5 5:0.6 6:0 7:1 10:0 
1 1:0.8 2:0 3:0.33333333 4:0.66666667 5:0.25 6:1 7:0 10:0 
1 1:0.6 2:0 3:0.66666667 4:0.66666667 5:0.5 6:1 7:1 10:0 
0.3341776762237962 1:0.66666667 2:0.5 3:0.2 4:0.2 5:0.18181818 6:1 7:0 10:0 
1 1:0.66666667 2:0.5 3:0.2 4:0.4 5:0.18181818 6:0 7:1 10:0 
-1 1:0 2:0.75 3:0.5 4:0.5 5:0.28571429 6:0 7:0 10:0 
-1 1:0.8 2:0 3:0.5 4:0.5 5:0.25 6:1 7:0 10:0 
-1 1:0.33333333 2:0.625 3:0.5 4:0.5 5:0.42857143 6:1 7:0 10:0 
-1 1:0.14285714 2:0.46153846 3:0.2 4:0.2 5:0.16666667 6:1 7:1 10:0 
-1 1:0.25 2:0 3:0.33333333 4:0.33333333 5:0.66666667 6:1 7:0 10:0 
-1 1:0.11111111 2:0 3:0.28571429 4:0.28571429 5:0.375 6:0 7:0 10:0 
-1 1:0 2:0.46666667 3:0.5 4:0.5 5:0.14285714 6:1 7:1 10:0 
-1 1:0.16666667 2:0 3:0.5 4:0.5 5:0.2 6:1 7:0 10:0 
-1 1:0.14285714 2:0 3:0.5 4:1 5:0.16666667 6:0 7:0 10:0 
-1 1:0 2:0.85714286 3:0.5 4:1 5:0.5 6:1 7:0 10:0 
-1 1:0.16666667 2:0 3:0.5 4:0.5 5:0.4 6:1 7:1 10:0 
-1 1:0.16666667 2:0 3:0.5 4:0.5 5:0.2 6:0 7:0 10:0 
-1 1:0.14285714 2:0 3:0.33333333 4:0.33333333 5:0.33333333 6:0 7:0 10:0 
-1 1:0.66666667 2:0.53846154 3:0.4 4:0.8 5:0.16666667 6:0 7:1 10:0 
-1 1:0.35294118 2:0 3:0.25 4:0.5 5:0.125 6:0 7:0 10:0 
-1 1:0.25 2:0 3:0.5 4:0.5 5:0.33333333 6:1 7:1 10:0 
-1 1:0.16666667 2:0 3:0.5 4:0.5 5:0.4 6:1 7:1 10:0 
-1 1:0.625 2:0.33333333 3:0.25 4:0.25 5:0.27272727 6:1 7:1 10:0 
-1 1:0 2:0.83333333 3:0.5 4:1 5:0 6:1 7:0 10:0 
-1 1:0.5 2:0 3:0.5 4:0.5 5:1 6:1 7:1 10:0 
-1 1:0.15384615 2:0 3:0.5 4:0.5 5:0.16666667 6:0 7:1 10:0 
-1 1:0 2:0.92307692 3:0.33333333 4:0.33333333 5:0.16666667 6:1 7:1 10:0 
-1 1:0.14285714 2:0 3:0.33333333 4:0.33333333 5:0.33333333 6:0 7:1 10:0 
-1 1:0 2:0.8 3:0.66666667 4:0.83333333 5:0.5 6:1 7:1 10:0 
-1 1:0.25 2:0 3:0.33333333 4:0.33333333 5:0.66666667 6:1 7:0 10:0 
-1 1:0 2:0 3:0.090909091 4:0.63636364 5:0.2 6:1 7:1 10:0 
-1 1:0.66666667 2:0.5 3:0.4 4:0.8 5:0.18181818 6:1 7:1 10:0 
-1 1:0 2:0.85714286 3:0.2 4:0.8 5:0.16666667 6:1 7:1 10:0 
-1 1:0.2 2:0 3:0.25 4:0.25 5:0.25 6:1 7:1 10:0 
-1 1:0.83333333 2:0 3:0.5 4:0.5 5:0.2 6:0 7:1 10:0 
-1 1:0.33333333 2:0 3:0.2 4:0.2 5:0.4 6:1 7:1 10:0 
-1 1:0.16666667 2:0 3:0.25 4:0.5 5:0.2 6:0 7:0 10:0 
-1 1:0.71428571 2:0.58823529 3:0.66666667 4:0.66666667 5:0.1875 6:1 7:1 10:0 
-1 1:0.71428571 2:0.58823529 3:0.66666667 4:0.66666667 5:0.1875 6:1 7:1 10:0 
-1 1:0 2:0 3:1 4:1 5:0 6:0 7:0 10:0 
-1 1:0.4 2:0.5 3:0.5 4:0.5 5:0.33333333 6:1 7:0 10:0 
-0.4072825036077586 1:0 2:0.83333333 3:0.5 4:0.5 5:0 6:1 7:0 10:1 
-1 1:0 2:1.2 3:0.33333333 4:0.33333333 5:0 6:1 7:0 10:0 
-1 1:0.4 2:0 3:0.16666667 4:0.16666667 5:0.5 6:0 7:0 10:0 
-1 1:0.28571429 2:0 3:0.16666667 4:0.33333333 5:0.33333333 6:0 7:1 10:0 
-1 1:0.66666667 2:0.66666667 3:0.16666667 4:0.33333333 5:0.375 6:0 7:1 10:0 
-1 1:0.14285714 2:0 3:0.14285714 4:0.57142857 5:0.16666667 6:0 7:1 10:0 
-1 1:0.125 2:0 3:0.14285714 4:0.42857143 5:0.28571429 6:1 7:1 10:0 
-1 1:0.071428571 2:0 3:1 4:1 5:0.076923077 6:0 7:1 10:0 
-1 1:0.11111111 2:0 3:0.5 4:0.5 5:0.25 6:1 7:1 10:0 
-1 1:0.7 2:0.23076923 3:0.16666667 4:0.33333333 5:0.16666667 6:0 7:1 10:0 
-1 1:0.71428571 2:0.5 3:0.25 4:0.5 5:0.23076923 6:0 7:1 10:0 
-1 1:0.85714286 2:0.44 3:0.33333333 4:0.33333333 5:0.125 6:1 7:0 10:0 
-1 1:0.5 2:0.71428571 3:1 4:1 5:0.5 6:1 7:1 10:0 
-1 1:0.33333333 2:0.625 3:0.33333333 4:1 5:0.28571429 6:0 7:0 10:0 
-1 1:0.125 2:0 3:0.33333333 4:0.33333333 5:0.28571429 6:1 7:0 10:0 
-1 1:0.71428571 2:0.53333333 3:0.2 4:0.2 5:0.21428571 6:1 7:1 10:0 
-1 1:0 2:0.85714286 3:0.6 4:1 5:0.16666667 6:1 7:1 10:0 
-1 1:0.11111111 2:0 3:0.2 4:1 5:0.125 6:0 7:1 10:0 
-1 1:0 2:1 3:0.33333333 4:0.33333333 5:0 6:0 7:0 10:0 
-1 1:0.29411765 2:0 3:0.33333333 4:0.33333333 5:0.0625 6:0 7:0 10:0 
-1 1:0.083333333 2:0 3:1 4:1 5:0.18181818 6:0 7:0 10:0 
-1 1:0.11111111 2:0.66666667 3:1 4:1 5:0.25 6:1 7:0 10:0 
-1 1:0.14285714 2:0 3:0.5 4:1 5:0.33333333 6:1 7:1 10:0 
-1 1:0.25 2:0.75 3:0.33333333 4:0.33333333 5:0.28571429 6:1 7:0 10:0 
-1 1:0.5 2:0.5 3:0.33333333 4:0.33333333 5:0.090909091 6:1 7:0 10:0 
-1 1:0.66666667 2:0.625 3:0.5 4:0.5 5:0.42857143 6:0 7:1 10:0 
-1 1:0 2:1 3:0.33333333 4:0.33333333 5:0 6:1 7:0 10:1 
-1 1:0.75 2:0.42857143 3:0.25 4:0.25 5:0.15384615 6:1 7:0 10:0 
-0.1573734914061518 1:0.16666667 2:0 3:0.33333333 4:0.33333333 5:0.2 6:0 7:1 10:0 
-1 1:0.1 2:0 3:0.33333333 4:0.66666667 5:0.11111111 6:1 7:1 10:0 
-1 1:0.25 2:0 3:0.33333333 4:0.66666667 5:0.66666667 6:1 7:1 10:0 
-1 1:0.71428571 2:0.46153846 3:0.6 4:0.6 5:0.16666667 6:1 7:1 10:0 
-1 1:0.8 2:0 3:0.33333333 4:0.33333333 5:0.25 6:1 7:0 10:0 
