SVM-light Version V6.02
0 # kernel type
3 # kernel parameter -d 
1 # kernel parameter -g 
1 # kernel parameter -s 
1 # kernel parameter -r 
empty# kernel parameter -u 
12 # highest feature index 
522 # number of training documents 
131 # number of support vectors plus 1 
2.1700907 # threshold b, each following line is a SV (starting with alpha*y)
-0.42796203415075989573423953515885 1:0.125 2:0 3:0.33333334 4:0.33333334 5:0.2857143 6:1 7:0 8:0 9:0 10:0 11:0 12:0 # [corinna cortes] [tickets@mlconf.com] [0.333333, 0.333333] [1, 0] [0.000000, 0.000000]
-0.42796203415075989573423953515885 1:0 2:1 3:0.33333334 4:0.33333334 5:0 6:1 7:0 8:0 9:0 10:0.22222222 11:1 12:0 # [detlef weigel] [email@weigelworld.org] [0.333333, 0.333333] [1, 0] [0.000000, 0.222222]
-0.42796203415075989573423953515885 1:0 2:0.92307693 3:0.33333334 4:0.33333334 5:0.16666667 6:1 7:1 8:0 9:0 10:0 11:0 12:0 # [antonio lanzavecchia] [lanzavecchia@irb.unisi.ch] [0.333333, 0.333333] [1, 1] [0.000000, 0.000000]
-0.42796203415075989573423953515885 1:0 2:0.875 3:0.25 4:0.25 5:0.2857143 6:1 7:1 8:1 9:0 10:0.75 11:0 12:0 # [elisa bertino] [bertino@cerias.purdue.edu] [0.250000, 0.250000] [1, 1] [0.000000, 0.750000]
-0.42796203415075989573423953515885 1:0 2:0.875 3:0.25 4:0.25 5:0.2857143 6:1 7:1 8:1 9:0.25 10:0.25 11:0 12:0 # [elisa bertino] [bertino@purdue.edu] [0.250000, 0.250000] [1, 1] [0.250000, 0.250000]
0.42796203415075989573423953515885 1:0.75 2:0.38461539 3:0.2 4:0.2 5:0.25 6:0 7:1 8:0 9:0 10:0 11:0 12:0 # [cheryl a evans] [cheryl.evans@montville.net] [0.200000, 0.200000] [0, 1] [0.000000, 0.000000]
0.42796203415075989573423953515885 1:0.125 2:0 3:0.2 4:0.2 5:0.2857143 6:1 7:0 8:0 9:0 10:0 11:0 12:0 # [david e goldberg] [dgold11@pitt.edu] [0.200000, 0.200000] [1, 0] [0.000000, 0.000000]
0.42796203415075989573423953515885 1:0 2:0 3:0.5 4:0.5 5:0.125 6:1 7:0 8:0 9:0 10:0 11:0 12:0 # [bruce gillespie] [gillespi@zoology.ubc.ca] [0.500000, 0.500000] [1, 0] [0.000000, 0.000000]
0.42796203415075989573423953515885 1:0.25 2:0 3:0.33333334 4:0.33333334 5:0.66666669 6:1 7:0 8:1 9:0 10:0 11:0 12:0 # [albertlaszlo barabasi] [alb@nd.edu] [0.333333, 0.333333] [1, 0] [0.000000, 0.000000]
0.42796203415075989573423953515885 1:0.2 2:0 3:0.25 4:0.75 5:0.25 6:1 7:0 8:0 9:0.5 10:0.5 11:0 12:0 # [bradley efron] [brad@stat.stanford.edu] [0.250000, 0.750000] [1, 0] [0.500000, 0.500000]
-0.42796203415075989573423953515885 1:0.083333336 2:0 3:1 4:1 5:0.18181819 6:0 7:0 8:0 9:0 10:0 11:0 12:0 # [deanna church] [lynn.duncan@ucsf.edu] [1.000000, 1.000000] [0, 0] [0.000000, 0.000000]
0.11367606146800707245247963328438 1:0.25 2:0 3:1 4:1 5:0.66666669 6:1 7:0 8:0 9:0 10:0 11:0 12:0 # [bruce birren] [bwb@genome.wi.mit.edu] [1.000000, 1.000000] [1, 0] [0.000000, 0.000000]
-0.42796203415075989573423953515885 1:0.40000001 2:0 3:0.16666667 4:0.16666667 5:0.5 6:0 7:0 8:0 9:0 10:0 11:0 12:0 # [chad a mirkin] [jacs@chem.psu.edu] [0.166667, 0.166667] [0, 0] [0.000000, 0.000000]
-0.42796203415075989573423953515885 1:0.25 2:0 3:0.11111111 4:0.22222222 5:0.2857143 6:0 7:0 8:0 9:0 10:0 11:0 12:0 # [david e culler] [derenzo@eecs.berkeley.edu] [0.111111, 0.222222] [0, 0] [0.000000, 0.000000]
-0.42796203415075989573423953515885 1:0.5 2:0.66666669 3:1 4:1 5:0.40000001 6:1 7:0 8:0 9:0.06666667 10:0.06666667 11:0 12:0 # [david kulp] [dkulp@cs.umass] [1.000000, 1.000000] [1, 0] [0.066667, 0.066667]
0.42796203415075989573423953515885 1:0 2:0.92307693 3:0.16666667 4:0.16666667 5:0.16666667 6:0 7:1 8:0 9:0 10:0 11:0 12:0 # [antonio lanzavecchia] [lanzavecchia@micro.biol.ethz.ch] [0.166667, 0.166667] [0, 1] [0.000000, 0.000000]
0.42796203415075989573423953515885 1:0 2:0 3:1 4:1 5:0 6:1 7:0 8:0 9:0 10:0.090909094 11:0 12:0 # [danielle thierrymieg] [mieg@ncbi.nlm.nih.gov] [1.000000, 1.000000] [1, 0] [0.000000, 0.090909]
-0.42796203415075989573423953515885 1:0 2:0 3:1 4:1 5:0 6:1 7:1 8:0 9:0 10:0 11:0 12:0 # [david b johnson] [investorservices@aspiritynotes.com] [1.000000, 1.000000] [1, 1] [0.000000, 0.000000]
0.42796203415075989573423953515885 1:0 2:0.92307693 3:0.16666667 4:0.33333334 5:0.16666667 6:0 7:0 8:0 9:0 10:0 11:0 12:0 # [antonio lanzavecchia] [lanzavecchia@irb.usi.ch] [0.166667, 0.333333] [0, 0] [0.000000, 0.000000]
-0.42796203415075989573423953515885 1:0 2:0.875 3:0.25 4:0.25 5:0.2857143 6:0 7:0 8:0 9:0 10:0 11:0 12:0 # [elisa bertino] [bertino@dico.unimi.it] [0.250000, 0.250000] [0, 0] [0.000000, 0.000000]
-0.42796203415075989573423953515885 1:0 2:0 3:0.090909094 4:0.63636363 5:0.2 6:1 7:1 8:0 9:0 10:0 11:0 12:0 # [bart selman] [shirk@cs.cornell.edu] [0.090909, 0.636364] [1, 1] [0.000000, 0.000000]
-0.42796203415075989573423953515885 1:0.1 2:0 3:0.33333334 4:0.66666669 5:0.11111111 6:1 7:1 8:0 9:0.2 10:0.60000002 11:0 12:0 # [donald a norman] [webmaster@jnd.org] [0.333333, 0.666667] [1, 1] [0.200000, 0.600000]
0.42796203415075989573423953515885 1:0 2:0.85714287 3:0.25 4:0.25 5:0.16666667 6:1 7:0 8:0 9:0 10:0 11:0 12:0 # [bruce fischl] [fischl@csail.mit.edu] [0.250000, 0.250000] [1, 0] [0.000000, 0.000000]
-0.42796203415075989573423953515885 1:0.85714287 2:0.44 3:0.33333334 4:0.33333334 5:0.125 6:1 7:0 8:0 9:0 10:0 11:0 12:0 # [christine van broeckhoven] [christine.vanbroeckhoven@molgen.vib-ua.bethis] [0.333333, 0.333333] [1, 0] [0.000000, 0.000000]
0.42796203415075989573423953515885 1:0 2:0 3:0.2 4:0.2 5:0.125 6:1 7:1 8:1 9:0.5 10:0 11:0 12:0 # [auke tellegen] [telle001@umn.edu] [0.200000, 0.200000] [1, 1] [0.500000, 0.000000]
-0.42796203415075989573423953515885 1:0.16666667 2:0 3:0.5 4:0.5 5:0.40000001 6:1 7:1 8:1 9:0.42857143 10:0.14285715 11:0 12:0 # [andrew g clark] [ac347@cornell.edu] [0.500000, 0.500000] [1, 1] [0.428571, 0.142857]
0.42796203415075989573423953515885 1:0.75 2:0.38461539 3:0.2 4:0.2 5:0.25 6:0 7:1 8:0 9:0 10:0 11:0 12:0 # [cheryl a evans] [cheryl.evans@hamptonu.edu] [0.200000, 0.200000] [0, 1] [0.000000, 0.000000]
-0.42796203415075989573423953515885 1:0 2:0 3:1 4:1 5:0 6:0 7:0 8:0 9:0.125 10:0.125 11:0 12:0 # [carl w cotman] [julie.parsons@cdph.ca.gov] [1.000000, 1.000000] [0, 0] [0.125000, 0.125000]
0.42796203415075989573423953515885 1:0 2:0.80000001 3:0.16666667 4:0.16666667 5:0.5 6:1 7:1 8:0 9:0 10:0.30000001 11:0 12:0 # [arthur w toga] [toga@loni.usc.edu] [0.166667, 0.166667] [1, 1] [0.000000, 0.300000]
-0.42796203415075989573423953515885 1:0.14285715 2:0.46153846 3:0.2 4:0.2 5:0.16666667 6:1 7:1 8:0 9:0 10:0 11:0 12:0 # [alan j heeger] [david.heeger@nyu.edu] [0.200000, 0.200000] [1, 1] [0.000000, 0.000000]
-0.42796203415075989573423953515885 1:0.25 2:0.75 3:0.33333334 4:0.33333334 5:0.2857143 6:1 7:0 8:0 9:0 10:0 11:0 12:0 # [dennis a benson] [jahrndt@benson.k12.mn.us] [0.333333, 0.333333] [1, 0] [0.000000, 0.000000]
0.42796203415075989573423953515885 1:0 2:0 3:1 4:1 5:0.125 6:0 7:1 8:0 9:0.1 10:0.1 11:0 12:0 # [david heckerman] [heckerma@microsoft.com] [1.000000, 1.000000] [0, 1] [0.100000, 0.100000]
-0.42796203415075989573423953515885 1:0.071428575 2:0 3:1 4:1 5:0.07692308 6:0 7:1 8:0 9:0 10:0 11:0 12:0 # [charles e perkins] [erik.nordmark@eng.sun.com] [1.000000, 1.000000] [0, 1] [0.000000, 0.000000]
0.025106655348955481121819843792764 1:0.33333334 2:0.72727275 3:0.2 4:0.2 5:0.30000001 6:1 7:0 8:0 9:0 10:0 11:0 12:0 # [craig a anderson] [c.anderson@rgu.ac.uk] [0.200000, 0.200000] [1, 0] [0.000000, 0.000000]
-0.42796203415075989573423953515885 1:0.75 2:0.42857143 3:0.33333334 4:0.33333334 5:0.15384616 6:0 7:0 8:0 9:0 10:0.1 11:0 12:0 # [daniel tranel] [daniel-tranel@uiowa.com] [0.333333, 0.333333] [0, 0] [0.000000, 0.100000]
0.42796203415075989573423953515885 1:0.14285715 2:0 3:1 4:1 5:0.16666667 6:1 7:1 8:1 9:0.2 10:0.2 11:0 12:0 # [desmond g higgins] [ei.dcu@sniggih.sed] [1.000000, 1.000000] [1, 1] [0.200000, 0.200000]
-0.42796203415075989573423953515885 1:0.33333334 2:0 3:0.2 4:0.2 5:0.40000001 6:1 7:1 8:1 9:0 10:0 11:0 12:0 # [bruce a j ponder] [jam43@cam.ac.uk] [0.200000, 0.200000] [1, 1] [0.000000, 0.000000]
0.42796203415075989573423953515885 1:0.33333334 2:0.625 3:0.25 4:0.25 5:0.2857143 6:1 7:1 8:0 9:0 10:0 11:0 12:0 # [avshalom caspi] [a.caspi@iop.kcl.ac.uk] [0.250000, 0.250000] [1, 1] [0.000000, 0.000000]
-0.42796203415075989573423953515885 1:0.11111111 2:0.66666669 3:1 4:1 5:0.25 6:1 7:0 8:0 9:0 10:0 11:0 12:0 # [deanna m church] [dbullock@fredcchurch.com] [1.000000, 1.000000] [1, 0] [0.000000, 0.000000]
0.42796203415075989573423953515885 1:0.11111111 2:0 3:0.14285715 4:0.5714286 5:0.25 6:0 7:1 8:0 9:0 10:0 11:0 12:0 # [asif t chinwalla] [achinwal@wustl.edu] [0.142857, 0.571429] [0, 1] [0.000000, 0.000000]
0.42796203415075989573423953515885 1:0 2:0.83333331 3:0.33333334 4:0.33333334 5:0.40000001 6:1 7:0 8:0 9:0 10:0 11:0 12:0 # [carol s dweck] [dweck@stanford.edu] [0.333333, 0.333333] [1, 0] [0.000000, 0.000000]
-0.42796203415075989573423953515885 1:0.2857143 2:0 3:0.16666667 4:0.33333334 5:0.33333334 6:0 7:1 8:0 9:0 10:0 11:0 12:0 # [chad a mirkin] [schatz@chem.northwestern.edu] [0.166667, 0.333333] [0, 1] [0.000000, 0.000000]
0.42796203415075989573423953515885 1:0.125 2:0 3:1 4:1 5:0.2857143 6:1 7:0 8:1 9:0.14285715 10:0.14285715 11:0 12:0 # [bert vogelstein] [vogelbe@welch.jhu.edu] [1.000000, 1.000000] [1, 0] [0.142857, 0.142857]
-0.13586681598451028074592272787413 1:0 2:0 3:0.5 4:0.5 5:0 6:1 7:0 8:1 9:0.40000001 10:0.40000001 11:0 12:0 # [baruch fischhoff] [rl1y@andrew.cmu.edu] [0.500000, 0.500000] [1, 0] [0.400000, 0.400000]
0.42796203415075989573423953515885 1:0 2:0.875 3:0.2 4:0.2 5:0.2857143 6:0 7:1 8:0 9:0 10:0 11:0 12:0 # [amos bairoch] [bairoch@cmu.unige.ch] [0.200000, 0.200000] [0, 1] [0.000000, 0.000000]
-0.42796203415075989573423953515885 1:0 2:0.61538464 3:0.2 4:0.2 5:0 6:0 7:1 8:0 9:0 10:0 11:0 12:0 # [david e goldberg] [consultation@www.meetwithdavegoldberg.com] [0.200000, 0.200000] [0, 1] [0.000000, 0.000000]
0.42796203415075989573423953515885 1:0.55555558 2:0 3:0.16666667 4:0.33333334 5:0.25 6:1 7:0 8:0 9:0 10:0 11:0 12:0 # [chad a mirkin] [chadnano@northwestern.edu] [0.166667, 0.333333] [1, 0] [0.000000, 0.000000]
-0.42796203415075989573423953515885 1:0.33333334 2:0.625 3:0.5 4:0.5 5:0.42857143 6:1 7:0 8:0 9:0 10:0 11:0 12:0 # [alan c evans] [jcevans@ups.edu] [0.500000, 0.500000] [1, 0] [0.000000, 0.000000]
-0.42796203415075989573423953515885 1:0.80000001 2:0 3:0.5 4:0.5 5:0.25 6:1 7:0 8:1 9:0.125 10:0 11:0 12:0 # [alan c evans] [alan@bic.mni.mcgill.ca] [0.500000, 0.500000] [1, 0] [0.125000, 0.000000]
-0.42796203415075989573423953515885 1:0 2:0.83333331 3:0.5 4:1 5:0 6:1 7:0 8:0 9:0 10:0 11:0 12:0 # [anoop gupta] [query@dranoopgupta.com] [0.500000, 1.000000] [1, 0] [0.000000, 0.000000]
0.42796203415075989573423953515885 1:0.11111111 2:0 3:0.5 4:0.5 5:0.25 6:0 7:1 8:1 9:0 10:0 11:0 12:0 # [asao fujiyama] [afujiyam@nii.ac.jp] [0.500000, 0.500000] [0, 1] [0.000000, 0.000000]
0.42796203415075989573423953515885 1:0 2:0.83333331 3:0.2 4:0.2 5:0.40000001 6:0 7:1 8:0 9:0 10:0.25 11:0 12:0 # [daniel h huson] [huson@informatik.uni-tuebingen.de] [0.200000, 0.200000] [0, 1] [0.000000, 0.250000]
0.42796203415075989573423953515885 1:0 2:0.875 3:0.25 4:0.5 5:0.14285715 6:0 7:1 8:0 9:0 10:0 11:0 12:0 # [andrew g rinzler] [rinzler@phys.ufl.edu] [0.250000, 0.500000] [0, 1] [0.000000, 0.000000]
0.42796203415075989573423953515885 1:0.25 2:0 3:0.33333334 4:0.66666669 5:0.33333334 6:0 7:1 8:1 9:0 10:0.22222222 11:0 12:0 # [abraham z snyder] [avi@npg.wustl.edu] [0.333333, 0.666667] [0, 1] [0.000000, 0.222222]
-0.42796203415075989573423953515885 1:0 2:0 3:0.14285715 4:0.5714286 5:0.25 6:0 7:1 8:1 9:0.083333336 10:0 11:0 12:0 # [changgong liu] [liq3@umdnj.edu] [0.142857, 0.571429] [0, 1] [0.083333, 0.000000]
0.42796203415075989573423953515885 1:0.8888889 2:0 3:0.66666669 4:0.66666669 5:0.125 6:1 7:0 8:0 9:0 10:0 11:0 12:0 # [aravinda chakravarti] [aravinda@jhmi.edu] [0.666667, 0.666667] [1, 0] [0.000000, 0.000000]
-0.42796203415075989573423953515885 1:0.15384616 2:0 3:0.5 4:0.5 5:0.16666667 6:0 7:1 8:0 9:0 10:0.33333334 11:0 12:0 # [anthony d joseph] [stratahadoop@oreilly.com] [0.500000, 0.500000] [0, 1] [0.000000, 0.333333]
-0.42796203415075989573423953515885 1:0.14285715 2:0 3:0.33333334 4:0.33333334 5:0.33333334 6:0 7:1 8:0 9:0 10:0.33333334 11:0 12:0 # [arian f a smit] [kojima@girinst.org] [0.333333, 0.333333] [0, 1] [0.000000, 0.333333]
-0.42796203415075989573423953515885 1:0.11111111 2:0 3:0.2 4:1 5:0.125 6:0 7:1 8:0 9:0.1 10:0 11:0 12:0 # [craig j hawker] [director@mrl.ucsb.edu] [0.200000, 1.000000] [0, 1] [0.100000, 0.000000]
-0.42796203415075989573423953515885 1:0.16666667 2:0 3:0.33333334 4:0.33333334 5:0.2 6:0 7:1 8:0 9:0 10:0 11:0 12:0 # [dieter fox] [denis@robotics.usc.edu] [0.333333, 0.333333] [0, 1] [0.000000, 0.000000]
0.42796203415075989573423953515885 1:0.22222222 2:0 3:0.5 4:0.5 5:0.375 6:1 7:0 8:1 9:0.18181819 10:0 11:0 12:0 # [charles r johnson] [crjohnso@math.wm.edu] [0.500000, 0.500000] [1, 0] [0.181818, 0.000000]
0.42796203415075989573423953515885 1:0 2:0.875 3:0.33333334 4:0.66666669 5:0.14285715 6:1 7:0 8:0 9:0.16666667 10:0 11:0 12:0 # [don towsley] [towsley@cs.umass.edu] [0.333333, 0.666667] [1, 0] [0.166667, 0.000000]
0.42796203415075989573423953515885 1:0.80000001 2:0 3:0.33333334 4:0.33333334 5:0.25 6:1 7:0 8:1 9:0 10:0 11:0 12:0 # [eibe frank] [eibe@waikato.ac.nz] [0.333333, 0.333333] [1, 0] [0.000000, 0.000000]
-0.42796203415075989573423953515885 1:0.16666667 2:0 3:0.5 4:0.5 5:0.2 6:1 7:0 8:1 9:0.16666667 10:0.33333334 11:0 12:0 # [alex pentland] [sandy@media.mit] [0.500000, 0.500000] [1, 0] [0.166667, 0.333333]
0.42796203415075989573423953515885 1:0.16666667 2:0.625 3:0.5 4:1 5:0.13333334 6:1 7:0 8:0 9:0 10:0.40000001 11:0 12:0 # [douglas c montgomery] [doug.montgomery@asu.edu] [0.500000, 1.000000] [1, 0] [0.000000, 0.400000]
-0.42796203415075989573423953515885 1:0 2:0.83333331 3:0.5 4:0.5 5:0 6:1 7:0 8:1 9:0.125 10:0 11:1 12:0 # [carlos s frenk] [email@c.s.frenk] [0.500000, 0.500000] [1, 0] [0.125000, 0.000000]
-0.42796203415075989573423953515885 1:0.14285715 2:0 3:0.5 4:1 5:0.16666667 6:0 7:0 8:1 9:0 10:0 11:0 12:0 # [alexander s szalay] [bagger@jhu.edu] [0.500000, 1.000000] [0, 0] [0.000000, 0.000000]
0.42796203415075989573423953515885 1:0 2:0.75 3:0.25 4:0.25 5:0.33333334 6:1 7:0 8:0 9:0 10:0 11:0 12:0 # [ashoke sen] [sen@hri.res.in] [0.250000, 0.250000] [1, 0] [0.000000, 0.000000]
0.42796203415075989573423953515885 1:0.33333334 2:0 3:0.5 4:0.5 5:0.60000002 6:0 7:1 8:0 9:0 10:0 11:0 12:0 # [duncan j watts] [djw24@columbia.edu] [0.500000, 0.500000] [0, 1] [0.000000, 0.000000]
0.42796203415075989573423953515885 1:0.69999999 2:0.23076923 3:0.16666667 4:0.33333334 5:0.16666667 6:0 7:1 8:0 9:0.11111111 10:0.11111111 11:0 12:0 # [chiwang shu] [chi-wang_shu@brown.edu] [0.166667, 0.333333] [0, 1] [0.111111, 0.111111]
-0.42796203415075989573423953515885 1:0.25 2:0 3:0.2 4:0.2 5:0.66666669 6:1 7:1 8:0 9:0 10:0 11:0 12:0 # [david a case] [dlc@tblaw.com] [0.200000, 0.200000] [1, 1] [0.000000, 0.000000]
0.42796203415075989573423953515885 1:0.125 2:0 3:0.33333334 4:0.66666669 5:0.2857143 6:1 7:1 8:1 9:0.11111111 10:0.33333334 11:0 12:0 # [ashok agarwal] [agarwaa@ccf.org] [0.333333, 0.666667] [1, 1] [0.111111, 0.333333]
0.42796203415075989573423953515885 1:0.3125 2:0 3:0.5 4:0.5 5:0.13333334 6:0 7:0 8:0 9:0 10:0 11:0 12:0 # [david wetherall] [david.wetherell@deakin.edu.au] [0.500000, 0.500000] [0, 0] [0.000000, 0.000000]
-0.42796203415075989573423953515885 1:0.5 2:0.5 3:0.33333334 4:0.33333334 5:0.090909094 6:1 7:0 8:0 9:0 10:0 11:0 12:0 # [dennis a benson] [denniscovey@bensonandmangold.com] [0.333333, 0.333333] [1, 0] [0.000000, 0.000000]
0.42796203415075989573423953515885 1:0 2:0.85714287 3:0.25 4:0.25 5:0.16666667 6:1 7:0 8:0 9:0 10:0 11:0 12:0 # [bruce fischl] [fischl@cns.bu.edu] [0.250000, 0.250000] [1, 0] [0.000000, 0.000000]
0.42796203415075989573423953515885 1:0.2 2:0 3:0.5 4:0.5 5:0.25 6:1 7:1 8:0 9:0.125 10:0 11:0 12:0 # [alexei v filippenko] [alex@astro.berkeley.edu] [0.500000, 0.500000] [1, 1] [0.125000, 0.000000]
0.42796203415075989573423953515885 1:0.125 2:0 3:0.66666669 4:1 5:0.2857143 6:1 7:1 8:0 9:0 10:0 11:0 12:0 # [birger wernerfelt] [bwerner@mit.edu] [0.666667, 1.000000] [1, 1] [0.000000, 0.000000]
0.42796203415075989573423953515885 1:0 2:0.85714287 3:0.25 4:0.25 5:0.33333334 6:1 7:0 8:0 9:0 10:0.11111111 11:0 12:0 # [david l nelson] [nelson@biochem.wisc.edu] [0.250000, 0.250000] [1, 0] [0.000000, 0.111111]
0.42796203415075989573423953515885 1:0 2:0.83333331 3:0.25 4:0.5 5:0.2 6:0 7:0 8:1 9:0.16666667 10:0 11:0 12:0 # [dan suciu] [suciu@cs.washington.edu] [0.250000, 0.500000] [0, 0] [0.166667, 0.000000]
-0.42796203415075989573423953515885 1:0.25 2:0 3:0.33333334 4:0.33333334 5:0.66666669 6:1 7:0 8:0 9:0 10:0 11:0 12:0 # [ashok agarwal] [aka@uvic.ca] [0.333333, 0.333333] [1, 0] [0.000000, 0.000000]
-0.42796203415075989573423953515885 1:0.14285715 2:0 3:0.5 4:1 5:0.33333334 6:1 7:1 8:0 9:0 10:0.083333336 11:0 12:0 # [deborah l mcguinness] [mcguid@rpi.edu] [0.500000, 1.000000] [1, 1] [0.000000, 0.083333]
0.42796203415075989573423953515885 1:0.25 2:0.55555558 3:0.2 4:0.2 5:0.375 6:1 7:0 8:0 9:0 10:0 11:0 12:0 # [cheryl a evans] [cevans20@uco.edu] [0.200000, 0.200000] [1, 0] [0.000000, 0.000000]
-0.42796203415075989573423953515885 1:0.54545456 2:0.36363637 3:0.2 4:0.2 5:0.2 6:1 7:0 8:0 9:0 10:0 11:0 12:0 # [david a case] [david.wald@case.edu] [0.200000, 0.200000] [1, 0] [0.000000, 0.000000]
0.42796203415075989573423953515885 1:0.125 2:0 3:1 4:1 5:0.2857143 6:1 7:1 8:0 9:0 10:0 11:0 12:0 # [alan coulson] [acoulso@clemson.edu] [1.000000, 1.000000] [1, 1] [0.000000, 0.000000]
-0.42796203415075989573423953515885 1:0 2:0.46666667 3:0.5 4:0.5 5:0.14285715 6:1 7:1 8:0 9:0 10:0 11:0 12:0 # [alessandro moretta] [lorenzomoretta@ospedalegaslini.ge.it] [0.500000, 0.500000] [1, 1] [0.000000, 0.000000]
-0.42796203415075989573423953515885 1:0 2:1.2 3:0.33333334 4:0.33333334 5:0 6:1 7:0 8:0 9:0 10:0 11:0 12:1 # [cees dekker] [info@cees-dekker.nl] [0.333333, 0.333333] [1, 0] [0.000000, 0.000000]
-0.42796203415075989573423953515885 1:0.16666667 2:0 3:0.5 4:0.5 5:0.2 6:0 7:0 8:0 9:0 10:0 11:0 12:0 # [amir pnueli] [manna@cs.stanford.edu] [0.500000, 0.500000] [0, 0] [0.000000, 0.000000]
-0.42796203415075989573423953515885 1:0.14285715 2:0 3:0.33333334 4:0.33333334 5:0.33333334 6:0 7:0 8:0 9:0.14285715 10:0 11:0 12:0 # [amit p sheth] [ashish@email.arc.nasa.gov] [0.333333, 0.333333] [0, 0] [0.142857, 0.000000]
0.42796203415075989573423953515885 1:0.25 2:0 3:0.33333334 4:0.66666669 5:0.66666669 6:1 7:1 8:0 9:0.2 10:0.2 11:0 12:0 # [donald a norman] [don@jnd.org] [0.333333, 0.666667] [1, 1] [0.200000, 0.200000]
0.42796203415075989573423953515885 1:0.625 2:0.33333334 3:0.25 4:0.25 5:0.27272728 6:1 7:1 8:0 9:0 10:0 11:0 12:0 # [anil k jain] [dranilkjain@gmail.com] [0.250000, 0.250000] [1, 1] [0.000000, 0.000000]
-0.38780229164917617845631525597128 1:0 2:1 3:0.33333334 4:0.33333334 5:0 6:0 7:0 8:0 9:0 10:0 11:0 12:1 # [craig j hogan] [info@hoganforgovernor.com] [0.333333, 0.333333] [0, 0] [0.000000, 0.000000]
-0.42796203415075989573423953515885 1:0.25 2:0 3:0.5 4:0.5 5:0.33333334 6:1 7:1 8:0 9:0 10:0 11:0 12:0 # [anders krogh] [anm@dmjx.dk] [0.500000, 0.500000] [1, 1] [0.000000, 0.000000]
0.42796203415075989573423953515885 1:0 2:0.75 3:0.5 4:0.5 5:0.2857143 6:0 7:0 8:0 9:0 10:0 11:0 12:0 # [adi shamir] [rshamir@tau.ac.il] [0.500000, 0.500000] [0, 0] [0.000000, 0.000000]
-0.42796203415075989573423953515885 1:0.16666667 2:0 3:0.5 4:0.5 5:0.40000001 6:1 7:1 8:0 9:0 10:0 11:0 12:0 # [amartya sen] [as341@cam.ac.uk] [0.500000, 0.500000] [1, 1] [0.000000, 0.000000]
0.42796203415075989573423953515885 1:0.80000001 2:0 3:0.33333334 4:0.33333334 5:0.25 6:0 7:0 8:0 9:0.07692308 10:0 11:0 12:0 # [chad nusbaum] [chad@broad.mit.edu] [0.333333, 0.333333] [0, 0] [0.076923, 0.000000]
-0.42796203415075989573423953515885 1:0.14285715 2:0 3:0.14285715 4:0.5714286 5:0.16666667 6:0 7:1 8:1 9:0.083333336 10:0 11:0 12:0 # [changgong liu] [chenw4@umdnj.edu] [0.142857, 0.571429] [0, 1] [0.083333, 0.000000]
0.42796203415075989573423953515885 1:0.25 2:0 3:0.5 4:0.75 5:0.66666669 6:1 7:0 8:0 9:0 10:0 11:0 12:0 # [alex bateman] [agb@ebi.ac.uk] [0.500000, 0.750000] [1, 0] [0.000000, 0.000000]
-0.42796203415075989573423953515885 1:0.40000001 2:0 3:0.2 4:0.2 5:0.21428572 6:0 7:0 8:0 9:0 10:0 11:0 12:0 # [david a patterson] [david.paterson@dpag.ox.ac.uk] [0.200000, 0.200000] [0, 0] [0.000000, 0.000000]
0.42796203415075989573423953515885 1:0 2:0.85714287 3:0.22222222 4:0.33333334 5:0.33333334 6:0 7:1 8:1 9:0 10:0 11:0 12:0 # [david e culler] [culler@cs.berkeley.edu] [0.222222, 0.333333] [0, 1] [0.000000, 0.000000]
0.42796203415075989573423953515885 1:0.83333331 2:0 3:0.5 4:0.5 5:0.2 6:0 7:1 8:0 9:0 10:0 11:0 12:0 # [brian p schmidt] [brian@mso.anu.edu.au] [0.500000, 0.500000] [0, 1] [0.000000, 0.000000]
-0.42796203415075989573423953515885 1:0.11111111 2:0 3:0.5 4:0.5 5:0.25 6:1 7:1 8:0 9:0 10:0 11:0 12:0 # [charles r johnson] [chasjohn@uw.edu] [0.500000, 0.500000] [1, 1] [0.000000, 0.000000]
0.42796203415075989573423953515885 1:0.40000001 2:0 3:0.2 4:0.40000001 5:0.75 6:1 7:0 8:0 9:0 10:0 11:0 12:0 # [alan j heeger] [ajhe@physics.ucsb.edu] [0.200000, 0.400000] [1, 0] [0.000000, 0.000000]
-0.42796203415075989573423953515885 1:0.18181819 2:0.26666668 3:0.2 4:0.2 5:0.21428572 6:0 7:0 8:0 9:0 10:0 11:0 12:0 # [david a case] [secretarydcase@newyorkphysicians.com] [0.200000, 0.200000] [0, 0] [0.000000, 0.000000]
0.42796203415075989573423953515885 1:0 2:0.8888889 3:0.33333334 4:0.33333334 5:0.25 6:1 7:1 8:0 9:0 10:0.07692308 11:0 12:0 # [alfonso valencia] [valencia@cnb.uam.es] [0.333333, 0.333333] [1, 1] [0.000000, 0.076923]
-0.42796203415075989573423953515885 1:0.07692308 2:0.46153846 3:0.2 4:0.2 5:0.083333336 6:1 7:0 8:0 9:0 10:0 11:0 12:0 # [david j hunter] [andrea.baden@hunter.cuny.edu] [0.200000, 0.200000] [1, 0] [0.000000, 0.000000]
-0.42796203415075989573423953515885 1:0.2 2:0 3:0.25 4:0.25 5:0.25 6:1 7:1 8:0 9:0 10:0 11:0 12:0 # [bradley efron] [brad@stat.stanfxxx.edu] [0.250000, 0.250000] [1, 1] [0.000000, 0.000000]
-0.42796203415075989573423953515885 1:0 2:0 3:0.14285715 4:0.5714286 5:0.2 6:0 7:1 8:1 9:0.083333336 10:0 11:0 12:0 # [changgong liu] [linto@umdnj.edu] [0.142857, 0.571429] [0, 1] [0.083333, 0.000000]
-0.42796203415075989573423953515885 1:0 2:1 3:0.33333334 4:0.33333334 5:0 6:1 7:1 8:0 9:0 10:0 11:0 12:1 # [david a maltz] [info@maltzauctions.com] [0.333333, 0.333333] [1, 1] [0.000000, 0.000000]
0.42796203415075989573423953515885 1:0.625 2:0.33333334 3:0.25 4:0.25 5:0.27272728 6:1 7:0 8:0 9:0 10:0 11:0 12:0 # [anil k jain] [anil.k.jain@frb.gov] [0.250000, 0.250000] [1, 0] [0.000000, 0.000000]
-0.42796203415075989573423953515885 1:0.25 2:0 3:0.11111111 4:0.33333334 5:0.33333334 6:0 7:0 8:0 9:0 10:0 11:0 12:0 # [david e culler] [daw@cs.berkeley.edu] [0.111111, 0.333333] [0, 0] [0.000000, 0.000000]
0.22431266448592424023189551007817 1:0 2:0.85714287 3:0.2 4:0.80000001 5:0.16666667 6:1 7:1 8:0 9:0.42857143 10:0 11:0 12:0 # [bill triggs] [triggs@imag.fr] [0.200000, 0.800000] [1, 1] [0.428571, 0.000000]
-0.42796203415075989573423953515885 1:0.07692308 2:0 3:0.11111111 4:0.66666669 5:0.16666667 6:1 7:1 8:0 9:0.375 10:0 11:0 12:0 # [dan r littman] [jeff.blenker@med.nyu.edu] [0.111111, 0.666667] [1, 1] [0.375000, 0.000000]
0.42796203415075989573423953515885 1:0.16666667 2:0.33333334 3:1 4:1 5:0.25 6:0 7:0 8:0 9:0 10:0 11:0 12:0 # [chengteh lee] [c2000lee@aol.com] [1.000000, 1.000000] [0, 0] [0.000000, 0.000000]
0.42796203415075989573423953515885 1:0 2:0.85714287 3:0.25 4:0.5 5:0.33333334 6:0 7:1 8:0 9:0 10:0 11:0 12:0 # [david l nelson] [nelson@bcm.edu] [0.250000, 0.500000] [0, 1] [0.000000, 0.000000]
-0.42796203415075989573423953515885 1:0.16666667 2:0 3:0.33333334 4:0.33333334 5:0.2 6:0 7:1 8:0 9:0 10:0 11:0 12:0 # [don towsley] [sadoc@dcc.ufrj.br] [0.333333, 0.333333] [0, 1] [0.000000, 0.000000]
-0.42796203415075989573423953515885 1:0.16666667 2:0 3:0.25 4:0.5 5:0.2 6:0 7:0 8:0 9:0 10:0 11:0 12:0 # [bruce fischl] [dboas@nmr.mgh.harvard.edu] [0.250000, 0.500000] [0, 0] [0.000000, 0.000000]
0.42796203415075989573423953515885 1:0.80000001 2:0 3:0.5 4:0.5 5:0.25 6:1 7:1 8:0 9:0 10:0 11:0 12:0 # [amir pnueli] [amir@wisdom.weizmann.ac.il] [0.500000, 0.500000] [1, 1] [0.000000, 0.000000]
0.42796203415075989573423953515885 1:0.33333334 2:0 3:0.33333334 4:0.66666669 5:0.60000002 6:1 7:1 8:1 9:0.25 10:0 11:0 12:0 # [barry j everitt] [bje10@cam.ac.uk] [0.333333, 0.666667] [1, 1] [0.250000, 0.000000]
-0.42796203415075989573423953515885 1:0 2:1 3:0.2 4:0.2 5:0 6:1 7:0 8:0 9:0 10:0 11:1 12:0 # [david j hunter] [email@d.j.hunter] [0.200000, 0.200000] [1, 0] [0.000000, 0.000000]
0.13289095200194567247820032207528 1:0.33333334 2:0.72727275 3:0.33333334 4:0.66666669 5:0.2 6:0 7:0 8:0 9:0 10:0 11:0 12:0 # [albertlaszlo barabasi] [a.barabasi@neu.edu] [0.333333, 0.666667] [0, 0] [0.000000, 0.000000]
0.42796203415075989573423953515885 1:0.80000001 2:0.33333334 3:0.25 4:0.5 5:0.14285715 6:0 7:0 8:0 9:0 10:0.16666667 11:0 12:0 # [avshalom caspi] [avshalom.caspi@duke.edu] [0.250000, 0.500000] [0, 0] [0.000000, 0.166667]
-0.42796203415075989573423953515885 1:0.125 2:0 3:0.14285715 4:0.42857143 5:0.2857143 6:1 7:1 8:0 9:0 10:0.090909094 11:0 12:0 # [charles e leiserson] [locutus@mit.edu] [0.142857, 0.428571] [1, 1] [0.000000, 0.090909]
0.42796203415075989573423953515885 1:0.71428573 2:0.46153846 3:0.2 4:0.2 5:0.16666667 6:0 7:1 8:0 9:0 10:0 11:0 12:0 # [bruce a j ponder] [bruce.ponder@srl.cam.ac.uk] [0.200000, 0.200000] [0, 1] [0.000000, 0.000000]
0.42796203415075989573423953515885 1:0 2:0.83333331 3:0.5 4:1 5:0.2 6:0 7:0 8:0 9:0 10:0 11:0 12:0 # [donald geman] [geman@jhu.edu] [0.500000, 1.000000] [0, 0] [0.000000, 0.000000]
0.42796203415075989573423953515885 1:0 2:0.8888889 3:0.33333334 4:0.66666669 5:0.25 6:1 7:0 8:0 9:0 10:0 11:0 12:0 # [alfonso valencia] [valencia@cnio.es] [0.333333, 0.666667] [1, 0] [0.000000, 0.000000]
0.16020734520799922995237807299418 1:0.33333334 2:0 3:0.33333334 4:0.66666669 5:1 6:0 7:0 8:0 9:0 10:0 11:0 12:0 # [dinesh manocha] [dm@cs.unc.edu] [0.333333, 0.666667] [0, 0] [0.000000, 0.000000]
0.42796203415075989573423953515885 1:0.69999999 2:0.23076923 3:0.5 4:0.5 5:0.16666667 6:1 7:1 8:0 9:0 10:0 11:0 12:0 # [chihjen lin] [chih-jen.lin@ed.ac.uk] [0.500000, 0.500000] [1, 1] [0.000000, 0.000000]
-0.14446208323284004393372015329078 1:0.125 2:0 3:0.25 4:0.25 5:0.2857143 6:0 7:1 8:0 9:0 10:0 11:0 12:0 # [dan suciu] [sudeepa@cs.duke.edu] [0.250000, 0.250000] [0, 1] [0.000000, 0.000000]
0.0090707830767817743122805040911771 1:0 2:0.75 3:0.5 4:0.75 5:0.33333334 6:1 7:1 8:0 9:0 10:0.5 11:0 12:0 # [ashoke sen] [sen@mri.ernet.in] [0.500000, 0.750000] [1, 1] [0.000000, 0.500000]
0.0028671490207596034976988974563028 1:0.625 2:0.46666667 3:0.5 4:0.5 5:0.14285715 6:0 7:1 8:0 9:0 10:0 11:0 12:0 # [brian p schmidt] [brianl.schmidt@nyu.edu] [0.500000, 0.500000] [0, 1] [0.000000, 0.000000]
